5994 16
36934 1.029703 0.374043 -0.222307 -1.617936 -0.351927 0.677949 -0.257120 0.870067 -0.757403 -2.851698 -0.825650 0.000524 -1.270533 0.619109 -0.330739 -1.228869 
36926 -1.061371 0.721006 0.259632 -0.770536 -1.275013 1.072044 -0.462661 1.233011 -2.113606 -1.278586 0.434444 -0.996754 -0.752124 2.220876 0.486780 0.546164 
37060 -0.008248 0.816926 -0.925000 -1.890270 -0.587622 1.912066 0.815350 3.005277 -0.391738 0.116960 0.824389 -0.124416 -1.340986 0.529891 -0.873367 -0.516543 
37073 0.865870 1.232892 0.224365 -0.186457 -0.948139 2.042657 0.886546 -0.301497 -0.975064 -1.875693 0.105787 0.790059 -2.590617 1.143290 -0.668966 0.870380 
37247 -0.009697 -0.013989 0.026430 0.024449 -0.007374 0.026343 0.030127 0.011346 0.031143 -0.019444 -0.009573 -0.013171 -0.018169 0.017592 0.009871 0.002656 
37229 0.363475 0.533575 1.338516 0.708636 0.584270 -0.355057 0.743313 1.530584 -1.288827 -3.028344 0.526748 0.526530 -0.400030 0.943297 1.718621 -1.035200 
37761 -0.016747 0.014483 -0.010649 0.029729 -0.010029 -0.028680 0.016973 -0.000464 -0.021805 0.006099 0.009012 -0.003009 0.011402 -0.024735 0.005507 0.011353 
37283 -1.160779 -0.101660 0.495041 -1.251320 -1.183895 -0.395105 1.738020 0.407066 0.757556 -2.247350 -1.177333 -0.844790 -0.390553 1.688756 1.312471 -0.030380 
37147 -0.962857 0.682320 1.143773 -2.205152 -1.131973 -0.784638 1.766140 0.547832 0.514484 -1.231889 -0.896881 -1.179913 -1.389738 0.504360 0.377205 -0.567015 
37461 -0.019997 -0.019467 0.015276 -0.011668 0.016750 0.023063 0.008474 0.018441 0.015472 0.014628 -0.022192 -0.021457 -0.022854 -0.000825 0.025816 -0.017104 
37053 0.280814 1.015622 -0.107217 -1.272688 -1.681302 0.740875 1.237149 2.118340 0.824532 -1.824318 -0.845636 0.628526 -1.832874 -0.082012 0.615660 2.380506 
37111 -1.457411 -0.655479 -1.376549 0.416947 -1.184461 2.322402 1.806661 1.372182 -1.755982 -1.899222 -1.471586 -0.325376 -1.058513 0.365120 -0.720959 0.035321 
37552 -0.014458 0.029590 0.026552 -0.024745 0.005444 -0.014062 0.000952 0.018792 0.030289 0.012416 0.025705 0.019666 -0.001446 0.027968 0.015852 0.029634 
36987 -0.453862 1.146183 0.653986 -0.785348 0.586383 0.776038 2.978627 0.841708 -2.234639 1.357415 0.999776 0.177662 -0.593253 1.533189 -0.016741 0.274677 
37195 -1.779920 2.719934 0.183222 -0.156452 -0.437081 -0.925346 1.862224 1.890125 -0.815429 0.174302 -0.686446 -0.454819 -1.627839 2.149528 1.914787 -0.203089 
38143 -0.000130 -0.025846 0.023180 -0.009501 0.018551 -0.015054 -0.005594 0.000588 0.022644 -0.000539 0.027704 -0.004642 0.013126 -0.000855 -0.024385 0.026567 
37450 0.006599 -0.018933 0.018801 -0.025905 -0.027210 0.020423 -0.021448 -0.016547 0.022049 0.020534 0.004282 0.028272 0.030354 0.025344 0.011030 -0.027190 
36942 0.978236 1.486737 1.727251 -1.899188 -0.612892 -0.129573 1.284641 2.307506 -0.012239 -0.707420 0.018780 1.200146 0.833367 2.153439 0.364119 0.602625 
37289 0.022987 0.001727 0.005159 -0.028438 -0.006428 0.020087 -0.011164 0.026330 -0.007462 -0.024236 -0.016195 0.030622 0.020863 -0.024796 0.030104 -0.026305 
37384 -0.029854 0.015475 -0.004103 -0.014567 -0.002384 -0.015725 0.014975 0.023843 0.026123 -0.027577 -0.013250 0.000058 -0.005856 0.023864 0.013762 0.028337 
37368 -0.019218 0.010669 0.026674 -0.011439 0.018261 0.008033 -0.028223 0.026238 0.029434 -0.018224 -0.001516 -0.009997 0.015278 -0.024156 0.021833 -0.005889 
37005 -0.705912 -0.943049 0.856632 -0.352032 0.703480 0.167875 1.254611 0.010065 -2.260103 -1.398131 0.381116 -1.527660 -1.507651 1.966504 1.498903 -0.851782 
37264 0.004982 0.007892 0.020845 0.025090 -0.015644 -0.015740 -0.010126 -0.016822 0.007736 -0.023931 -0.014181 -0.031085 0.013599 0.027267 -0.013781 -0.028441 
36927 -0.604320 1.457031 -0.305277 0.181868 -0.314485 2.830320 1.097658 2.240340 -0.488243 -0.412926 0.248868 1.625162 0.464738 0.185337 1.388965 -1.324967 
37373 -0.029411 -0.006604 -0.012327 0.018651 0.016857 0.011268 -0.019373 0.022149 -0.010056 0.021144 0.008310 0.029859 0.015827 0.004470 -0.014238 0.031037 
37577 -0.013893 0.020816 0.031145 0.030568 -0.004490 0.020377 0.028250 -0.013541 0.029388 -0.031026 0.001490 -0.002658 0.026218 -0.026948 -0.009096 -0.010024 
37581 0.002602 0.029681 -0.010344 -0.030757 -0.009235 0.026557 0.006536 0.018151 -0.023941 -0.008000 0.003458 -0.014667 0.021961 -0.030046 0.020460 -0.014953 
37153 0.168790 0.545548 -0.218790 -0.807688 -1.648527 1.258019 2.566647 1.300045 -0.593804 -0.660525 1.880940 -1.710871 -2.178617 0.966015 0.937994 1.323853 
37480 -0.023979 -0.008252 0.026796 0.001866 0.031078 0.030128 0.005102 -0.028815 0.028580 0.013637 -0.028738 0.022840 -0.030499 -0.013780 0.027815 0.021089 
37148 -0.595609 1.466551 -0.552867 0.126532 -0.690770 1.611559 1.767152 -0.378650 -1.384129 -2.438409 0.018518 0.019559 -1.239149 -0.614365 2.798499 0.762610 
37502 0.015846 0.004596 -0.025908 -0.008479 0.012798 0.021979 -0.023676 0.006249 0.022507 0.023555 -0.025778 0.017377 -0.016552 -0.009233 0.007826 0.014161 
37700 -0.025276 -0.016812 0.007799 0.001485 0.028561 0.013511 -0.017069 -0.000144 0.005310 -0.014943 0.020136 -0.017093 0.030949 0.004272 -0.028048 0.002397 
37089 0.499229 1.886220 0.027109 -1.840610 -0.279431 -0.790870 2.165597 1.844563 -1.732226 -0.946877 1.840059 0.233938 -0.739219 -1.029629 1.140372 0.124725 
37319 0.020409 0.009707 0.007830 -0.010814 -0.015110 -0.012216 -0.024363 0.001718 0.005096 0.008647 0.013330 -0.024508 0.019505 -0.008759 -0.026552 0.024766 
38090 -0.017784 -0.004865 -0.025846 0.029424 -0.012043 -0.029473 0.024237 0.009973 0.022079 0.008235 0.023111 0.002545 0.023060 0.027205 0.010817 -0.003600 
37246 0.007500 0.024508 -0.019484 -0.003581 0.007626 0.012839 0.003500 0.023110 0.008789 0.020518 -0.020819 -0.012393 0.011967 0.028991 0.010099 0.004167 
37225 -0.028740 -0.027173 0.026918 0.015172 -0.018604 -0.010278 -0.024073 -0.021369 0.027725 -0.017003 0.006540 -0.006824 -0.013775 -0.003404 -0.028704 -0.014434 
37779 -0.001503 0.027591 -0.011641 0.023183 -0.028233 0.026175 0.004019 0.001534 0.016388 0.020671 -0.019812 0.019254 0.008335 -0.007478 0.019407 0.003098 
37627 0.026711 0.001300 -0.010160 0.020452 -0.021259 -0.002801 0.025274 0.029321 -0.025223 0.008540 0.025126 0.003339 0.015797 0.016768 0.029432 -0.005736 
37715 -0.006599 0.018954 -0.031141 0.006978 0.002316 0.027793 -0.022806 -0.000510 0.027893 0.009105 0.016352 0.007932 0.008610 0.006835 0.001371 0.021562 
37558 0.023567 0.018054 -0.012083 -0.017238 -0.020008 -0.007043 -0.015223 -0.025458 -0.011765 0.022365 0.016367 -0.029468 -0.013226 0.025222 -0.002275 0.022492 
37383 -0.007790 -0.001401 -0.015486 0.010304 -0.025730 0.017692 -0.014475 0.016976 -0.019196 -0.014180 0.025171 0.016141 0.012791 0.009429 0.018492 -0.002944 
37971 0.024330 0.023089 0.021151 0.027104 -0.014851 -0.023004 -0.020563 0.001794 0.005600 0.024470 -0.019735 0.019757 0.024158 0.021956 0.001173 0.007752 
37205 -1.537480 1.176986 -0.655089 -2.561426 1.267922 0.462909 1.063808 0.040580 -3.022069 -1.741755 -0.293930 -0.617648 -1.295427 -0.629066 0.462463 -0.599825 
36990 0.349564 0.816294 -0.529680 -1.081565 -2.311538 1.632072 0.588778 1.767348 -2.043321 -0.599775 -0.260123 1.252909 0.058173 1.111785 -0.460540 1.548256 
37209 0.001549 -0.014768 -0.003706 0.013051 -0.007603 0.024833 -0.017344 -0.014457 0.023346 0.029094 0.023279 0.028653 -0.029629 -0.020539 -0.029299 0.006639 
37265 -0.024925 -0.001996 0.005587 -0.013118 0.007183 -0.027581 0.011724 -0.010108 -0.010452 -0.006474 0.013529 -0.010699 -0.014355 -0.019731 -0.011461 -0.025634 
37778 0.012077 -0.007779 -0.007582 0.012471 -0.023930 -0.020425 -0.028543 -0.000876 -0.012024 -0.029347 0.012568 -0.029544 -0.013729 0.009398 0.030790 -0.021773 
37382 -0.012444 0.030383 0.019289 0.027318 0.024059 -0.016198 -0.013147 0.013238 0.018631 0.022975 0.020395 -0.027881 -0.027752 0.004348 -0.027544 0.018220 
37170 0.335325 1.745497 0.385362 -1.860136 0.002362 1.463135 2.797584 0.677941 -0.289733 -0.500472 -0.661498 -0.417611 0.754354 3.217724 -0.149435 -1.533065 
36953 -0.031091 0.996750 0.347878 0.405722 -1.056954 -0.622316 1.259962 2.829336 -2.345420 -0.319296 -1.254317 0.537822 -0.680167 1.611441 -0.712036 -1.736172 
37362 -0.017647 -0.028958 0.027636 0.007405 0.017635 -0.021096 -0.007975 0.022378 -0.008545 0.006114 -0.028387 -0.024844 0.029789 -0.028382 0.006437 -0.020003 
1025 -0.113821 0.404925 1.389123 -0.760663 -2.181903 -0.386680 1.272160 -0.351827 1.463972 -1.351521 -0.855021 -1.586933 0.302224 0.680822 0.522249 -0.385273 
37773 0.004601 0.005374 0.004229 0.002919 0.013027 0.023490 0.023794 -0.030448 0.030304 -0.024983 0.003870 -0.024447 -0.005093 0.028899 -0.015505 0.010179 
37776 -0.014061 -0.005292 0.021334 0.015813 -0.026875 0.010139 -0.001825 0.012963 0.004318 -0.021489 0.001932 -0.024737 0.017994 0.006270 0.010145 0.016969 
37677 0.030754 0.027987 0.015978 0.017964 0.012325 -0.006143 0.028219 -0.001243 0.010559 -0.005300 0.008783 -0.004519 0.026432 0.011962 -0.002291 -0.002608 
38576 0.014046 -0.019788 -0.011839 0.009374 0.005627 -0.025353 -0.011072 -0.010566 -0.013474 0.023585 0.024424 -0.026294 0.020222 -0.016526 0.009687 0.013947 
37565 -0.001686 -0.023618 0.000383 -0.009959 0.015530 0.015006 0.005301 -0.015006 -0.005280 0.002666 -0.013647 -0.027560 -0.000637 -0.016694 -0.016420 0.004136 
37528 -0.016441 0.016498 -0.009855 0.022466 -0.020466 -0.010064 0.014837 -0.014564 -0.027359 -0.005559 0.019571 -0.008319 0.026356 0.011458 -0.018114 0.030457 
38242 -0.030220 -0.024442 0.019945 -0.018352 0.022640 0.024436 0.017538 -0.009238 -0.017212 -0.001088 -0.000921 -0.031070 -0.023800 0.005431 0.004606 0.030412 
38517 0.019478 -0.021436 0.027285 -0.007411 0.019848 -0.006494 0.013403 0.000970 0.025162 0.016078 -0.012625 0.029187 -0.026104 0.027724 -0.010759 0.003999 
37522 0.007652 0.025516 0.012163 -0.007213 -0.028843 0.022147 0.002432 0.016061 -0.025238 -0.016561 -0.015539 -0.015048 0.019444 0.015838 -0.001711 0.013719 
37260 -0.003197 -0.008588 -0.025419 -0.017756 0.001568 -0.014642 -0.015375 -0.026465 0.019089 0.025996 -0.009665 0.023725 -0.012157 -0.030229 -0.030748 -0.002929 
37030 0.388109 1.262463 0.907108 -1.552715 -0.042449 -0.582813 0.746665 1.197624 -0.207949 -0.944724 1.527746 0.223165 -1.592258 3.096529 0.159438 -1.811543 
37803 -0.021965 -0.007459 0.019533 -0.008571 -0.012806 0.027991 -0.008997 0.028131 0.016922 0.024196 0.028452 -0.024707 0.005695 0.025100 -0.015581 0.009675 
38223 -0.029884 0.027774 -0.022932 0.011159 0.004910 -0.017587 0.015188 0.000253 -0.029572 -0.020162 -0.001806 0.013089 -0.007351 0.001494 0.028624 -0.023574 
37364 0.025673 -0.018048 -0.025358 0.020146 -0.023273 -0.003594 -0.029963 -0.022742 0.018661 0.010676 -0.023275 0.008893 0.027454 0.006209 -0.027758 -0.020690 
37664 0.019707 -0.019925 0.012255 0.018392 0.027645 0.007468 -0.019449 0.021646 -0.025879 -0.008290 0.026545 0.025205 -0.014889 -0.023255 0.002775 0.018327 
38213 0.014717 0.022143 0.027407 0.005895 -0.029835 0.015601 -0.015772 0.008416 0.024307 -0.014562 0.022654 -0.000476 -0.009380 -0.024400 -0.004778 0.030976 
37015 1.623986 0.638742 -0.024177 -2.587976 -0.412696 0.219305 0.605775 0.798556 -1.051840 -2.754074 0.958409 1.222303 0.373796 0.309544 1.162168 0.424713 
37088 -0.943827 -0.877275 -0.578214 1.008785 1.186506 1.170964 1.972264 1.139704 -1.138235 -2.032120 -0.865414 2.571487 -1.050245 0.385840 0.852444 -1.736733 
37169 -1.768350 -0.903742 -0.327912 -0.761159 -1.130610 1.665483 1.525760 2.060776 1.601893 -0.022342 -0.860168 1.237986 -2.701718 0.402550 1.613795 -0.588870 
37066 0.041341 0.832179 1.180775 -0.150570 -3.313153 0.572478 1.864634 2.311117 -1.685688 0.305354 -0.831650 0.484791 0.103934 -0.149132 1.482094 0.416124 
37004 0.564348 0.027235 -0.264714 -1.318796 -0.001299 -1.333495 0.929161 3.333422 -1.713299 -1.331091 -0.623053 -0.259334 -2.590373 0.022454 -0.711014 -0.122550 
37002 -0.682814 -0.924413 1.919200 -1.671077 -1.678407 0.661824 2.082751 -0.710306 -0.226191 0.379539 -0.605454 1.603016 -2.140735 0.382866 1.689433 -0.624126 
36996 -1.845866 1.607417 2.305486 -0.559290 -0.738548 1.072668 0.293370 0.545520 -0.855773 -0.337079 0.503449 1.149575 -0.658437 2.846149 1.363665 0.284295 
36994 0.868095 -0.825377 1.450192 -1.276661 -1.295581 2.607523 0.579565 1.703589 -0.492784 -0.540367 -0.529207 -1.494587 -0.775503 2.060286 0.993974 -0.630760 
38627 0.013756 0.003299 0.028032 -0.027476 0.012417 0.019462 0.022207 -0.015922 -0.011322 0.000285 0.008142 0.003751 0.006016 -0.010285 0.025877 0.020799 
37679 0.018532 -0.015180 0.006075 -0.022395 -0.004047 -0.001702 0.020025 0.019677 -0.013870 -0.004033 0.029642 -0.004352 -0.009960 0.021773 0.012465 0.019776 
38393 0.024284 0.010287 0.024157 -0.028056 -0.003910 -0.025796 0.011007 -0.002341 0.015808 0.004344 -0.002569 0.008054 0.021915 0.019652 0.023466 -0.007613 
38078 0.031013 0.017200 0.019777 0.018041 0.012829 0.009681 -0.004847 -0.019477 0.015213 0.025416 -0.025991 -0.021533 -0.023357 -0.016648 -0.003618 0.001130 
37878 -0.023781 0.005557 -0.007063 -0.009105 -0.016331 -0.020272 -0.027536 0.030770 -0.015656 -0.003316 0.021875 -0.030612 -0.020779 -0.024629 -0.006289 -0.016494 
37885 -0.015099 -0.024640 0.006136 0.015508 -0.028889 0.009345 0.005438 0.023400 -0.014297 -0.019353 0.016031 -0.019183 0.029652 -0.004289 0.015455 0.002015 
37416 -0.005440 -0.010892 -0.003126 0.029378 -0.024845 -0.026467 -0.030924 0.020913 0.019287 -0.022695 0.018976 0.012753 0.002934 -0.018128 -0.000887 -0.005843 
38029 0.005196 -0.015698 0.027651 -0.029994 -0.004200 -0.002709 -0.011621 0.023309 0.022598 -0.013341 0.030710 0.002698 0.024067 -0.003648 0.007185 0.022431 
37203 -0.238609 0.224102 0.340269 0.537443 0.482122 1.163455 1.065376 3.341678 -1.124182 -0.050672 -0.581042 2.268868 -0.012194 3.167639 0.340149 0.781828 
37408 0.029396 -0.018476 0.021822 0.006536 0.024395 -0.026483 0.006475 -0.019752 0.000900 -0.019048 0.018045 -0.018390 0.022388 -0.014726 -0.028429 -0.000121 
36961 -0.357656 -1.820018 0.275330 -0.689061 -2.701029 -0.264348 1.603840 1.263319 -1.161692 0.374157 0.217741 -0.336109 -2.100629 1.277538 0.361240 -1.280595 
36956 -0.181312 0.376319 1.702312 -1.654229 0.079833 -0.897698 -0.111405 1.981799 -0.602073 0.565158 -0.891861 1.028794 -2.701864 1.684025 1.805397 -0.406880 
37399 0.010521 -0.005551 -0.030378 0.012013 -0.026951 0.009635 -0.017649 -0.016471 0.022552 -0.026143 -0.028784 0.010037 -0.027493 -0.006440 -0.023745 0.018296 
37914 0.027016 0.003314 -0.009367 0.013188 0.030804 0.015815 0.023138 0.015222 -0.030777 -0.003118 -0.026815 -0.001971 0.030750 -0.009538 0.005812 0.013368 
37012 -0.414169 0.519274 0.234839 0.969871 -0.350553 -0.162497 1.252973 1.134217 0.397598 -2.600880 -0.191233 0.108625 -3.592390 0.465744 1.366448 -0.326163 
37911 0.000435 0.027881 0.027773 -0.016688 0.008617 0.019385 0.021704 0.030755 0.021744 0.018519 0.003489 -0.026965 -0.021709 0.006728 0.013166 -0.013091 
37397 0.019859 -0.018918 -0.018599 0.014760 -0.008823 0.016776 -0.020517 0.014596 0.002594 0.017131 -0.030676 0.022550 -0.007412 0.026092 -0.009035 0.027879 
37218 -0.022240 -0.021771 -0.024931 -0.027034 -0.009663 0.011237 -0.007074 0.003320 0.015671 0.028438 0.006449 0.030072 -0.007763 0.011275 -0.006823 -0.020019 
37494 -0.000862 0.019320 0.008776 -0.017070 0.006100 0.002769 -0.000467 -0.003074 -0.001526 -0.010060 -0.010138 -0.004397 -0.022762 0.024779 0.019804 0.030717 
37367 0.021492 -0.020642 0.020021 -0.017848 -0.024036 -0.008630 -0.000696 -0.004584 0.013504 0.026637 -0.017935 -0.018359 0.010090 0.004104 0.008345 -0.007415 
37127 0.188667 0.719392 2.697336 -0.554519 0.605931 0.193045 3.733200 -0.669789 -0.198659 -1.142583 0.795947 0.412417 -1.071131 1.353778 1.109930 -1.027407 
37313 0.006630 -0.031232 -0.024870 0.010869 0.027996 0.022285 -0.021662 0.007043 0.015244 0.013118 -0.007162 0.015241 -0.030651 -0.014787 -0.003832 0.024720 
37076 0.715587 -0.431335 -1.022726 -1.385099 -2.781743 1.724932 2.124384 0.900559 -0.781412 -2.170066 0.331737 0.511191 0.382468 -0.653833 0.918792 -1.144444 
37952 -0.004326 0.008960 0.027895 -0.003383 0.021435 -0.021020 -0.007471 -0.024299 0.020889 -0.012120 -0.023733 0.005872 -0.004986 0.017104 0.019148 0.013886 
37444 0.022911 0.001224 -0.010664 0.004628 0.011806 0.015433 0.020620 -0.001395 0.009552 0.025554 0.012415 -0.030551 0.017124 0.013030 0.004759 -0.031081 
37497 -0.011375 -0.025067 -0.009184 0.001897 0.018780 -0.013543 -0.020624 0.026391 0.030441 0.013423 -0.005148 0.016034 0.024586 -0.025224 0.014784 0.022584 
36932 -0.447555 -1.058365 -0.466272 -1.854783 -2.591816 1.112051 1.621720 -0.449899 -1.924118 -1.546066 -0.908490 1.663044 -1.264404 0.254556 -1.368842 0.026288 
37077 -2.986467 1.495450 -0.054719 -0.498772 0.142178 2.172449 2.223355 1.322006 -0.396048 -2.023306 0.448909 0.694052 -0.665618 -0.362830 0.172888 1.083761 
37145 0.536572 0.571798 0.499059 -0.654530 1.156409 -0.286874 1.293333 1.644135 -3.564490 -1.504116 -0.665334 1.257403 0.296553 1.392402 0.943258 1.840060 
36929 -0.626560 -1.415453 0.774959 -1.366547 0.697908 2.355399 2.483438 0.397797 -1.499046 -1.505192 0.695779 -0.524319 -1.501755 -0.630406 -0.264392 -2.095796 
37775 0.019341 0.002658 -0.026197 0.014607 -0.009830 -0.014871 -0.016886 -0.011436 -0.006714 0.018199 -0.023626 -0.005923 0.029667 0.020812 -0.006380 0.020402 
38089 -0.009087 -0.009961 0.028017 0.009923 -0.028248 0.001075 0.025854 -0.016852 0.020035 0.019740 0.011545 -0.023791 0.011738 0.027480 0.025129 -0.021636 
37035 0.105033 0.027204 -0.383839 -2.199752 -0.131860 1.526326 1.443565 0.559218 1.333816 -1.998430 -0.557531 0.836724 -0.807539 -0.109772 2.241852 -2.127420 
37611 -0.000511 -0.028363 0.006563 0.030828 -0.015278 0.024177 0.028326 -0.013038 -0.017288 -0.001592 -0.016745 0.001996 -0.005566 0.000777 -0.026110 0.002687 
37326 -0.026009 0.028354 -0.006605 -0.006083 0.016109 -0.031167 -0.011942 -0.003806 -0.018860 -0.024465 -0.017706 -0.016849 -0.004940 0.029906 0.016142 0.006547 
37350 0.011971 0.004016 0.020266 0.008763 0.001598 -0.026940 0.003454 0.010308 0.011795 0.027858 -0.009878 -0.015185 -0.018963 0.024856 0.020308 -0.015960 
37189 0.996455 -0.068735 0.722463 1.044867 0.131119 1.118255 2.141012 2.961731 -0.870165 -1.213504 0.428437 1.463225 -0.685148 -0.982085 2.065442 0.818794 
37050 2.589186 0.681339 0.263035 -1.229139 -0.589256 0.767098 3.214356 1.075900 -0.912989 -0.434300 -0.507189 -0.303487 -0.561339 0.222946 -0.303579 -1.085199 
36955 1.227721 -1.045851 1.559597 -0.864881 -1.424483 1.423774 -0.128097 0.719207 -1.006148 -2.076296 0.485197 1.055455 -1.503234 0.077475 2.277147 1.146504 
38379 0.651583 -1.543004 1.455192 -0.797248 -1.044427 0.978486 0.249323 0.347468 -0.948088 -2.301069 0.822903 2.011215 -1.654112 -0.416089 2.039886 0.416275 
37051 2.665185 0.696142 0.263505 -1.222895 -0.592366 0.761049 3.211779 1.069074 -0.910129 -0.443201 -0.495490 -0.322737 -0.533340 0.203491 -0.308622 -1.087019 
37082 1.269019 1.269050 1.807279 -0.694395 1.165505 1.094659 1.909391 0.727527 -1.700635 -1.557142 -2.178802 -1.074989 -0.590026 1.100164 0.717280 -0.099424 
38174 -0.007332 0.001620 0.016954 -0.000590 -0.010136 -0.016885 -0.017679 -0.004172 0.003723 -0.000417 -0.021490 0.008176 -0.027279 -0.030030 -0.016939 0.025712 
37182 0.230923 0.958935 0.595774 -1.675624 -1.728260 0.593892 1.435865 -0.560229 -4.107856 -0.215769 -0.266799 0.193155 -0.079664 0.444161 0.229137 -1.307399 
37120 -0.020827 0.657256 1.765932 -2.051318 -0.684702 0.523678 2.230373 0.559274 -1.833166 -1.889950 2.041982 -0.737150 -0.882969 0.605431 -1.443092 0.581994 
37064 -0.182407 1.127281 -0.665466 0.294800 -1.076477 1.467195 1.261298 -0.641317 -1.381942 -0.898442 -0.479792 0.893349 -2.389012 0.739546 1.355324 -2.990252 
37594 -0.005806 0.011691 0.020922 0.025594 0.000179 0.013694 -0.028360 -0.012168 -0.024048 0.003795 -0.031195 -0.018374 -0.015011 0.025939 -0.010042 -0.003768 
37659 -0.018608 0.014697 0.028261 -0.025966 -0.002613 -0.017236 0.030005 -0.001960 0.018326 0.020961 0.019602 -0.020617 -0.017315 -0.014268 -0.025408 -0.030181 
37014 -2.187559 0.552766 0.533704 -0.913569 -1.001377 -0.851067 2.410646 2.652481 -0.869530 -0.382774 1.044918 1.423854 -0.019695 1.360644 -0.889110 0.074692 
37366 0.021217 0.027545 -0.024443 0.026189 -0.020893 -0.025384 0.001226 -0.029395 0.012253 0.030879 0.022562 -0.026080 -0.003368 -0.009721 0.017103 0.025392 
36935 -1.352978 1.080051 -1.011003 -0.887811 -1.492623 1.283891 2.934405 0.731215 -1.460614 -0.127111 -0.283278 -1.576271 0.124869 0.364715 1.393956 -1.128033 
37235 0.002449 0.028674 0.020510 -0.027125 0.027233 0.017249 0.007605 0.025201 0.010086 0.029078 -0.001822 -0.012012 0.014484 -0.016892 -0.030230 -0.024505 
38294 -0.005470 0.001407 -0.021955 -0.007396 -0.017551 -0.028329 -0.030710 -0.002677 0.026093 -0.015279 0.030420 0.025784 0.001438 0.022002 0.013975 0.004746 
37965 -0.012413 0.018085 -0.024382 0.001592 0.016766 -0.014337 -0.013361 -0.025672 0.011826 0.015559 0.008951 0.021588 -0.026257 0.026717 0.020094 0.007630 
38014 -0.018379 0.016208 0.013231 -0.000163 0.005184 -0.003274 -0.002848 0.018716 0.029785 -0.003407 -0.003729 -0.024600 -0.006100 -0.002748 -0.011873 -0.015853 
37744 -0.023369 -0.004224 0.028383 -0.012660 0.010204 0.004859 0.000830 0.005486 0.017471 -0.009679 -0.007620 0.012219 -0.000591 -0.003892 -0.019426 -0.003203 
38877 -0.027382 0.019290 0.021074 0.026601 -0.030674 0.010062 -0.002329 -0.002860 -0.025116 -0.003255 -0.002722 0.007047 -0.009731 0.023284 -0.002565 -0.016921 
38754 -0.030418 0.024249 -0.008696 -0.007380 0.007549 0.012336 -0.012323 -0.006324 0.027023 0.015864 0.010965 0.022382 0.028980 0.016280 -0.023790 0.005494 
36923 -0.065586 0.858560 1.371067 -1.210708 -0.758723 0.820758 2.046632 0.762216 -0.255483 -2.142349 -0.341772 1.544640 -0.991982 -2.246664 -0.378175 -0.651476 
37964 0.028938 -0.021497 -0.010618 0.017430 0.008801 0.008094 0.009680 0.001397 -0.022018 0.029689 0.002207 -0.010425 -0.000042 0.024734 0.007002 -0.028777 
36905 -0.870507 -0.554728 0.537013 -0.748947 0.451699 0.942819 1.095678 1.536988 -1.909630 -1.668343 -0.655688 -0.012812 -1.524574 2.418418 -2.366655 -0.551668 
37746 0.029701 -0.016461 0.022615 -0.000728 0.013958 -0.007867 0.004339 0.028649 -0.004654 -0.030705 0.028605 -0.023700 -0.025158 0.021468 0.010450 0.018983 
37348 -0.030952 0.020724 0.005541 -0.025920 0.010189 -0.020242 0.022665 -0.012900 0.021118 -0.010610 0.023737 -0.030826 0.002811 0.031066 -0.013704 -0.027938 
37081 -0.107039 0.907719 2.328508 -0.404642 -0.458748 2.955708 1.831572 -0.729149 -1.332393 -0.085909 -0.528222 1.638856 -1.756344 -0.587603 1.642620 0.143426 
38288 -0.024330 -0.023068 0.029009 0.016469 -0.010044 0.008719 -0.023691 -0.018851 -0.018158 0.005168 -0.022131 0.016446 0.014805 0.010222 0.011229 -0.013381 
37687 -0.019554 0.020953 0.007051 0.021550 -0.026508 -0.012444 -0.025873 0.016747 -0.020706 0.000850 -0.000631 0.008344 -0.001171 -0.020219 -0.002184 -0.014403 
38301 -0.013802 -0.016080 0.025133 0.015889 -0.026371 0.025962 0.027609 -0.005271 0.008972 0.009227 0.029657 0.020749 0.030704 -0.022340 0.008818 0.020707 
38094 -0.007072 -0.009168 0.020754 -0.000514 -0.009632 -0.001061 0.011755 -0.022407 0.008377 0.030299 0.006235 -0.008838 -0.014568 0.003860 -0.018267 0.029450 
38148 0.000633 -0.020810 -0.006086 -0.027659 0.023708 -0.031014 -0.010935 0.027841 -0.022491 0.001567 -0.008398 -0.017917 -0.011990 -0.004121 -0.020937 0.011827 
37181 -0.078200 0.774428 2.041723 0.584202 -0.975913 -0.770797 3.240677 0.545390 -1.696229 -1.042135 -0.777324 0.312095 -2.300722 0.094179 0.744795 1.738015 
36922 -0.806724 -1.148789 -0.802136 -1.221834 -1.364559 1.080831 0.875433 0.012615 -1.340541 -0.744414 1.146742 -0.059931 -3.303389 -0.131129 2.281084 -0.940549 
38693 0.029610 0.020434 0.028627 0.013951 -0.026661 -0.013452 0.004980 0.020379 0.015762 -0.008458 0.000437 0.015393 -0.029644 0.016860 -0.007463 -0.011748 
38493 -0.021278 -0.002927 -0.025557 0.006337 0.010586 0.007377 0.017447 0.027658 -0.011200 0.013591 0.020960 0.025846 -0.023159 -0.002839 0.025023 -0.009841 
37548 -0.008690 0.017657 0.022799 -0.012019 0.001934 0.025275 0.023077 -0.022681 -0.005936 -0.014165 -0.012228 -0.005694 0.031178 0.005782 0.019423 0.028199 
37328 0.004875 0.019687 -0.013807 0.021382 0.009884 -0.022256 0.021872 -0.005637 -0.030945 -0.029225 0.025873 -0.016726 0.008366 -0.019776 -0.024263 -0.022628 
36933 -1.243207 0.855913 1.777248 -1.415001 0.979726 0.641257 1.222201 1.856986 1.353317 -0.985454 1.683580 1.578071 -1.639556 0.626205 0.943232 -0.175970 
38529 -0.027565 0.030581 -0.029402 -0.006541 0.013088 -0.001107 -0.001047 -0.019401 0.015717 -0.021260 0.003443 0.022733 -0.018703 0.014068 0.024107 -0.015883 
38268 -0.011070 -0.023053 -0.008390 -0.005366 0.008343 0.005073 -0.022760 0.012292 0.024887 0.001765 0.005411 0.010724 -0.022961 0.010970 -0.008837 -0.020812 
37731 0.006401 0.029757 -0.009840 -0.014934 0.020199 0.008323 0.011190 -0.013633 0.003784 -0.025014 0.016169 0.019223 0.020634 -0.026307 -0.017366 0.010392 
37468 0.024849 0.001513 0.028749 0.027257 -0.013844 0.008643 -0.024195 0.027825 0.014908 0.023402 -0.026785 -0.014270 -0.012920 0.027236 -0.001482 0.015229 
38097 -0.018227 0.017215 -0.017622 -0.003795 0.031216 0.006034 -0.003916 0.011666 -0.004242 0.022014 0.001551 -0.027255 0.001377 -0.015901 -0.023684 -0.006301 
38570 0.002174 0.014361 -0.023954 0.016912 0.030376 0.000495 0.009527 0.000390 0.008835 -0.029180 -0.023825 -0.019732 0.001026 -0.030717 -0.021471 0.008302 
38361 0.023552 -0.007047 0.009752 0.026875 -0.016361 -0.007974 0.016134 -0.006003 -0.008362 -0.005177 0.022089 0.008298 -0.013973 -0.017213 0.005156 -0.003463 
37591 -0.016594 0.015491 0.020998 0.026097 0.016003 -0.019372 0.015905 -0.007514 0.006668 -0.030980 0.014292 -0.005664 0.018879 0.024611 -0.006304 0.020905 
37678 0.006737 0.019473 0.009783 0.014577 0.002468 0.028800 0.008841 -0.004142 -0.008575 0.018413 0.015284 0.000882 -0.025417 -0.030244 0.006651 0.018907 
37592 0.031044 0.004901 -0.023893 -0.007686 0.005535 0.011542 -0.005060 0.004113 0.008408 0.018001 0.025064 0.027936 -0.021862 0.005721 -0.018480 -0.009459 
37515 -0.006172 -0.028226 -0.017530 0.021810 0.025204 -0.008645 -0.025797 0.017251 -0.004883 0.030284 -0.018866 0.012998 0.029545 0.007506 -0.019197 -0.001693 
37314 0.020088 -0.017407 0.028872 -0.021937 -0.001026 0.030738 0.009130 -0.027228 0.014053 -0.007237 0.008493 0.018567 0.003803 -0.024888 0.004499 -0.020293 
37052 -1.276656 0.723416 2.204926 0.797180 -0.611624 1.377310 1.318980 1.851184 -1.080449 0.116771 0.270737 -0.934275 -2.094232 0.264428 0.795858 -1.399777 
38082 0.013039 0.011065 -0.008207 -0.016658 -0.003681 -0.024285 -0.004023 0.023461 0.023605 0.018306 0.027079 0.028729 -0.029125 -0.004716 0.000135 -0.011596 
37215 -0.020271 0.028720 -0.029188 -0.030131 0.019894 0.006309 0.010397 -0.006370 0.014221 0.018870 0.018305 -0.029178 0.026188 -0.014649 -0.027925 0.015702 
36957 0.009895 0.027820 -0.010130 0.008153 -0.002430 -0.028527 0.017981 0.031182 -0.025436 -0.030370 0.018320 -0.004077 0.004353 0.003737 0.030928 0.016633 
38465 -0.021461 0.008365 -0.013533 -0.026805 -0.008152 -0.003793 0.018728 0.011117 0.029633 -0.004415 0.027124 -0.020968 0.030369 -0.012055 -0.010805 -0.008803 
37546 0.010658 -0.029645 0.023104 -0.010005 0.002728 0.018012 0.012640 -0.004066 -0.008072 -0.028264 -0.017782 -0.017352 -0.020763 0.000472 -0.028124 0.001893 
38100 -0.018745 -0.023709 -0.025221 -0.003947 0.030209 -0.025613 -0.000284 -0.014365 -0.013550 0.023082 0.008600 0.006772 -0.024044 -0.021180 -0.021029 -0.013778 
37159 0.014902 0.267626 1.268404 -2.430167 1.320130 1.632106 3.134036 0.973028 0.402853 0.407058 -0.577905 -0.157011 -0.843020 0.196383 2.212104 1.022250 
37371 -0.012123 -0.005002 -0.001753 -0.024058 0.009975 0.003348 0.015860 -0.020316 0.009674 -0.023641 0.025232 -0.008456 -0.012051 0.020476 0.003904 0.000779 
38251 0.023903 0.007770 0.007540 0.012273 0.024761 0.013434 -0.017572 -0.015967 -0.024124 0.003291 0.015482 0.014691 0.003223 0.021285 0.021742 0.031007 
37482 -0.001595 0.001987 -0.005629 -0.024638 -0.006351 0.020591 0.004660 -0.006736 -0.025696 -0.019582 0.014521 -0.004153 0.003849 -0.012086 0.001493 -0.027633 
37357 -0.026115 -0.022351 0.021242 -0.009791 -0.020863 0.024817 0.020056 0.007379 0.004959 -0.029759 0.022348 -0.002490 -0.010174 -0.017137 0.005659 0.012361 
38305 0.012840 -0.002744 0.025652 -0.005687 -0.018772 0.026114 0.028616 0.026376 0.005341 -0.027242 -0.023535 0.019681 0.023655 0.006133 -0.028261 0.025987 
38709 -0.009727 -0.001691 0.007601 -0.012324 -0.000080 0.024482 0.030340 -0.012244 -0.024551 -0.012029 0.001871 -0.000140 -0.019665 -0.004777 0.024733 0.013246 
37559 0.031181 -0.019193 0.029589 -0.029704 -0.027287 0.019919 0.025229 0.016519 -0.022217 0.015880 -0.026434 0.000546 -0.015133 0.012633 -0.022860 -0.025863 
36962 -1.216045 -0.808587 0.931817 -1.605198 -0.369750 2.181798 0.325221 -0.326466 -0.591727 -0.225607 1.598095 0.660380 -2.378251 2.088812 1.082491 -1.315062 
37667 -0.009071 0.015140 0.006182 0.028310 0.030605 0.002006 -0.005503 0.026193 0.016632 -0.015218 0.005823 0.000943 0.012486 0.007415 0.017698 0.004319 
37789 -0.027733 0.004474 0.023287 -0.021297 -0.009296 -0.011346 -0.031122 0.007104 -0.009354 -0.011724 0.003885 0.000653 -0.026928 -0.015214 -0.019152 0.011109 
36902 -0.089344 -1.383068 -0.481062 -1.277744 0.059349 1.630495 1.470564 1.506352 -0.075264 0.471371 0.908333 3.322260 -1.633891 0.464838 1.606577 -0.398203 
38002 0.000374 -0.010022 -0.009886 -0.027736 0.023205 0.015662 0.022131 -0.016425 -0.027145 -0.029149 0.026377 -0.000903 -0.024700 0.024489 -0.019609 0.008088 
37033 -1.819720 -0.828028 0.822919 0.734689 -1.808099 -0.578437 1.373890 0.623901 -1.845101 -2.165139 -0.510789 2.329257 -1.640707 0.360279 0.287657 -1.586132 
36915 -2.131824 2.080079 -1.187545 -0.858252 -0.915966 1.459357 0.407907 0.206784 -2.444204 -0.318017 -0.593743 2.260279 -1.741264 0.372570 1.360847 0.490605 
37792 0.018608 -0.014676 0.021898 0.007039 -0.022282 0.002952 -0.011759 -0.015098 -0.030884 0.008677 0.001032 -0.005679 -0.006222 -0.016053 -0.024691 0.024552 
37093 -0.459091 0.336866 0.885291 0.655382 -1.368659 -1.039131 2.134941 -0.204623 -1.286068 -1.255049 -0.493456 1.066030 -1.011374 2.748497 2.161990 -2.209463 
37666 -0.006020 -0.027219 0.014116 0.018178 -0.011265 0.000663 -0.026865 0.010201 0.023590 -0.006795 -0.013586 0.010343 -0.025478 -0.005647 -0.031008 0.007859 
38826 -0.016869 0.001178 -0.023466 0.007634 0.019146 0.026374 0.017828 0.030175 0.005417 -0.026738 -0.007711 -0.013385 0.005421 0.010787 0.002455 -0.008788 
38378 -0.026741 0.011020 -0.021009 -0.013652 0.003658 -0.013345 -0.006815 -0.007468 0.019470 0.028514 0.006952 -0.016604 0.021671 -0.006959 -0.002169 0.010697 
38929 0.026863 0.002307 0.021486 0.016820 0.004772 0.006507 0.024206 0.022271 0.003250 -0.028539 0.030405 0.000684 0.023273 0.003615 0.017622 0.003816 
37806 0.018944 -0.024961 -0.020979 -0.025950 0.022488 0.023429 -0.014109 -0.005607 0.019257 -0.010396 0.000147 -0.024020 0.010227 -0.019990 -0.000673 -0.029433 
37100 -0.361849 1.476337 0.660844 -1.332557 0.019630 0.225583 2.576279 -0.984724 -1.823165 0.115049 -0.683379 -0.392178 -3.665851 0.771046 -0.154218 -1.217003 
37661 0.006035 -0.010159 0.014208 -0.018718 -0.017277 -0.014016 0.013754 0.015786 0.022949 0.001475 0.028498 -0.011905 0.002689 0.017760 -0.026522 0.012467 
37999 0.001045 -0.030591 0.029360 -0.031215 -0.012257 -0.005883 0.017431 0.002557 0.010635 -0.004796 0.024607 0.024915 0.008198 0.016616 0.028425 0.025117 
38600 -0.002968 -0.007077 0.022051 0.008046 0.009365 -0.000680 0.014273 -0.005790 0.030548 0.001628 0.029505 0.019742 -0.000942 -0.018708 -0.017214 0.011399 
38118 -0.006004 -0.002118 -0.007719 -0.025935 -0.014912 0.001594 0.004278 -0.009254 0.020187 0.020747 -0.019308 -0.027423 -0.024731 -0.025712 0.024061 -0.028686 
38033 -0.008064 -0.015714 0.002550 -0.008159 -0.022587 0.000937 -0.012552 -0.007834 -0.020447 -0.009938 0.003168 0.008420 -0.000668 -0.004395 0.027250 0.029862 
36945 0.314700 -0.355664 0.847153 -2.444250 0.822390 -0.572874 2.564377 0.138702 -1.380762 -0.475179 1.115789 0.285615 -3.140980 -0.231199 1.254542 1.405190 
37231 -0.009254 0.026431 0.018206 -0.004832 0.011868 -0.009164 -0.004221 0.009652 -0.005035 0.029277 0.011988 0.016629 0.003513 -0.001801 -0.018129 0.005357 
37329 -0.008385 0.019671 0.023592 -0.019282 -0.008503 -0.018609 0.020941 0.025720 -0.011490 -0.025823 -0.001669 -0.011004 -0.016369 -0.020524 -0.004198 -0.015197 
38121 -0.006538 -0.005643 0.006517 0.018025 -0.012272 -0.030984 -0.023233 -0.015830 0.014282 -0.005727 -0.006536 -0.018130 0.011600 -0.010926 -0.028353 0.000382 
36910 1.916556 -0.554175 0.772072 -1.936449 -0.648876 -0.775457 0.193441 1.781706 -2.115321 -0.064056 -0.320003 0.832566 -0.852785 1.468738 1.701345 -2.153980 
37655 0.000084 0.013064 0.029985 -0.002086 0.029995 -0.002023 -0.007090 -0.021781 -0.024994 0.010051 0.010096 0.029141 0.023594 0.030730 -0.003420 0.014939 
37207 1.395105 -2.118759 0.258964 -2.486035 0.144958 0.985242 1.196413 -0.252483 -1.749380 -0.247500 -1.815504 0.397533 -2.189657 1.218449 1.525110 0.731461 
37305 0.010612 0.020053 0.026110 -0.002666 0.013668 0.015220 -0.018290 -0.008201 0.002136 0.014110 -0.000616 -0.029056 -0.023006 -0.001832 -0.005831 -0.013473 
37187 1.086417 0.576551 1.513797 -2.134270 0.957454 0.693669 1.350165 -0.112311 -0.885851 -0.265677 0.835503 2.584456 -0.930526 0.253336 2.663264 -1.807845 
37228 0.025047 0.015323 -0.005110 0.016286 0.001247 0.020743 0.005667 0.024911 -0.029327 0.006450 0.023829 -0.005221 -0.003201 0.016387 0.026915 -0.022353 
38122 -0.028770 -0.014874 0.008089 -0.021602 -0.011311 -0.012139 -0.023859 0.017541 -0.027969 -0.009587 0.017984 0.006207 -0.015270 -0.025773 -0.013842 -0.003844 
37835 -0.019112 -0.001126 -0.001173 -0.007731 -0.007267 0.014548 0.002279 0.015054 0.005615 -0.012929 0.020929 -0.024356 0.020512 0.022887 -0.030184 -0.011703 
37113 -0.676475 0.764082 0.905877 -1.611479 -1.609159 -0.575944 1.763363 -0.275013 0.025590 -1.449757 0.171891 2.326730 -2.199838 1.869993 -0.539874 1.418258 
37537 0.003136 -0.029294 -0.024580 -0.012218 -0.011875 -0.003366 -0.028452 0.024728 -0.018036 0.018474 -0.009314 -0.023959 -0.014370 0.017669 0.010374 0.018479 
37204 1.619589 0.905460 0.593829 -1.971274 1.361766 0.686815 0.250084 1.714097 -1.579558 -0.664583 0.934110 -1.119062 -2.916131 1.944250 0.613504 0.610481 
37448 0.029289 -0.006680 -0.012831 0.002828 -0.012577 0.029502 -0.024027 -0.008567 0.024719 -0.024343 -0.004400 -0.004031 0.017155 0.000731 0.023588 0.005692 
37006 -0.326075 1.397551 1.241004 -0.789905 -0.697213 1.463959 0.444301 2.113040 -1.959739 -2.169168 -0.300191 -0.414230 1.050894 0.936713 -0.169776 -1.878060 
38406 -0.003151 0.004214 -0.028425 -0.025096 -0.009373 -0.011849 0.015554 -0.022330 0.008881 -0.016377 -0.026831 -0.027072 -0.009914 -0.027925 0.009459 0.012437 
38608 0.013344 0.013080 -0.007414 -0.023921 -0.014118 -0.005670 -0.006159 0.009362 0.018051 0.006648 -0.024862 0.023419 -0.014172 -0.031022 -0.023485 0.007508 
37725 0.030815 0.003390 -0.008863 0.029012 -0.002262 -0.002419 0.027792 -0.016562 -0.003052 -0.020131 -0.014105 -0.030581 0.029423 -0.005799 0.030485 -0.023787 
37918 -0.013237 -0.024854 0.029726 0.008702 0.026196 -0.002099 -0.007593 0.024896 0.008072 0.028285 0.005442 -0.001575 -0.004131 -0.014756 -0.016130 -0.018950 
37840 0.006187 -0.009152 -0.016645 -0.022349 0.008755 -0.004708 0.012686 0.008737 -0.011078 0.026896 -0.028723 -0.014560 0.010166 0.004607 0.024168 0.022019 
37998 0.026588 -0.012006 -0.022978 -0.001643 0.007915 -0.010247 0.026129 -0.002540 0.001999 -0.024297 0.008402 -0.007037 0.009815 -0.010209 0.026381 -0.025878 
37438 -0.014534 0.029086 0.010729 0.008321 0.023678 -0.018716 -0.029764 -0.008933 -0.015198 -0.000295 -0.008184 0.020993 -0.005184 0.003295 -0.009493 0.024858 
37333 0.007820 -0.010877 0.021975 0.007543 -0.006458 -0.030114 -0.029993 -0.010444 -0.000168 -0.026097 -0.015982 0.007031 0.027668 -0.017381 -0.020952 -0.013274 
37338 0.031151 -0.006894 0.010759 -0.003978 -0.019993 0.018058 0.025442 -0.007071 -0.015411 0.023295 -0.014990 0.013577 -0.016628 -0.009736 -0.007998 -0.015273 
38190 -0.007042 -0.021466 -0.022917 -0.026240 -0.016926 0.000800 0.011541 0.001184 0.001572 0.022883 -0.005209 -0.021869 -0.013073 0.026229 0.029371 0.018861 
37192 1.501416 -0.171456 -0.825967 -1.197587 -1.990530 -1.614969 1.321608 1.195498 -1.133170 -1.706987 -1.714383 1.539896 -0.585378 1.745469 1.493371 0.449366 
37850 -0.017998 0.018725 0.029848 0.022008 -0.023487 0.019996 0.025732 -0.030158 0.007217 -0.002355 -0.021780 -0.031238 0.012592 -0.004380 -0.010149 0.008027 
37226 0.009239 0.010989 -0.008711 0.030019 0.029385 -0.006051 -0.008677 -0.007255 -0.004120 -0.027181 0.014368 -0.005160 -0.027798 -0.008454 -0.024538 0.025559 
38152 -0.025047 -0.015302 -0.007231 0.027287 -0.026142 0.027472 0.012579 0.020532 0.016769 0.023189 -0.003195 -0.021075 -0.020336 0.015792 -0.014513 0.016725 
38131 0.004143 0.002353 -0.028212 0.013814 -0.002567 -0.004434 0.026999 -0.009299 0.007385 0.023753 -0.011969 -0.016482 -0.027523 0.005858 0.019926 -0.018477 
38185 -0.028191 0.001452 -0.009153 -0.010402 -0.024891 0.023231 -0.027918 0.028253 0.030228 -0.025487 -0.011953 0.008618 0.013142 0.024245 0.016279 -0.017547 
37628 0.002953 -0.018003 -0.012556 0.017140 -0.030613 -0.014535 -0.027170 0.008187 0.022797 0.000468 -0.003149 -0.008273 -0.023342 0.008452 -0.025454 0.019517 
37538 -0.027428 0.006488 0.024080 -0.028560 -0.019733 0.007270 0.029242 -0.006995 -0.014908 -0.023381 0.014444 -0.004657 -0.011974 0.020980 0.019728 0.030213 
38077 0.005669 0.012424 -0.024244 -0.022502 0.007748 0.026145 0.016317 -0.017295 -0.020386 0.027965 -0.021673 0.019467 -0.015255 -0.000672 0.026823 0.014543 
37199 -1.796411 0.376407 0.592162 -3.768927 -0.071611 -0.028154 -0.206285 0.044734 -0.486941 -1.332049 -1.033535 1.668099 -0.781473 2.162585 0.545698 -1.153696 
37428 0.012291 0.031131 -0.000776 0.019887 -0.012486 -0.007394 -0.030039 -0.023246 0.002838 -0.018758 -0.005041 0.004239 -0.003262 -0.021516 -0.010744 0.029099 
38497 -0.014183 -0.018598 0.008516 -0.006282 0.002300 0.002692 -0.000971 -0.018897 -0.030960 0.008174 -0.014791 0.027387 0.012012 -0.020707 0.007093 -0.003173 
36958 -0.501352 -1.107306 -1.698107 -1.056694 0.647464 2.046995 0.518724 1.505367 -1.158405 -0.765608 -1.889664 0.545072 -1.007721 3.186017 0.721636 -0.728068 
38373 -0.001701 0.013782 0.022219 -0.028346 0.019176 0.014075 -0.025843 0.004449 -0.001877 -0.024877 -0.007925 0.010205 -0.001385 0.003371 -0.008989 -0.021819 
37198 1.134086 -1.822892 1.812891 -1.206062 -0.487621 0.034806 1.251879 0.699834 -1.397264 -0.846501 1.400280 1.256076 -1.177037 3.447052 0.455916 0.693262 
37620 0.014687 -0.028058 0.008577 -0.030879 -0.022541 0.013740 -0.015558 -0.015174 0.031113 -0.007146 -0.028402 0.012555 -0.010876 0.015731 0.010084 -0.020934 
36959 1.624862 2.479354 0.607037 -1.906866 -0.818499 2.342625 0.770847 1.303375 -2.357670 -1.111308 -0.186694 0.464257 0.482428 -0.519724 0.895663 0.059648 
38494 -0.027519 -0.019116 0.030092 -0.013881 0.002148 0.001685 0.029882 -0.015265 0.005508 -0.001134 -0.013723 -0.028064 -0.016460 0.016372 0.001814 -0.000518 
37404 0.015343 -0.011228 0.007158 0.009755 0.008144 -0.008737 0.011099 0.023263 0.009796 -0.010335 -0.024450 0.013638 0.021275 0.027923 0.003050 -0.029860 
37882 -0.003319 -0.021894 0.024263 0.022649 0.030743 -0.022088 -0.014521 0.004174 -0.016190 -0.006841 -0.026388 0.013349 -0.018139 0.005294 0.028700 -0.023070 
38153 -0.021004 0.011386 0.018908 0.024800 0.007442 0.024131 0.015524 -0.010032 -0.009949 0.009349 -0.019537 -0.028934 -0.009701 0.010985 0.016264 0.019853 
37130 -0.751056 1.539890 -0.340020 0.332279 -0.306701 1.156177 1.010359 1.010547 -0.189022 -3.281773 -1.802979 1.940257 -0.508820 1.597501 -0.345734 0.180020 
37910 0.009056 0.022281 0.003313 -0.003123 0.010647 -0.017220 -0.007395 -0.023795 -0.025787 0.017314 0.020533 0.010526 0.025730 -0.017671 0.002134 0.026597 
36991 -0.005699 -0.000104 -0.006926 0.029302 -0.025349 0.020209 0.002142 -0.023353 0.014633 0.009089 -0.008749 0.029767 -0.009777 0.010482 0.000441 -0.009582 
37288 -0.019478 0.021457 0.022875 -0.011516 0.017757 -0.007791 0.004843 -0.018027 0.024780 0.013560 -0.029242 0.007016 0.002567 0.004455 0.023161 -0.009627 
37275 0.030220 0.024463 0.030214 -0.000575 0.014965 0.023780 0.000708 -0.007819 0.004654 0.030726 0.021555 0.004773 0.000263 0.026748 0.007795 0.026460 
38312 -0.904024 0.077731 0.964211 -0.709988 -0.190595 2.441399 1.434522 -1.076193 -1.086732 -1.849677 0.355649 1.439649 0.821977 2.339109 0.585460 -1.353018 
37310 0.007545 -0.025189 -0.022490 -0.010921 -0.003315 0.015632 -0.028070 0.027246 -0.001419 -0.021855 0.024515 -0.000690 0.014210 -0.031205 -0.012194 0.019532 
36964 -0.224602 -0.063435 1.694261 -0.432038 -1.141888 0.540690 0.600081 1.284877 -0.485531 -0.919360 -2.279772 2.489755 0.115433 0.708288 1.286430 -0.971085 
37061 0.351878 0.541591 0.666954 0.053029 0.786758 -0.458593 1.749237 1.272988 -1.319741 -2.819072 0.409075 0.382439 0.327480 0.275298 2.622886 -1.577901 
37880 -0.019142 0.011172 -0.020002 0.017995 0.000027 0.012687 0.002493 -0.008536 0.012421 -0.005513 -0.030127 -0.011325 0.019016 0.000518 -0.015322 -0.001113 
37443 -0.026085 0.027850 -0.022429 0.026982 -0.028156 0.026679 0.019842 0.030969 -0.001846 0.025325 0.010904 -0.015521 -0.008678 0.005233 -0.009203 0.001771 
36907 -1.057734 -1.842866 1.392179 -1.199911 -0.247915 1.933103 1.704975 1.458327 -1.299104 -0.402799 -0.760059 0.020543 1.164233 0.829131 1.909155 -1.187914 
37401 1.923175 0.622595 2.643555 -1.038612 0.683693 0.865120 1.701997 1.093930 -1.533658 -1.743607 -1.962546 -0.472287 -0.450167 0.554221 0.823543 0.267604 
37718 0.021446 0.029056 0.023027 -0.010509 -0.013096 -0.011422 0.030874 -0.008719 0.023712 0.006511 -0.000769 -0.030063 0.007847 0.001800 0.030638 -0.022780 
37075 -0.638210 -0.739734 0.956023 -2.045484 -0.838135 -0.090049 2.160388 -0.294123 0.422544 -2.214648 -0.934320 -1.178370 -1.277013 0.959654 0.088215 0.328601 
38127 0.016350 0.020419 0.003527 -0.026713 0.017452 -0.009805 0.004049 -0.010764 -0.027283 -0.005055 -0.027105 0.021115 0.008121 0.016112 0.012602 -0.004317 
38349 0.015266 -0.011731 -0.008665 -0.019679 0.026379 -0.013391 -0.019617 -0.004462 0.026810 -0.023046 0.004160 0.014966 0.017536 0.003249 -0.022295 0.027864 
37463 -1.214051 -0.290279 1.483799 -1.411402 -1.810778 0.035572 1.551254 -0.389905 -0.134340 -2.258402 -1.123830 -1.151881 -0.937827 0.417619 0.791092 -0.330595 
38270 0.016029 -0.006696 0.024569 0.024663 -0.030964 -0.029351 -0.024958 0.022790 -0.018326 -0.020940 0.030558 0.001691 -0.007580 -0.000016 -0.018847 0.013124 
37013 0.439798 2.055757 1.649181 -1.508136 -0.360619 1.109167 0.572067 2.278470 -1.313342 1.206035 0.540504 1.493110 -1.569392 -0.553230 1.189901 0.046465 
38313 -0.422529 -0.530321 0.572092 -0.915352 -0.739149 2.580770 1.954324 -1.595571 -1.138791 -1.159735 -0.440850 1.084075 0.467513 2.438001 0.642437 -0.620558 
1816 0.024498 -0.013303 0.030962 -0.020640 0.007534 -0.012765 0.009512 -0.024711 0.030670 0.014934 -0.020178 -0.020663 -0.030117 -0.011262 -0.018068 -0.019240 
37747 0.029274 0.030719 0.009005 -0.015559 -0.008930 0.028571 0.007330 0.010888 0.028122 0.010615 0.001322 -0.028766 0.016407 0.020797 0.031019 -0.020263 
38478 -0.027473 -0.006314 0.027086 -0.021220 -0.008793 0.004478 -0.001688 -0.011130 -0.004700 0.018992 -0.030890 -0.016360 -0.014217 0.018676 -0.020479 0.014848 
37804 -0.020744 0.000598 0.022707 0.024877 0.007946 -0.022546 -0.017542 -0.028266 -0.005295 -0.022435 0.008188 0.016553 0.003010 -0.017625 0.014936 0.023591 
38362 -0.013039 -0.011045 -0.004133 -0.002269 -0.021214 0.010001 0.022268 0.021981 0.026337 0.011333 -0.006445 0.007474 0.005589 -0.025605 0.012266 0.005967 
37949 -0.004356 0.021258 0.009066 0.022344 0.028728 -0.022882 -0.007257 0.014611 0.027695 -0.004704 -0.012289 0.018903 -0.006481 -0.005265 -0.028490 0.024476 
37266 0.005302 -0.027493 -0.000196 -0.026286 -0.029728 0.003806 0.018881 0.012124 -0.001221 -0.008046 -0.009344 -0.011661 0.029301 -0.019105 0.017668 0.016618 
37191 0.027745 0.324279 2.687065 -1.943349 -2.063110 -0.324809 -0.334100 1.946895 -1.882051 -0.907160 0.210562 1.448350 -1.353186 0.633856 -0.976404 -0.463132 
36993 0.636102 0.758312 -0.635793 -3.491225 -1.471833 2.011605 1.283050 -0.778140 -0.792924 -0.712388 0.635176 -0.102268 -1.795780 0.021181 0.459806 -0.018258 
38063 -0.022362 0.027423 0.024752 0.013371 0.019512 0.003791 -0.006220 -0.028541 -0.019608 -0.004399 -0.010275 0.019696 -0.013744 -0.015702 -0.009874 0.022340 
37585 -0.008797 0.029452 -0.011854 -0.015727 0.027462 0.018760 -0.007425 -0.011497 0.017883 -0.019460 0.027826 0.008664 0.025944 0.021239 0.008940 -0.028487 
38261 1.393028 -0.129571 0.659720 1.163054 -0.500601 0.843126 2.132354 3.177745 -0.524728 -1.332570 0.493523 1.692887 -0.740732 -0.762712 1.451270 0.365947 
79 0.736743 1.733187 -1.686249 1.389732 -0.044677 1.256436 1.183799 -0.958568 1.066089 -0.351224 2.388120 -1.127767 0.507354 -0.623685 -0.530333 -1.643090 
36965 0.017001 -0.436445 2.031997 -0.624718 -1.206367 0.382535 1.408480 1.210481 -0.395466 -1.154907 -2.133372 2.555327 0.366426 0.484665 1.138962 -0.666776 
748 -0.007271 -0.022977 -0.007887 0.010457 -0.024723 -0.013162 -0.018106 -0.019492 -0.009888 -0.015248 0.018122 -0.017886 -0.024288 0.014709 0.015837 0.004533 
258 -0.104583 2.820214 -0.007866 1.075961 -2.548341 0.199154 1.753529 -0.390150 0.725185 0.340460 1.875380 2.254745 1.198729 0.658248 0.600448 -0.710288 
36971 0.030602 0.026980 -0.015669 0.021596 -0.013706 -0.015450 0.029287 0.005807 -0.017914 -0.030721 0.003504 -0.001864 0.018955 0.025115 0.009520 -0.012160 
560 -0.011497 0.024127 -0.022001 -0.020198 -0.014545 -0.020989 -0.019770 -0.005469 -0.004837 -0.019414 -0.021872 0.005658 0.018604 0.010299 0.011732 0.002442 
37136 1.589748 0.874670 0.688578 -0.609235 -1.516443 -1.022385 1.822195 -0.257948 -2.546784 -0.408353 -0.747125 -0.446009 -2.309478 2.865661 0.712546 0.131462 
38051 -0.030266 0.025256 0.022951 -0.011012 -0.028919 0.021644 -0.013391 -0.013373 -0.007004 -0.021214 0.016245 0.019727 -0.026043 0.003127 0.026899 0.015046 
37617 -0.006935 0.029239 0.011736 -0.022532 0.020046 0.007316 -0.020456 -0.010001 -0.022247 0.028178 0.017237 0.026273 -0.007839 0.010772 -0.022646 0.013047 
38149 0.017372 0.014667 -0.021940 0.017705 0.023113 -0.009942 0.028143 -0.001746 -0.005264 0.027766 0.027018 -0.009173 -0.004284 -0.015763 0.014723 -0.015319 
37135 0.347070 -1.175951 1.093899 0.062394 -1.415711 0.877480 1.947940 2.515024 -2.516949 -2.270976 0.185272 -1.088588 -0.358044 -1.177572 0.185746 -0.637849 
37551 0.006416 -0.007642 0.030825 0.003453 0.016552 0.009254 -0.020166 0.029412 0.000381 0.002528 0.010447 -0.018542 0.021381 0.016128 -0.024797 -0.026153 
37606 -0.028847 -0.015378 -0.007734 0.011464 0.006924 -0.016793 0.007925 -0.010184 -0.010956 -0.022298 -0.015905 0.007535 -0.019009 0.012053 0.023314 -0.008620 
38150 -0.000633 0.020831 -0.006254 0.008733 0.013897 0.016730 0.029181 0.017602 0.009933 0.028071 0.029032 -0.008380 -0.011547 -0.026200 -0.029161 -0.017455 
37132 1.826727 -1.145623 -0.399271 -1.209811 -2.319371 0.812578 2.115511 0.790206 0.975091 -1.698562 1.220156 1.732631 -1.135259 2.226232 1.469632 -0.755376 
37903 -0.003777 -0.024915 -0.008177 -0.028956 0.015148 0.012488 -0.011316 0.025323 0.023392 -0.020604 0.020273 0.021314 0.021931 -0.017747 0.001631 0.010774 
37618 0.027367 0.018130 -0.011580 -0.001414 0.009426 -0.025277 -0.010569 0.005258 0.015961 0.005351 0.029078 0.004422 -0.014553 0.028960 0.022398 -0.014663 
38490 -0.003014 -0.019879 0.025057 0.015386 0.020306 -0.003472 -0.016657 -0.009925 -0.021744 -0.018498 -0.015829 0.008039 -0.003185 -0.021012 0.005079 -0.003966 
37293 0.030083 -0.013944 -0.023268 0.021443 -0.014713 0.015403 -0.029581 -0.020225 -0.027222 -0.029653 0.010553 -0.030337 -0.006466 0.019835 0.012175 -0.019637 
37190 -0.225491 -1.182666 1.202899 -0.676990 0.201243 0.628148 4.244556 -0.208323 -1.377681 -1.043594 -0.412841 1.336407 -1.411256 1.379711 -2.000113 -0.365703 
37407 -0.025795 0.004764 0.000200 0.001332 0.027554 -0.018136 -0.013437 -0.026175 -0.003998 -0.013875 0.027185 0.016934 0.005527 -0.001008 -0.025393 -0.005080 
38791 0.010231 0.017535 0.009493 -0.024837 -0.020161 -0.008050 0.015631 -0.021827 0.024704 0.013057 0.017435 -0.022418 0.020802 -0.000199 -0.007555 0.025147 
36916 -0.884087 -1.673088 2.435605 -1.891034 0.233507 -0.324606 0.124823 2.471096 -0.409798 -2.520072 -1.435210 1.123635 -0.997505 0.827886 0.397874 -1.044357 
36981 2.397570 0.896112 0.354460 -2.372241 0.410005 0.294256 1.517832 2.026820 -0.163002 -0.193981 -0.217391 2.365086 -1.732151 0.707327 -0.717510 0.148798 
37405 -0.000832 0.007022 0.027605 0.019704 -0.001194 0.004630 -0.000681 0.020516 -0.008331 -0.017476 -0.021582 -0.017428 -0.021267 -0.015351 0.004942 0.020127 
37196 -1.027892 0.730218 0.997339 -0.902976 -1.622617 0.156939 -0.488542 -0.431936 -2.808768 -1.195623 -1.251093 1.087178 -3.390929 0.176671 1.345884 0.622806 
36982 -0.597078 -0.432941 -0.807164 -1.945510 -1.015883 -0.120294 1.182374 3.570512 -0.924643 -0.549700 0.782370 -0.949926 -0.051779 2.735985 0.124046 0.237220 
37417 -0.003105 0.017016 0.031069 0.030065 -0.020313 -0.009057 -0.016016 -0.018195 -0.001328 0.003749 0.018503 -0.015368 -0.007671 -0.025620 -0.012835 0.027802 
38640 -0.022743 0.024905 0.008135 -0.008800 -0.014317 -0.019479 0.027700 0.020333 0.002960 -0.005452 0.007776 0.026334 0.030064 -0.014070 -0.011599 -0.001540 
37419 0.021095 0.014239 0.025240 0.004094 0.008282 0.029670 0.002081 0.001245 -0.023026 -0.001958 0.005838 0.026044 -0.009350 0.025802 0.014051 0.005250 
37883 0.003410 -0.014981 0.019884 0.006246 -0.015018 0.013389 -0.030375 -0.012961 -0.016785 0.014232 0.012690 -0.016238 -0.000912 -0.031007 0.001616 -0.014327 
36960 -1.691312 1.728573 1.177818 -0.065780 -0.581640 0.971569 -0.735846 2.996494 -1.284038 -2.554986 0.324350 1.592518 -1.432622 -0.363815 0.193537 -0.810976 
37296 -0.029030 -0.004086 0.004290 -0.021678 -0.011814 -0.027963 0.009207 -0.026725 0.029877 0.022197 -0.009741 0.023221 -0.027981 0.002837 -0.012514 -0.007583 
37619 0.018715 -0.026471 -0.005949 0.010747 0.014690 0.009467 0.018744 -0.026282 0.007797 0.013972 0.023478 -0.020038 -0.000988 0.030990 -0.014208 0.018739 
37332 0.004936 -0.004910 0.023851 -0.030070 -0.004704 -0.018533 0.021444 -0.020957 0.017944 0.018443 0.002985 0.019711 0.011356 0.024962 0.008512 0.018693 
37197 0.395279 -1.130771 0.700203 -1.792431 1.274931 1.337341 0.265571 1.509738 -1.444700 -0.346680 -1.051370 0.138250 -3.048390 1.247229 -0.063065 -3.094913 
37402 -0.019691 -0.017453 0.016069 -0.018931 0.006313 -0.020822 0.006338 0.004342 0.009918 0.002971 -0.011633 -0.026767 -0.007900 -0.027131 0.002195 0.002000 
37420 -0.030540 0.010943 -0.021513 -0.029475 -0.025776 0.004889 -0.011469 0.024316 -0.008255 -0.016973 -0.005758 0.012006 0.022999 -0.010697 -0.026842 -0.014647 
37298 0.022087 0.020785 -0.019056 0.011739 0.021236 0.027671 0.026388 -0.013328 0.005798 -0.024220 0.008905 0.008786 -0.023251 -0.028443 0.031034 0.004838 
37282 0.013191 0.012073 0.023439 -0.020289 0.022350 -0.014977 -0.005091 0.016412 -0.010422 -0.018773 -0.030142 0.026074 -0.021648 -0.017869 -0.011675 -0.002044 
38721 0.005272 -0.015195 -0.019026 -0.000560 -0.022434 0.001945 0.019094 -0.011466 0.005585 -0.000630 0.002100 0.001370 0.027805 0.021026 -0.029970 0.027207 
39240 -0.001671 0.001483 -0.021452 0.008428 0.011883 0.015937 -0.026056 0.028039 -0.008682 0.030208 -0.019369 -0.002826 0.000111 0.025741 -0.023851 0.030091 
38805 -0.007637 -0.000394 0.016161 0.006673 0.000301 0.026999 -0.015543 0.009927 0.009277 0.011241 0.030451 0.013486 0.020267 -0.003724 0.006681 0.006608 
38164 -0.012627 -0.020825 -0.031187 -0.005824 0.005322 -0.027368 -0.011866 -0.003303 -0.003036 0.004970 0.026560 -0.012195 0.025776 -0.004869 -0.000872 0.019258 
38427 -0.016640 0.002688 0.024004 -0.029063 0.026943 -0.022164 -0.015024 -0.011649 0.016876 0.011394 -0.031042 -0.017367 0.016636 0.022307 0.015989 0.005540 
38637 -0.019676 0.007648 -0.005766 -0.000545 0.002666 -0.019891 -0.025019 -0.015113 0.006516 0.030513 -0.017355 -0.002032 -0.007153 0.015304 -0.005236 0.027955 
36989 -0.079953 1.128895 0.192404 -1.676547 1.376924 1.322564 0.205976 -0.236360 -0.053311 -2.412750 -0.668256 0.515833 -2.008703 2.309146 1.978805 1.133371 
38168 -0.022820 0.024402 -0.007689 0.024266 0.003918 -0.024133 -0.003016 -0.007392 0.019974 -0.018163 -0.026114 0.027661 0.026325 0.023757 0.025557 -0.006316 
37425 -0.022926 -0.026303 0.020159 0.020558 0.029446 -0.030648 0.028982 0.003793 -0.018707 -0.023458 0.013941 -0.020480 0.021091 -0.023286 0.015074 -0.000503 
36913 1.553020 0.939941 1.449567 0.072495 -0.124472 0.273172 -0.093022 0.882244 -1.516485 -1.344487 -0.950287 3.217979 -2.381337 1.709015 0.800889 0.781205 
37869 -0.020210 0.004123 0.008471 -0.019084 0.005306 0.010032 0.009970 -0.021689 0.000610 0.004039 -0.004583 0.007260 0.029179 0.030089 0.004850 -0.005477 
37299 -0.017387 0.022754 -0.031065 0.007482 0.018139 -0.005273 0.021460 0.004144 -0.003891 -0.025670 -0.000662 0.020642 -0.020000 0.005507 0.005110 -0.016265 
37605 -0.013588 0.022830 -0.030561 0.023305 -0.014927 -0.023507 0.026114 -0.027640 0.023834 0.019816 0.012049 -0.007968 -0.021328 0.009246 0.029783 0.009080 
37602 -0.008812 0.004352 0.009981 0.028386 0.031109 0.017829 0.023932 0.007958 0.021286 0.015498 -0.028952 -0.016070 0.025196 -0.021195 0.016371 0.008058 
37623 -0.003059 0.029819 0.028063 0.022725 0.031246 -0.006265 0.014914 -0.014060 -0.011536 0.023875 0.001337 -0.003665 -0.005428 -0.023316 0.027372 -0.019332 
36992 -1.050772 -1.628574 0.937343 -1.823895 -1.076899 -0.406895 0.885809 1.246680 -0.884672 -2.282209 1.294930 1.129688 -0.507815 -0.273268 1.487402 -2.525315 
37614 0.011375 0.025088 -0.003157 -0.020823 0.018826 -0.000741 -0.023630 0.019052 0.019501 0.016215 0.025782 0.020169 0.014378 -0.005097 -0.002382 -0.028213 
37859 0.020058 -0.005109 0.010042 0.003789 0.006268 0.028876 0.009344 0.011682 0.020859 0.000178 0.019938 -0.030902 0.002308 0.015243 0.019361 -0.009704 
37143 1.790355 0.220410 1.224361 -0.745863 -1.027905 1.759311 0.801022 1.516290 -1.526541 -0.771178 1.435981 1.665116 -2.744731 -0.100249 -0.912363 -2.343591 
37624 -0.022148 0.003833 -0.030943 0.020787 0.030956 0.016822 -0.007715 0.011590 -0.004745 0.006190 -0.027884 -0.009021 -0.003277 0.015883 0.011091 0.010713 
36900 -1.237707 -1.503549 1.602906 -0.294735 -1.508042 2.796158 0.614316 1.014132 0.080199 -2.152537 0.258268 1.455839 -2.074169 0.565394 -0.443247 -0.359853 
38179 0.002052 0.001056 0.025728 -0.005183 -0.002949 -0.006951 0.010382 0.031030 -0.026443 0.000484 0.021952 -0.030108 -0.004955 0.004806 -0.024523 -0.011840 
37539 0.015617 0.003085 -0.010878 0.028218 0.005001 0.008018 0.009176 -0.014426 0.011047 -0.014577 -0.002447 0.021359 -0.027767 -0.020753 -0.005709 -0.000167 
38784 0.030159 -0.013440 -0.007444 -0.011622 0.029552 0.020057 0.001135 0.007501 0.018265 -0.016942 -0.018057 0.030835 -0.002728 -0.017991 -0.024981 -0.014861 
37858 -0.016823 0.013980 -0.026472 0.000295 0.008205 0.029166 -0.013742 -0.028190 -0.004791 -0.006612 -0.024878 -0.001681 0.007664 0.013091 -0.019838 0.006577 
37276 -0.000328 0.022845 -0.005461 0.001470 0.003460 -0.027154 0.027044 0.003503 0.004379 0.016414 -0.022909 -0.013690 0.003407 0.009994 0.009718 0.001649 
38180 0.017143 0.013156 -0.006910 -0.008098 0.015316 -0.023904 -0.001505 -0.022422 -0.016724 -0.010365 -0.012152 -0.005191 -0.015499 -0.027284 0.001188 -0.029647 
37124 0.026302 -1.065028 -0.746105 0.027439 -0.568465 -0.470694 3.167430 1.507290 -1.758997 -2.243034 -0.225709 0.617224 0.974335 2.218832 -0.144875 -1.011716 
38498 -0.007484 0.000613 -0.014692 0.003041 0.026333 -0.026193 -0.016611 0.002877 -0.024750 -0.025838 -0.026770 0.010831 0.027744 -0.016877 -0.005129 0.016160 
38183 0.012917 -0.002240 -0.021025 0.023747 0.025494 0.030768 -0.003168 -0.008399 -0.011673 -0.014531 0.010355 0.018353 0.027393 0.030807 -0.002916 0.030763 
37997 -0.028206 -0.023648 0.012682 -0.028789 -0.021244 0.022300 0.003439 -0.014792 -0.028870 0.009471 -0.006231 -0.016116 0.012394 -0.018189 0.023710 0.018998 
37123 -0.471303 1.047293 2.133668 0.493200 -1.909302 1.389659 2.574668 1.190570 -1.405064 -0.754633 -2.157624 -0.015243 -0.800839 1.632336 -1.221917 0.327460 
39224 0.017479 0.002872 0.012712 0.021413 -0.002415 -0.003427 -0.003855 -0.012931 -0.029083 -0.029439 -0.013037 -0.023532 0.000950 -0.031220 0.025206 -0.021132 
38706 -0.020714 -0.011701 -0.020964 -0.000850 0.000652 -0.020684 -0.017756 -0.004676 -0.012100 -0.029851 -0.003256 0.003522 0.004505 0.004745 0.000074 0.013001 
38042 0.004570 0.017673 -0.014601 0.028646 0.020321 0.021628 0.024008 0.008462 -0.025391 -0.017568 0.015314 -0.011416 -0.006588 0.006530 -0.000643 0.020768 
37851 0.030830 0.028491 -0.030699 -0.015101 -0.005909 -0.001489 -0.003565 0.026483 -0.006454 0.007411 -0.019827 -0.005847 0.030170 -0.025865 0.023054 0.002168 
38811 -0.004433 0.020755 -0.006758 -0.007091 -0.015537 -0.027535 0.024527 -0.013114 -0.017792 -0.017415 0.016321 0.020230 -0.010220 -0.029939 0.008665 0.019700 
39287 0.023781 -0.005536 -0.005278 -0.009822 -0.008564 0.005988 -0.016718 0.014672 0.003098 -0.029546 -0.001242 0.004315 -0.002758 -0.005692 0.018690 0.010865 
37601 -0.009529 0.012118 -0.026258 -0.023295 0.015011 -0.025918 -0.002298 -0.015159 -0.006287 -0.028981 -0.010015 0.008908 -0.009945 -0.015626 -0.009371 -0.024337 
36969 -1.090121 -1.941323 0.269638 -2.642262 0.444152 0.422848 2.020417 1.657992 -2.286843 -0.810021 -1.815220 -0.693530 -0.425288 0.760108 -0.895090 -0.809912 
37354 -0.010719 -0.008237 -0.010603 -0.019969 -0.013035 0.026481 0.006033 0.002328 0.009125 0.010234 -0.001196 0.017118 -0.005764 -0.013032 0.007750 0.013658 
38625 0.021400 0.016253 0.026033 -0.003169 -0.002155 -0.014215 -0.000055 -0.012855 -0.028580 -0.013616 0.016397 0.020734 0.005604 -0.000504 -0.009569 0.024354 
38486 -0.008003 0.022189 -0.022291 0.002889 0.025326 0.004661 -0.012980 -0.023154 0.028442 -0.024770 -0.019720 -0.017642 0.002323 -0.022157 -0.002474 0.008683 
37421 0.026070 0.009570 -0.030577 -0.001796 0.006908 0.020606 0.029760 -0.028571 -0.007309 -0.023229 0.015451 0.026990 -0.015606 -0.015489 0.029036 0.029145 
37897 -0.001381 -0.021604 0.001177 -0.017222 0.005093 -0.028878 0.003164 -0.029105 -0.010834 -0.008992 -0.003088 0.029630 0.014317 0.019500 0.022459 0.023240 
37630 -0.027855 -0.008832 0.010469 0.019109 0.019878 -0.018792 -0.030268 -0.024756 0.017868 0.017940 -0.012838 -0.009723 0.029591 0.020308 -0.022203 -0.009032 
37121 0.901430 -0.988395 -0.113944 -1.282503 -0.218096 2.387713 2.860155 0.673285 -0.781554 -2.497674 -1.386289 -0.274017 0.025268 -0.287827 1.529130 1.752630 
37631 -0.015373 0.023547 0.024172 -0.002955 -0.025745 -0.007409 0.007360 -0.001410 -0.015549 -0.015111 -0.005972 -0.026904 0.016193 -0.018113 0.024214 -0.027678 
37842 0.023582 -0.019345 0.028582 0.001149 -0.023655 -0.006112 0.015921 0.017587 -0.015167 -0.012593 0.010645 -0.004733 -0.012478 0.005157 -0.009706 -0.014052 
38900 0.001015 -0.018292 0.010530 -0.005488 -0.004963 -0.007745 0.017645 -0.021033 0.017441 0.002620 -0.026449 -0.024554 0.006702 -0.005754 -0.019213 -0.026793 
38661 -0.020576 0.026706 -0.029982 -0.022868 0.030331 -0.012307 0.012533 0.007730 0.019775 0.030528 0.007746 -0.023868 0.011234 0.011657 -0.004305 -0.003402 
38609 0.021309 -0.009351 -0.030455 0.011510 0.019726 -0.019799 0.000586 -0.021125 -0.008163 0.008632 -0.011770 -0.002673 0.001118 -0.005113 -0.027483 -0.006377 
38193 0.001671 -0.001462 0.009111 -0.027354 0.025723 -0.030221 -0.018198 0.017404 -0.003876 -0.000569 -0.022497 -0.023471 -0.023647 0.006438 -0.026247 0.026780 
38816 -0.016991 -0.012128 0.026217 -0.014461 -0.014179 0.018928 0.018682 -0.001685 -0.029861 0.002925 -0.024435 -0.023761 -0.000561 -0.016191 -0.000597 -0.028930 
39013 0.027824 0.021152 0.020861 -0.012309 0.025021 0.002646 -0.013773 -0.015891 -0.023621 0.019114 -0.017584 -0.003543 0.007877 -0.010499 -0.013033 0.013993 
38740 0.011116 -0.026624 -0.006956 -0.020900 0.018322 -0.016564 0.009436 -0.025214 0.014847 -0.014501 -0.001944 -0.025317 0.001667 0.023513 -0.001055 0.030549 
37270 -0.004616 -0.030454 0.005266 0.022267 0.028225 0.023795 0.025808 -0.029655 0.023041 0.027080 0.022486 -0.026584 -0.019192 0.023345 -0.027163 0.020738 
37598 -0.019371 0.009662 -0.004972 -0.007808 -0.007771 -0.001275 -0.027155 -0.029212 0.000961 0.018855 -0.006796 -0.007342 0.007801 -0.011003 -0.028856 -0.015441 
38125 0.029350 0.031222 0.024828 0.013875 -0.027164 -0.029275 -0.024454 -0.023887 0.011108 0.023326 -0.027288 -0.030093 0.020145 -0.017030 -0.006136 -0.015487 
37151 -1.974107 -0.936443 1.129010 0.946849 -1.051226 1.667678 0.742375 0.605691 -2.892860 -0.780512 -0.529747 2.206971 -1.476262 2.060525 -0.151410 1.024014 
37983 0.004723 0.018680 0.017046 0.025014 -0.016148 0.030936 0.022940 0.001412 0.003082 0.007854 0.020594 -0.014071 0.000889 -0.006623 -0.012453 0.030320 
37639 -0.006126 -0.015424 -0.020536 0.014470 0.014263 -0.005853 0.005133 0.021386 -0.015091 -0.012090 0.026468 0.024701 -0.030712 0.009810 0.021009 0.013673 
37347 -0.015999 -0.005582 -0.018080 -0.006816 -0.001225 0.016929 -0.019510 -0.016257 -0.001038 -0.019338 -0.021368 0.021482 -0.014462 -0.007936 0.016386 -0.029342 
37919 -0.024895 -0.014295 0.024416 0.023656 -0.000111 -0.025720 0.011511 0.013482 -0.017258 -0.013890 0.002085 -0.023730 -0.012859 0.002639 -0.026323 0.026277 
38194 0.029686 0.020938 -0.018049 -0.019114 0.017605 -0.008798 -0.026804 -0.014396 -0.001251 0.004252 -0.028173 0.014066 -0.025906 -0.020967 0.017881 -0.006972 
37642 0.022743 -0.024884 -0.020475 -0.010127 -0.010578 0.005195 -0.009455 0.025109 -0.015518 -0.027410 0.012857 0.009870 0.008900 -0.016252 0.024000 -0.004088 
37007 -1.843230 -0.303010 -1.280098 -1.357592 -1.204421 1.384784 2.353120 -0.019943 -2.204136 0.016694 -0.394077 2.393179 -0.118404 -0.005080 0.529801 -1.990455 
38819 0.011787 0.015307 -0.030210 -0.024379 -0.017139 0.024390 0.004736 -0.006232 -0.009872 0.009852 -0.003714 0.000501 -0.027935 0.015639 -0.015520 -0.014922 
37644 0.007774 -0.023679 0.024981 0.014882 0.004482 0.029593 0.001577 -0.014579 0.010040 0.016276 0.001184 -0.004672 0.025425 -0.019685 0.001341 -0.028640 
38780 0.004738 -0.018720 -0.004789 -0.019099 -0.019794 -0.030633 -0.008417 -0.018043 -0.000320 -0.027104 0.014872 0.010663 0.001637 -0.026689 -0.019884 -0.006225 
37836 0.002678 0.030185 0.005480 -0.001323 -0.027470 0.031211 -0.025248 -0.016623 0.021545 0.004710 -0.025152 -0.015994 0.025700 -0.005372 -0.016695 -0.010177 
37920 0.001595 -0.001966 -0.006712 0.005712 -0.018543 0.027625 0.013586 -0.010322 0.013138 -0.013280 0.006113 -0.022143 -0.027386 -0.018235 0.010908 0.022004 
38503 0.001488 0.009830 0.021135 0.002004 0.006985 0.021110 -0.016916 0.000863 -0.025543 -0.018575 -0.016333 -0.007785 0.029881 -0.002778 0.000425 0.027818 
38603 0.002357 0.003070 0.026522 -0.012446 -0.013386 0.011664 0.008245 0.016931 0.030502 -0.011174 -0.029989 0.027081 0.009998 -0.021501 0.014357 0.007264 
37152 1.044259 -0.184140 1.573640 -0.508684 -0.192451 2.474516 2.980413 1.016918 0.338839 -1.073608 0.215780 2.858621 -0.341263 1.012284 -0.378011 1.197775 
37409 0.007027 -0.003613 -0.030088 -0.011073 -0.004322 -0.016015 -0.024439 0.001214 -0.010727 -0.020787 -0.030935 -0.029162 -0.011211 0.026015 -0.009539 0.012055 
37334 0.010826 -0.003537 -0.029585 0.004750 0.025112 0.028251 -0.019785 -0.030570 0.016998 0.024699 -0.018225 0.004727 -0.012539 0.029754 0.015135 -0.025100 
39203 0.015602 -0.022016 0.010958 0.009831 0.008648 0.007087 -0.021967 0.005029 0.014450 0.020381 0.003275 -0.003375 -0.028515 -0.000688 0.001722 -0.026122 
37112 0.141750 1.253588 1.900824 0.430746 0.545599 2.163574 1.926971 1.959976 -0.908405 -1.466966 0.599202 -0.337756 -1.108789 1.656650 0.560148 2.498187 
36901 0.366145 1.225367 -0.871705 -1.229380 -1.214162 1.189261 0.885713 1.167460 -1.448896 -0.317987 -2.554397 -0.423543 -0.821147 2.689120 0.041442 -2.034474 
36968 2.100932 -1.721594 0.159701 -1.296215 0.758163 -0.529475 1.962947 2.758656 -0.802160 -1.247027 0.073562 -0.208356 -0.840241 1.044171 1.939950 -0.171116 
38992 -0.018028 0.031024 0.011019 -0.014766 -0.016193 0.018134 0.025946 0.008752 0.014023 0.005061 -0.010336 -0.018207 0.011097 -0.026750 0.004713 0.018617 
38196 -0.008369 -0.017728 0.001757 -0.000896 -0.012150 -0.017678 -0.010416 0.006265 -0.014893 0.001719 -0.007391 0.013730 -0.015621 0.021911 -0.011629 0.010758 
39024 0.002266 -0.022534 -0.029966 0.002233 0.008495 0.006080 0.008886 0.008660 -0.011581 0.011073 0.004343 0.003675 0.005512 -0.026109 -0.003557 -0.023467 
37206 0.425703 -0.894469 -0.430717 -1.053197 -1.188236 2.833295 -0.928372 1.961358 -3.157037 -0.989296 -0.334733 1.744029 -1.122085 -0.548191 0.835196 -0.891594 
37651 0.026466 -0.025311 0.026705 -0.023738 -0.025410 -0.017694 0.026983 0.028100 0.029221 0.005366 -0.008322 -0.017413 0.003834 0.025313 0.023329 0.016480 
37529 -0.022469 -0.023282 -0.009901 0.009664 -0.017460 -0.002725 0.025778 -0.017356 0.004211 -0.009694 0.029779 -0.028445 -0.018978 -0.000245 -0.020357 0.028153 
37304 -0.007927 0.022693 -0.006468 -0.030177 0.007092 0.009315 0.017736 0.004571 0.011429 -0.012059 0.014170 -0.018970 0.006062 0.002517 0.022871 0.013459 
37652 0.007591 -0.012387 -0.025496 -0.018260 -0.014256 0.018424 0.002859 -0.031119 -0.011627 -0.001729 0.007349 0.011014 0.016453 -0.028901 0.028013 -0.027602 
36947 1.794976 0.697651 1.436090 -0.040320 0.573318 2.246238 0.835724 0.983511 -2.179919 0.678220 -0.011827 1.124143 -1.054457 2.513344 1.199901 -1.242738 
36918 2.088122 0.882840 -0.774430 -2.665258 1.381646 2.462761 0.928204 1.999782 -1.876283 0.133790 -0.779348 0.704948 -0.554417 0.920213 1.181562 0.624187 
38204 -0.002495 0.021045 -0.029844 0.015538 0.021313 0.028174 -0.020288 0.016107 -0.012436 -0.019567 -0.022879 -0.025989 0.022236 -0.015733 0.002424 0.003510 
38662 0.016930 -0.025754 -0.013716 -0.015513 0.003872 0.025565 -0.000010 -0.000052 0.030914 -0.020955 0.005457 0.023526 -0.025967 0.003631 -0.019777 -0.018020 
37307 -0.025169 -0.028607 -0.020048 0.005193 0.003033 0.020026 0.013433 -0.011329 -0.018509 -0.009648 -0.019918 0.031049 -0.026318 -0.011186 -0.017565 -0.003417 
36896 -0.549376 0.034071 -0.516911 -1.642299 1.192184 1.509318 0.283447 2.931556 -0.406342 -3.284281 -0.912387 0.724240 -0.120804 -0.475263 1.159356 -0.628362 
37827 0.018562 -0.027478 0.024904 0.014379 -0.011341 0.000159 0.019812 -0.019233 -0.020676 -0.011449 0.018198 -0.017383 -0.008465 -0.018357 -0.002398 0.009187 
37826 -0.020607 -0.023496 0.013689 0.002858 -0.024876 -0.014169 0.012747 -0.015861 0.026581 -0.024556 0.019190 -0.010837 0.009739 -0.010713 0.010557 0.007188 
38381 0.003700 0.024432 -0.019987 -0.019404 -0.021809 0.031074 -0.001154 -0.007606 -0.018936 -0.024968 0.028971 0.016217 0.013294 0.025252 -0.014574 -0.021178 
37527 0.028984 -0.008695 -0.013624 0.010091 -0.002140 0.010886 -0.021891 0.005532 0.030273 -0.012685 -0.014959 0.001279 0.002201 0.027038 -0.015291 -0.013412 
37526 -0.007256 0.002124 -0.029722 0.028844 -0.028370 -0.012231 0.013037 0.023553 -0.013290 0.012294 0.012400 0.006848 -0.023540 -0.005357 0.008406 0.030488 
37017 -1.610689 0.925509 -0.562000 -1.490607 0.854406 3.000819 0.753710 0.861784 -1.664940 1.131261 -0.093744 -0.269286 -1.647451 1.796759 1.927290 -0.676921 
38212 -0.014305 0.030597 -0.004301 -0.028377 -0.031025 -0.004754 -0.000116 0.011743 -0.003738 -0.024663 0.030985 0.017011 0.006031 0.014815 0.004042 -0.023314 
37660 0.014885 -0.014249 -0.025282 0.020650 -0.007450 0.025840 0.014303 -0.018088 -0.013123 -0.024098 0.022211 0.021604 -0.001156 0.004882 -0.024019 0.003983 
37208 -0.017448 -0.015149 -0.006224 -0.003566 -0.029774 -0.008996 0.021887 0.019464 0.009720 -0.010839 0.022226 -0.015796 -0.022991 0.023269 -0.027666 0.004914 
38974 0.013695 0.027896 -0.009626 0.023976 0.027004 0.015738 0.022635 -0.000602 0.002289 0.015117 0.031031 0.029813 0.003025 0.007476 -0.006899 -0.020522 
37019 0.977875 1.899998 0.390496 -2.769961 -0.079634 0.811123 1.218220 0.143664 -1.657787 -1.578757 -2.362168 0.797583 -1.661807 0.649205 -1.306810 0.714880 
37930 0.016411 -0.004178 -0.021315 -0.015666 0.002865 -0.006082 0.003622 -0.026084 0.021606 -0.019887 0.012506 -0.004947 0.011112 -0.001649 -0.017122 -0.025496 
39034 -0.012016 -0.016797 -0.029600 -0.020350 -0.015553 0.009864 -0.016138 0.030999 -0.014145 -0.018346 -0.014822 -0.022815 -0.006817 0.005019 0.014387 -0.005034 
38825 0.023033 0.014529 0.002153 0.026723 -0.017368 0.022880 0.019766 0.030465 -0.017670 -0.004109 0.029139 -0.020175 0.023106 -0.022492 0.007811 -0.010940 
37931 -0.003441 0.027301 0.011446 0.000554 -0.002583 -0.029534 -0.013666 -0.027686 0.011032 0.022822 0.019388 0.002973 -0.024120 -0.021684 0.025648 0.019288 
38653 -0.028938 0.021518 -0.001722 0.026143 0.028805 -0.022378 0.008566 -0.018455 0.009460 -0.000051 0.018427 -0.015872 -0.023495 0.007445 0.005400 0.023149 
37099 0.468622 -0.959023 0.697094 -3.147187 0.355074 0.472210 2.856504 1.862254 0.826521 -1.240472 0.986331 0.583369 0.220822 1.152453 -0.472169 -1.424791 
38070 -0.014503 0.016788 0.029558 -0.017406 0.016384 -0.016854 -0.029978 0.014657 -0.022003 -0.007710 -0.019629 0.007962 -0.003689 0.025664 -0.024355 0.014268 
38440 0.025429 0.017840 0.011507 -0.024043 -0.027424 -0.018487 -0.028254 -0.023963 0.010605 0.007503 0.005777 -0.011859 0.015491 0.014754 0.028639 0.001527 
37098 -0.742633 1.626230 -1.866958 -1.057590 0.476676 0.118627 2.170383 1.202474 -2.035127 -1.946343 -0.591536 -0.090531 -1.615258 1.175404 -0.046499 2.504309 
36967 -1.544029 2.356868 -1.522226 -1.722877 0.011395 -0.853733 1.627037 -0.115591 -1.922862 -1.568866 -0.170682 1.356374 -0.028840 1.934458 2.057827 -0.205391 
37024 -0.563083 -0.572407 1.475615 -0.826702 -1.110222 0.034069 0.100572 3.410130 0.063980 -1.403485 0.352073 0.116841 -0.235368 2.019542 2.965171 0.080592 
37411 0.007423 0.024005 0.027193 0.029485 0.025860 0.008185 -0.027216 -0.004615 0.025803 0.007808 0.007792 -0.011065 0.008228 0.004317 -0.015245 -0.000609 
38225 -0.010262 -0.005216 0.021837 -0.030864 0.002560 -0.008096 0.002829 -0.018821 -0.030457 0.023997 0.014643 0.009152 0.016666 0.010009 -0.027681 -0.020186 
37262 -0.026970 0.009509 -0.005980 0.023046 -0.004139 -0.027307 0.026037 -0.028144 0.008011 -0.009618 0.030283 -0.012622 0.010456 -0.018479 -0.015703 -0.003631 
38000 0.019798 0.005679 0.006243 0.003713 0.005764 0.013053 -0.020090 0.029916 0.016205 -0.030538 -0.007788 -0.013888 -0.010403 -0.018647 0.020689 -0.013442 
38596 0.005043 -0.016706 -0.003996 -0.026362 -0.030231 -0.012017 -0.010553 0.030358 -0.005875 0.023738 0.025431 0.005353 0.016590 0.009505 0.018995 0.012879 
37523 -0.008736 0.004855 0.025805 -0.004680 0.012875 0.022483 -0.007853 -0.026816 0.004272 0.028209 0.004938 -0.017398 0.028934 0.003478 -0.020784 0.012834 
38227 -0.021538 0.007861 -0.029356 0.006261 0.010082 -0.008447 -0.011988 -0.016608 -0.015854 -0.017125 -0.006765 -0.019641 0.026630 0.025771 0.026350 -0.013579 
37663 0.029137 -0.007688 0.018023 0.006459 0.023891 0.020194 -0.022959 -0.001517 -0.003754 0.012736 -0.009680 -0.001376 0.009678 0.013885 -0.027102 -0.003860 
37261 0.018288 0.020709 -0.019560 -0.004085 -0.008198 -0.016595 0.021734 0.018456 -0.021927 -0.007207 -0.003805 -0.025104 -0.021923 0.030318 0.006361 -0.020507 
38228 0.008415 0.030551 -0.017103 -0.025371 -0.023685 0.006186 -0.002909 -0.019187 -0.007874 -0.014455 0.010859 -0.028323 -0.005672 0.012572 0.001738 -0.001021 
37029 0.379730 1.185061 1.121824 0.947356 1.432208 1.424411 1.775692 1.503102 -2.898484 -0.922720 -1.308173 1.461459 -1.520762 0.178230 -0.746248 -1.483296 
38973 -0.008400 -0.005429 -0.017073 0.024831 -0.004856 -0.019540 -0.010202 -0.017325 -0.008087 0.009135 0.004053 0.026761 -0.017117 -0.000459 0.003233 0.021348 
38231 -0.015343 0.011249 -0.019499 -0.028682 0.029461 -0.005548 0.007147 0.022180 -0.022354 -0.022527 -0.017416 0.022565 0.017689 0.004256 0.009352 0.024232 
37095 0.190651 1.886684 0.268201 -2.500812 0.408104 2.627485 1.995831 0.414020 -1.371259 -0.434032 0.537426 2.140064 -0.376078 0.549830 -1.547383 -1.965232 
38827 -0.026299 -0.011060 -0.029234 0.019567 0.022900 0.013648 0.021338 -0.009162 -0.016708 0.014735 0.028513 0.013196 -0.019146 -0.026353 -0.030169 0.013398 
37210 -0.030312 0.012454 0.025957 -0.003673 -0.017979 0.018851 0.018179 -0.017509 0.003204 0.021159 -0.029089 0.008023 -0.028286 0.000823 -0.013308 -0.000319 
37184 -0.188114 0.386515 -1.084984 -0.437146 0.460966 2.154445 1.643319 0.282962 -2.186855 -0.550945 -2.449121 2.675311 -0.397238 0.987691 1.824775 1.386183 
36919 0.562201 0.480960 -0.705444 -1.311833 1.038243 -0.541228 0.902472 -0.769032 -2.423124 -1.523256 -0.923575 0.576640 -2.004775 1.395415 3.148696 -0.296815 
38771 0.026009 -0.028333 -0.005735 -0.012843 0.021496 0.016883 0.030188 -0.013251 0.006302 -0.008397 -0.024160 -0.009448 -0.018597 0.002273 -0.003740 -0.012176 
36941 -0.943577 -1.179610 0.485244 -3.901455 -1.421707 2.361741 1.127245 1.006827 -0.106321 0.178302 -1.571033 1.128657 -1.038320 -0.171368 1.107508 0.518649 
39173 0.026772 -0.023297 0.027498 -0.031001 0.026653 0.000922 0.024847 0.014001 0.023666 -0.006291 0.002237 -0.022723 0.018787 -0.000993 -0.000292 -0.026916 
38595 0.028618 0.013888 0.010424 0.006307 0.022884 -0.011453 -0.019327 -0.027549 -0.013062 0.013804 -0.002630 -0.029849 -0.015743 0.008605 -0.024446 -0.011336 
37939 -0.031059 -0.029981 -0.029112 -0.029628 -0.026783 -0.026757 -0.007837 -0.001716 -0.017563 -0.015904 0.001291 -0.016467 -0.002422 -0.015977 -0.024187 -0.022124 
37346 -0.027260 -0.029904 -0.028608 -0.013804 0.002651 0.017509 -0.003183 0.029000 0.010162 0.029582 0.014002 0.017423 -0.003750 -0.012239 0.000486 0.003221 
38594 -0.022484 0.014117 0.011934 -0.008723 -0.013813 -0.003655 -0.005365 0.002099 0.007614 0.025264 -0.026999 0.009320 -0.019726 0.019820 -0.012926 0.002198 
38235 -0.016731 -0.022916 0.030016 -0.014384 -0.013676 -0.027749 -0.014383 -0.019919 -0.025208 -0.028859 0.003290 0.021726 0.012150 0.017699 -0.001925 -0.025191 
37034 -0.363827 0.514160 1.260615 -2.070709 1.588875 -0.087819 2.110864 3.215770 -1.309279 -0.984774 -0.191137 -1.493125 0.057507 0.610651 0.405920 0.359645 
38237 -0.002296 -0.027646 -0.001204 0.004567 -0.026096 -0.022225 0.009573 0.013192 0.005829 0.025981 0.027735 -0.016940 -0.030544 -0.026582 0.030821 0.028428 
37256 0.006386 0.004657 0.011995 0.029180 0.023846 0.007392 -0.019953 0.005822 0.007187 0.009944 0.021891 -0.005511 0.019886 -0.006242 -0.009935 -0.015563 
37138 -1.030645 3.945911 -0.110327 -0.891370 -0.965729 0.831753 1.314170 1.257782 -1.581289 -1.047183 -0.053572 -0.138167 -2.234696 0.411853 -0.995504 -0.408017 
38833 0.026680 0.013598 -0.028990 -0.016322 -0.013966 -0.004663 0.025488 0.005731 -0.018417 0.015956 -0.025930 0.016370 0.014301 -0.005601 -0.018206 0.004853 
37446 -0.024208 -0.009763 -0.020674 -0.023936 0.023281 0.016166 -0.024546 0.013009 0.017120 -0.024495 -0.005407 0.026822 0.020786 -0.025300 0.014280 0.006761 
38971 -0.011620 0.010821 0.027681 0.020207 0.014629 -0.028436 -0.018915 0.025170 0.022385 0.010249 0.023905 -0.004718 0.012623 -0.016679 0.008680 -0.017699 
37940 0.001945 0.012851 -0.008924 -0.008891 0.022579 -0.013467 -0.020121 -0.020286 -0.002625 -0.004811 -0.000494 -0.015750 -0.010189 0.020263 0.027494 -0.006026 
37947 0.016487 -0.003675 -0.005491 0.013768 -0.015369 -0.001428 -0.028162 0.001641 0.004593 -0.007176 -0.016104 -0.006274 0.014851 0.023025 0.008223 -0.020720 
38241 -0.030495 0.023746 -0.024519 0.025685 0.025784 0.007682 0.019461 0.028451 -0.018463 0.003154 -0.022924 0.023709 0.025242 -0.008393 0.013365 0.000718 
38512 -0.014000 -0.029889 -0.003508 0.026860 0.021038 0.013862 -0.002253 -0.002357 -0.009293 0.026179 -0.020956 0.011701 0.020985 -0.011491 -0.019579 -0.004210 
37518 0.003471 0.022922 -0.004957 0.017293 -0.029606 0.017112 -0.030802 -0.028281 -0.030396 -0.000600 -0.010199 0.020200 0.002079 0.013732 -0.028109 0.026994 
39317 0.021919 -0.005322 -0.028868 -0.003016 -0.001148 0.017432 -0.003687 0.013177 -0.019272 -0.014684 0.009348 -0.013293 0.031025 0.004775 -0.012224 -0.030669 
37898 -0.021156 0.010379 -0.012739 0.028432 -0.018589 0.014823 0.016592 -0.002982 0.024078 -0.016072 -0.024817 -0.026278 -0.017178 0.024138 0.028074 0.010301 
37673 -0.000755 0.007525 -0.019072 -0.013362 -0.019428 0.009284 0.030035 -0.014258 -0.025345 -0.004766 0.012308 -0.018756 -0.017529 0.009322 0.030287 0.024903 
38066 0.020622 -0.013883 0.014635 -0.003398 -0.003666 0.000815 -0.025858 -0.020652 0.019958 0.019237 -0.004278 0.009274 0.029972 0.022826 -0.005587 0.013139 
37253 -0.019524 0.008655 0.025881 -0.004176 0.028698 -0.010583 -0.026087 -0.022162 -0.027512 -0.006566 -0.012075 -0.004687 0.000324 0.002151 -0.017046 -0.024993 
37252 0.003807 0.012637 0.014666 -0.015697 0.015163 -0.024911 0.029348 -0.018790 0.019745 -0.019673 -0.011084 0.001859 0.018528 0.009795 -0.004091 -0.026992 
37044 0.947686 -1.355935 -0.737166 -1.108855 1.317739 1.231312 2.039779 1.435783 0.611450 -2.551717 -0.316438 0.399792 -1.626425 2.544405 0.154974 0.345039 
39161 -0.009102 0.027438 -0.012648 -0.008464 -0.024601 0.000144 -0.005289 0.002603 0.023438 -0.007802 0.017267 0.013974 0.010990 -0.014955 -0.029940 0.014909 
37452 0.017159 -0.024243 -0.028746 0.010289 0.011669 -0.022973 0.029638 0.020623 -0.020126 0.017177 -0.017874 0.019544 -0.014751 0.015151 -0.006243 -0.003692 
38679 -0.018105 0.030520 -0.004805 0.018300 0.002041 0.013480 -0.004770 -0.018973 0.031036 -0.007649 0.018274 -0.016879 0.007359 0.011077 -0.020632 0.013841 
38838 0.010109 0.004230 -0.003325 0.015569 0.009014 -0.015496 0.016485 0.008813 -0.010574 -0.019780 0.000711 0.029706 0.014820 -0.027177 -0.010607 0.005006 
37783 -0.023201 0.021884 -0.024305 0.002095 -0.029911 0.015098 0.030905 -0.021018 -0.019958 -0.019216 -0.008062 -0.028201 0.007633 0.025390 0.023832 -0.030196 
38246 0.006966 0.020984 -0.005247 -0.022120 0.010265 -0.019738 -0.024012 0.016534 0.002884 -0.005956 -0.008047 -0.003100 -0.014202 -0.018723 0.020185 -0.029265 
38250 -0.024391 0.001529 -0.008650 0.005422 0.004543 0.004996 -0.023264 -0.003531 -0.004547 0.020000 0.000757 -0.019992 0.011814 0.027984 -0.021547 0.007798 
38887 0.007729 0.026019 0.027987 0.022222 0.015423 0.026801 -0.029352 -0.018714 0.020248 -0.003850 0.018351 -0.016376 0.023182 -0.021989 0.023634 0.018495 
37359 -0.021675 -0.030545 -0.020338 0.028279 -0.019596 -0.016824 0.020224 -0.029014 0.014771 -0.015004 -0.017767 0.007749 0.019901 0.018859 0.030729 0.002824 
38016 0.012398 0.019336 -0.028624 0.023595 0.024487 -0.000878 0.000463 0.028069 -0.020981 -0.013463 0.017405 -0.010119 0.001972 0.025527 -0.000261 0.023286 
39051 -0.015053 -0.011838 0.003130 0.008168 0.022671 0.012137 -0.026133 0.027535 -0.024506 0.000773 -0.001135 -0.007480 -0.030605 -0.001985 -0.006838 0.017381 
36936 -0.082195 -0.402873 1.376302 -1.503904 -0.079280 1.662982 2.219832 0.569027 0.955742 0.517796 -1.640563 1.609257 -2.147455 2.720753 -0.226219 -1.635570 
36898 1.103113 1.956741 -0.352455 -0.391478 0.575004 0.594532 3.109454 0.331155 0.496199 -1.333233 -0.457422 2.099975 -0.281215 0.964994 2.289726 0.332882 
37214 -0.029045 -0.029187 0.026125 0.022435 -0.008167 -0.028893 -0.021936 -0.007270 -0.029221 -0.005345 -0.004019 -0.001513 -0.028728 0.022902 -0.005083 0.028962 
38079 0.009911 -0.009580 0.030535 0.026540 -0.006077 -0.027596 -0.013376 0.011727 -0.028839 -0.002828 0.012598 0.020658 0.005100 -0.016328 0.023497 -0.019912 
37572 -0.012657 -0.008527 0.012484 0.019902 0.012615 -0.029229 -0.011652 -0.026893 0.003769 0.012385 -0.024496 0.000836 0.024281 -0.027238 0.013990 0.029847 
38003 0.028252 -0.026029 -0.028028 0.002522 -0.014591 0.028708 -0.016764 0.001870 0.006104 -0.022206 0.009699 0.001523 0.028812 -0.009828 0.028898 -0.009261 
39318 0.007637 0.000415 -0.028502 -0.025599 -0.025196 0.021216 -0.028711 -0.026984 -0.021835 0.018397 -0.009817 0.022717 0.018696 -0.026597 0.005720 -0.012237 
37562 -0.012001 0.008304 0.011065 -0.001964 -0.019199 0.010795 0.015005 0.011544 -0.017548 0.009196 -0.020544 0.001920 -0.006069 -0.015046 0.006956 0.020921 
36920 0.290229 2.559716 -0.548898 -1.250125 0.824243 -1.386805 1.524712 2.863759 -0.448948 -1.128026 -1.602815 1.286796 -1.319086 1.263295 0.180890 -0.622266 
38762 0.014153 0.030917 0.022814 0.013082 -0.019901 -0.018838 0.019430 -0.021750 0.025208 0.028880 -0.015631 0.021848 0.025455 0.030517 0.020170 0.008134 
38847 -0.002556 -0.016858 -0.005003 0.004491 -0.026600 0.024451 -0.019861 -0.031074 0.001175 -0.004735 0.000010 0.000073 0.019245 0.002028 -0.030352 0.024690 
38848 -0.018288 -0.020688 0.007219 -0.014842 -0.016697 0.002311 -0.003489 0.026986 0.009369 -0.025655 0.024439 -0.001193 -0.001614 0.001861 0.006041 0.014878 
38015 0.029457 0.019427 -0.003019 0.017583 0.009808 -0.022759 0.006048 0.027429 -0.012711 0.028621 -0.004843 0.018048 0.025379 0.030013 0.004347 -0.021300 
39324 0.015678 -0.021512 0.026781 -0.023234 -0.009586 0.011741 0.008749 -0.029746 -0.002563 -0.029408 -0.025335 -0.004703 -0.024776 0.023986 0.027067 -0.021346 
38723 0.002876 -0.018506 -0.028379 -0.012294 -0.012379 -0.019189 0.004614 -0.019538 -0.022690 -0.012242 0.025461 -0.006946 -0.027081 -0.016221 0.011702 0.014741 
37590 -0.008949 0.028445 0.018999 -0.012095 0.001431 0.009452 -0.006357 -0.004447 -0.010590 0.017619 0.022547 0.011319 0.018467 -0.028108 0.020750 0.024461 
38146 -0.019798 -0.005658 -0.018583 -0.022639 -0.030659 -0.027337 -0.024164 0.015527 -0.028763 -0.002324 0.028421 -0.012408 -0.013134 -0.011674 -0.008287 0.007813 
37514 -0.029671 0.004184 -0.016127 0.018575 0.016354 -0.004556 0.013693 -0.022117 -0.014709 -0.009572 -0.019415 -0.015628 0.003117 -0.029420 -0.012911 0.027299 
37467 0.023933 -0.004529 0.026369 -0.013453 0.017467 0.015296 -0.017786 0.007623 -0.030930 -0.004125 0.004038 0.001660 0.004719 -0.018846 0.006880 0.020417 
38085 0.016014 0.030704 -0.016096 0.006276 -0.027317 -0.030282 0.006399 -0.020255 -0.014923 0.014018 -0.026220 -0.023044 -0.008327 0.020049 -0.011415 -0.012832 
37505 0.009071 -0.015119 -0.018522 0.015264 0.007000 -0.016290 0.023748 0.019250 -0.029190 -0.017644 0.014811 -0.027240 0.026478 0.024764 -0.005297 -0.009948 
37899 0.003105 -0.016995 0.019091 0.013509 -0.004581 -0.005227 -0.028238 0.001138 -0.011230 0.025889 0.002131 -0.010928 -0.015865 -0.004701 0.025236 0.029069 
37360 -0.001884 0.025073 -0.028257 0.001012 0.000439 0.002906 -0.024561 -0.012092 -0.023544 0.019618 -0.001760 0.025891 -0.010357 -0.005845 0.017683 -0.020782 
38095 -0.005898 -0.013913 0.026934 -0.022227 0.022060 0.008109 -0.027719 -0.020438 -0.003632 0.026042 0.003138 0.020719 -0.019497 0.021331 -0.027956 0.028001 
38855 -0.008934 -0.008954 -0.002836 0.006291 -0.002216 0.010383 0.024786 -0.023902 -0.013992 -0.017339 0.016825 -0.026446 0.019215 0.014327 0.013319 -0.012084 
37584 -0.010994 -0.022550 0.007433 0.024068 -0.009892 0.009727 0.007956 -0.022483 0.007874 0.014476 -0.023199 0.009397 -0.019222 -0.026856 0.016508 -0.016036 
37763 -0.012077 0.007800 -0.004759 0.031102 -0.000965 0.006141 -0.015711 -0.016181 -0.000534 -0.003514 0.008066 0.003247 -0.009808 0.022780 -0.018389 0.016145 
37987 -0.012184 0.019595 0.023088 0.027394 0.024563 -0.000375 0.016287 -0.004996 0.023285 -0.008809 -0.014380 0.017606 -0.015041 -0.024262 -0.028872 0.021958 
38360 -0.011314 0.012836 0.028475 0.012944 0.004192 -0.009820 -0.021051 0.011071 0.016830 -0.001409 -0.028036 -0.010028 0.027576 0.019515 -0.014940 0.001405 
38712 -0.009468 -0.012479 0.011400 -0.012248 0.000423 -0.022195 -0.002726 -0.030478 -0.019897 0.018687 0.029596 -0.017154 -0.006954 0.029113 0.023405 0.016984 
37243 -0.006645 0.006152 -0.028135 0.014318 0.013256 0.025001 0.008764 -0.004645 -0.024399 -0.011022 -0.028982 -0.003772 0.006367 0.004531 0.023664 0.006196 
39140 -0.002846 0.006228 -0.027632 0.030141 -0.019810 0.006766 0.013418 0.026071 0.003326 -0.028035 -0.016272 0.030118 0.005039 0.008269 -0.014162 -0.030959 
38453 0.001930 -0.012250 0.012911 -0.027278 0.026226 -0.014398 0.011236 -0.000831 0.000778 0.030147 0.005228 0.022016 -0.010937 -0.022172 -0.027575 0.030519 
37681 0.007683 0.013217 0.030993 0.029561 0.026363 0.024009 0.002218 -0.022849 0.030457 -0.023976 -0.026983 -0.028079 0.020939 -0.024293 -0.016573 0.003129 
38857 0.014412 0.020129 0.026613 0.013158 -0.019398 -0.003015 -0.013636 0.022515 0.029861 -0.002904 0.012094 0.004834 -0.024334 0.001906 0.018843 0.011872 
38358 0.022118 0.008487 -0.000227 -0.013988 0.013943 0.029532 0.026175 0.010262 -0.001007 0.030864 -0.002539 -0.004245 -0.021755 -0.006074 0.016172 -0.005752 
37241 0.030800 -0.021710 0.012972 0.010625 0.001385 -0.003350 -0.003351 0.002892 0.000351 0.014827 -0.008383 0.007184 0.028675 0.014266 -0.024584 0.012757 
37758 -0.022041 -0.007962 0.003710 0.024495 0.005428 0.023337 0.022787 0.000405 -0.028564 0.011485 -0.005438 -0.023379 0.001957 0.000426 0.021574 0.004899 
37240 -0.011406 -0.012769 -0.028013 0.027623 0.026073 -0.015405 -0.020411 0.002801 -0.025253 0.020839 0.006296 0.029065 0.023090 0.014907 0.029646 -0.029326 
37165 1.866727 2.577548 -1.188630 0.186344 -0.879923 1.211840 1.902531 1.836138 -0.723474 -0.143786 -1.296003 -0.203131 -2.012126 1.713371 1.530839 0.655024 
38281 0.012794 -0.015546 0.028658 0.001653 -0.007832 0.023322 -0.002314 0.022241 0.015549 0.015132 -0.006369 0.007977 0.021412 0.003829 -0.005968 0.010621 
39130 0.026360 -0.013516 -0.007948 -0.027446 0.000118 -0.024209 -0.003519 -0.023215 -0.009460 0.000072 -0.030767 -0.003055 -0.001400 -0.021729 0.012846 0.022294 
37503 -0.021599 -0.030042 -0.004515 -0.004786 0.024670 -0.012170 -0.011560 -0.001288 -0.002243 -0.002294 0.016123 0.006421 0.023640 -0.018968 -0.006426 0.007600 
38562 -0.006081 -0.002622 -0.023542 0.007131 0.003323 -0.003060 -0.026438 0.025521 -0.025299 0.008037 0.009302 -0.026095 -0.028469 0.012115 -0.001284 0.029038 
38283 0.010414 0.006244 -0.002531 0.008306 -0.001423 0.003119 0.014349 -0.005286 -0.016129 0.031062 0.011271 0.024396 0.029774 0.009017 0.028273 0.024110 
37959 0.027885 -0.003446 -0.003981 -0.001262 0.010433 0.006370 -0.014200 -0.031211 0.025269 0.004283 0.022028 -0.029605 0.010868 -0.028260 0.019743 -0.007186 
38354 -0.016167 0.030810 -0.027891 -0.021571 -0.023609 0.006690 0.012915 0.010247 -0.026108 -0.009801 -0.020926 -0.000598 -0.022686 0.025283 -0.026873 -0.002349 
37977 0.003258 -0.015988 -0.011763 0.009877 0.021450 0.004081 -0.029306 -0.005912 0.017242 -0.011189 0.007410 -0.013583 -0.008389 -0.017854 0.013426 -0.023879 
37472 0.023659 -0.018842 -0.018095 0.030583 0.020611 -0.001458 -0.015863 -0.017188 0.030319 0.000117 -0.017965 -0.006061 -0.008739 0.029830 0.015638 -0.009276 
38284 -0.017464 0.022250 0.015612 -0.021953 -0.026127 -0.009927 -0.009256 -0.023582 0.013123 0.024119 0.027948 0.021970 -0.023739 -0.019166 -0.020235 -0.021041 
37962 0.004890 -0.017713 0.026857 -0.022731 0.006237 -0.021325 -0.009485 -0.025092 0.028152 -0.001683 0.020151 0.008008 0.009113 0.022658 0.030806 0.003327 
38350 0.028221 -0.013730 0.015642 0.028249 -0.007298 0.026847 -0.016550 -0.021720 0.012909 -0.014791 0.021143 0.014554 0.027317 0.030303 -0.018740 0.001328 
37473 -0.009972 -0.028302 -0.018034 0.005986 -0.004230 0.009589 -0.030451 -0.013465 0.029892 -0.015203 0.030924 -0.020892 0.030872 0.003768 0.018629 -0.027038 
39124 0.015312 0.001071 -0.011671 -0.027019 0.015438 -0.010598 0.011312 -0.000327 0.016602 -0.002919 -0.013006 0.026670 0.019779 0.005553 0.017912 -0.019271 
37900 -0.020927 0.011889 -0.027769 -0.008265 -0.010792 0.028785 -0.016260 0.017694 -0.026962 0.022059 0.014353 -0.030261 -0.005962 -0.026841 -0.020891 0.024629 
38759 0.006310 0.004153 -0.003828 -0.000255 -0.020420 0.002738 0.011831 -0.021903 0.024200 -0.002767 -0.011999 -0.004184 0.016148 -0.030915 0.027220 -0.020339 
37166 -1.971491 0.753780 0.575515 -0.459389 0.035965 -1.464070 2.483545 2.261805 -2.673967 -1.356271 -1.316348 0.522736 -0.346762 -1.291578 1.173749 -1.369944 
37327 0.001213 -0.004483 -0.023329 -0.016459 0.010128 0.004355 -0.014994 -0.023948 -0.026794 -0.014333 0.024164 -0.015506 0.016422 -0.016603 0.009184 -0.001876 
37692 -0.031120 -0.005383 -0.004271 0.021825 -0.012196 -0.030480 -0.007410 0.013604 -0.003952 -0.001073 0.024179 0.009595 -0.005413 0.001784 0.005537 -0.000945 
37745 0.000023 -0.024838 -0.007673 -0.013133 -0.017918 -0.005746 -0.006662 -0.006461 -0.011383 0.024882 -0.029516 -0.007297 0.020603 -0.014009 0.026304 -0.026381 
38558 -0.030357 -0.000348 0.028963 0.003667 -0.007038 0.016059 -0.012751 -0.021644 0.013412 0.001033 -0.011923 -0.003680 -0.030529 -0.001481 0.008986 -0.015685 
37063 -1.740014 -1.825246 0.698836 0.149832 -0.321279 0.598194 3.063508 1.158670 -0.846924 -1.775571 2.300290 0.357080 -0.626858 0.976355 0.842849 0.002120 
37476 -0.025688 -0.007031 -0.027647 0.005040 0.002026 -0.011621 0.017065 0.025140 -0.027817 -0.008580 -0.012869 0.002576 0.010761 -0.016465 -0.014910 -0.010894 
37566 0.009361 0.024295 0.004107 -0.010386 0.000210 0.001395 -0.009531 0.024606 0.031158 0.005656 0.031092 0.005216 -0.021816 0.018523 -0.021486 -0.016799 
37167 -1.410601 0.032889 1.224644 -0.094027 2.636130 1.537046 2.694642 1.768296 -0.053730 -2.458108 -0.401979 0.383453 -0.169299 2.219324 0.226129 -0.167362 
37180 0.668725 1.217402 -0.384820 -0.441958 -2.555811 0.147261 0.049481 2.378222 -2.065172 -1.295769 0.697272 -0.236854 -1.783744 -0.411309 1.645268 -2.206239 
37168 -0.214560 -0.204332 1.880740 -1.840646 1.022928 1.480192 0.471343 1.663278 -1.154992 -2.555974 1.147916 -1.115218 -2.445005 -1.162774 1.355584 0.217590 
37743 -0.028175 0.026553 -0.030989 0.007985 -0.028538 0.024161 0.003225 0.008798 0.026825 0.002055 -0.017675 -0.029147 0.013889 0.004180 0.008848 0.008409 
38862 0.011757 0.027606 0.013460 0.001348 -0.009846 0.022529 0.004950 -0.029822 -0.003067 0.017268 0.007730 0.013532 -0.029430 -0.006730 -0.000658 -0.004333 
38724 -0.009834 0.010104 -0.027052 -0.016032 0.025448 0.017966 -0.000162 -0.001060 -0.000732 -0.017323 -0.020575 0.014218 -0.024899 0.010680 0.014250 0.019059 
38556 -0.030449 -0.025952 -0.027525 0.018346 0.014843 0.010474 -0.012110 -0.029914 -0.028671 0.023280 0.022409 -0.027087 0.027485 -0.006089 -0.008928 0.016084 
38753 0.012413 -0.018064 0.012041 -0.020518 0.020840 0.000052 -0.030893 0.008615 -0.024384 0.014079 0.011683 0.014615 0.002720 0.005462 -0.007692 -0.013259 
38694 -0.006248 -0.028729 0.029146 -0.007625 -0.019062 -0.013299 0.005987 -0.010474 0.012131 0.017573 0.009745 0.014325 0.025806 -0.017167 0.017958 -0.006469 
37222 -0.023933 0.004550 0.023790 -0.005473 0.020138 -0.029580 -0.026468 -0.024680 0.018372 -0.028737 0.016596 -0.027957 -0.028255 -0.011476 0.005522 -0.026046 
38339 0.021858 0.019275 -0.004026 -0.014064 0.013439 0.013709 -0.003260 0.028497 -0.005661 0.000148 -0.030264 0.012769 0.028034 0.022536 0.017500 -0.009490 
38540 0.006126 0.015445 0.008196 0.029103 0.023342 -0.008431 0.013113 0.024056 0.002533 -0.020772 -0.005835 0.011502 0.007175 0.022368 -0.008608 -0.019301 
37496 -0.008629 -0.006940 -0.002043 -0.000972 -0.012653 0.028998 0.022650 0.024499 -0.019547 -0.028996 0.027384 0.030744 -0.028332 -0.011979 -0.010302 0.007020 
37372 -0.022408 0.014621 0.027758 0.020711 0.030453 0.000998 0.025351 0.029824 -0.009399 -0.024526 0.006891 0.007993 -0.015987 -0.018006 0.012419 0.006974 
38032 0.027290 0.017627 -0.027403 -0.030849 0.027660 -0.029931 0.021215 -0.022468 -0.029526 -0.007360 -0.004812 0.005750 -0.018291 0.004287 -0.002947 -0.019439 
38863 0.015465 0.002078 0.019976 -0.030650 -0.021030 -0.001290 0.010244 -0.007377 -0.017426 0.022502 -0.007727 0.024014 0.027256 -0.007600 0.006102 -0.009719 
36906 -1.237232 0.632819 0.752875 -1.997338 -0.721566 1.317105 -0.457447 2.342433 -0.179455 0.114579 -1.892708 0.912690 -3.082407 0.567459 -0.405373 -0.795180 
37730 -0.005257 -0.022183 -0.015150 0.000020 -0.006107 -0.015298 0.030294 -0.025046 -0.021545 -0.004689 0.012812 -0.002933 0.011906 -0.008912 -0.027559 -0.006881 
39076 -0.014153 -0.030896 0.027346 0.030492 -0.004993 0.004554 -0.001184 0.004693 0.024734 0.000758 -0.026236 0.014356 0.013508 0.001662 -0.007769 -0.013762 
37070 -1.997501 1.397611 -0.779144 -0.372948 0.614172 -0.168584 1.066372 0.837958 -0.654919 -1.641308 -0.550836 0.965315 -3.200543 2.945027 -0.629940 -0.209815 
38749 -0.029015 0.021014 -0.017546 -0.003291 -0.015461 -0.027032 -0.022150 0.016320 0.026474 -0.012761 -0.015463 -0.014544 -0.027233 -0.017228 -0.019945 0.018373 
38700 0.027519 0.019137 0.020067 -0.005046 -0.027042 -0.015969 -0.011637 -0.001792 -0.018066 0.030772 -0.028143 0.001767 -0.007076 0.015807 0.010588 -0.005111 
37071 1.782401 -1.916001 0.213081 1.022874 -0.823775 1.239890 1.696909 0.427688 -2.728826 -1.816342 -0.830849 0.443725 -1.424759 1.617009 0.439969 -0.828898 
36924 1.080729 -1.403430 1.967808 -0.185158 -1.391954 0.928467 1.410794 2.283839 -0.502468 0.872624 -0.987023 1.118799 -1.896069 1.492537 1.353819 1.001794 
37727 0.015480 0.027179 -0.001860 -0.012263 -0.024677 -0.000360 -0.021112 -0.026832 -0.020828 -0.012456 -0.013449 -0.013751 0.028004 -0.027665 -0.001329 0.016236 
38545 0.013420 0.013583 0.008410 0.005513 0.030148 -0.001016 0.024557 -0.025413 0.001038 0.019359 0.009027 0.022092 -0.010433 -0.006349 0.001860 0.012284 
38059 0.012337 -0.018567 -0.003782 0.012547 -0.023426 -0.004601 0.000891 -0.019111 -0.007370 0.001369 -0.022207 0.015943 -0.001019 -0.019212 0.029463 -0.018035 
39078 0.012230 -0.006772 0.024065 0.008840 0.002102 -0.011117 -0.029612 -0.007926 0.016449 -0.003926 0.017847 0.030301 -0.006252 -0.003755 0.018980 -0.012221 
37706 0.013100 -0.013532 0.029451 -0.005610 -0.018269 -0.020562 -0.004450 0.008142 0.009995 0.003474 0.004190 0.002667 -0.026134 -0.022477 -0.029589 0.029725 
37969 0.014946 0.023654 0.012377 -0.030803 -0.022038 0.029563 0.013876 0.029092 -0.026733 0.023570 -0.000677 -0.004458 0.001835 -0.012879 0.008757 -0.017196 
37972 0.017769 -0.020215 -0.027159 -0.004237 -0.009205 0.014258 0.025366 -0.007575 -0.031235 -0.006139 0.003244 0.008924 0.015156 0.025039 0.009016 -0.027984 
37571 0.021568 -0.020139 -0.026655 0.011586 0.020229 -0.003976 0.030020 0.023141 -0.003510 -0.023152 0.015955 -0.019687 0.013828 0.028777 -0.028811 -0.002639 
37709 0.026344 0.023883 0.013887 0.016667 0.003765 -0.025140 0.027838 -0.003760 -0.006058 -0.027471 -0.025045 -0.027789 -0.002148 -0.001664 0.020277 -0.003661 
38330 -0.030403 -0.013150 -0.030531 0.011006 0.003902 0.013267 0.018820 -0.025779 0.023621 -0.019094 0.005243 -0.015384 0.029728 -0.003785 -0.031221 -0.031051 
37493 -0.023674 -0.006238 0.027590 -0.005397 0.020641 -0.013757 0.002966 0.019586 0.023026 0.001979 -0.018179 0.017529 -0.015545 0.022414 0.004194 -0.022307 
37724 -0.015968 -0.017880 0.000750 0.029958 -0.008518 0.018790 -0.019724 0.007333 -0.007843 -0.026753 0.029688 0.008451 -0.012966 0.014434 0.001524 0.022569 
37711 -0.007286 0.014422 0.013948 -0.007930 -0.021076 -0.014092 0.013250 -0.000037 -0.006485 0.019710 0.023844 0.019879 -0.025036 -0.027726 0.023268 -0.021422 
38873 0.002373 0.028171 0.004686 0.005940 -0.017033 0.012595 -0.023111 -0.002524 0.027100 0.016368 0.026789 -0.010684 0.010746 0.020934 0.006926 -0.029281 
37719 0.013008 0.023364 -0.027037 0.009068 0.003613 -0.026147 -0.003809 -0.000129 0.030411 0.025722 -0.023977 -0.020740 -0.030621 -0.027085 0.014997 -0.001006 
37442 0.024620 0.000003 -0.018721 0.001454 -0.021641 -0.005319 0.008657 0.007150 0.003448 -0.014729 -0.003454 -0.010287 -0.024136 0.015716 -0.015017 0.000901 
37894 -0.025291 0.020587 0.029634 -0.016902 -0.030293 0.012580 0.014288 0.019311 0.008713 0.020015 0.025858 0.020673 0.030201 0.024337 -0.020617 -0.023559 
37713 -0.011726 0.022616 -0.006971 0.016500 -0.022343 0.027549 0.013083 -0.026145 -0.016296 0.004954 0.001459 0.009641 0.007389 -0.001222 -0.001802 -0.011886 
37394 0.002815 0.006091 -0.003538 -0.023341 0.002209 -0.022912 0.005041 -0.004218 -0.009079 0.002589 -0.014151 0.019116 -0.030071 0.001540 -0.021074 -0.026580 
39096 0.018333 -0.028989 -0.022566 -0.011424 -0.019138 -0.013803 -0.009836 0.022592 0.030365 0.012919 -0.020971 -0.013400 -0.019680 -0.029878 -0.015932 -0.005141 
38431 -0.027672 -0.020123 -0.001554 -0.010249 -0.023884 -0.007623 0.030951 -0.008216 -0.022964 -0.026555 -0.019003 -0.025409 -0.023937 0.029525 0.013624 -0.010070 
38007 -0.010201 -0.029813 -0.003004 -0.019816 -0.012028 -0.004373 0.002401 0.028359 0.018433 0.009166 -0.008245 -0.016910 0.019657 -0.007752 0.005095 0.021134 
36925 -0.427560 -1.254849 0.033560 -1.865849 0.648767 1.098894 -0.091892 2.755396 -1.084824 -1.229741 0.309175 1.314445 -1.678074 0.809099 0.257941 2.290889 
38086 0.027672 0.020144 -0.010786 -0.008677 -0.001011 -0.006661 -0.012705 -0.008842 0.010406 -0.006307 -0.022863 -0.000888 0.000401 0.002654 -0.001223 0.004441 
36970 -0.014427 0.017291 -0.017118 0.012029 -0.001850 -0.012200 0.000738 -0.020118 0.023483 0.005000 0.014261 0.006635 0.000050 -0.012162 0.000990 0.019044 
37923 0.006950 -0.004117 0.016588 0.021993 0.013912 -0.020669 0.007345 -0.026511 0.006287 0.029002 -0.002325 -0.027835 -0.014950 0.001342 0.027617 0.007279 
1220 -0.014872 0.366166 1.132762 1.851697 -0.455732 0.025557 1.088548 0.598290 0.864207 -2.438319 0.909059 -0.881028 0.946108 -0.237581 2.438164 -1.210157 
37597 -0.800517 -1.091472 1.270208 -0.650910 0.517398 2.248997 1.736851 0.280581 -2.409390 -0.882334 -0.753919 0.493815 1.480129 1.016318 1.540576 -0.647599 
1861 0.014442 0.007831 -0.017057 -0.012568 -0.026691 -0.001153 -0.013849 -0.016395 0.023056 -0.010320 0.000650 -0.008197 -0.022839 0.024276 0.003981 0.001283 
37440 -0.022774 -0.025296 -0.010695 0.016927 -0.007023 -0.021340 0.027914 -0.003257 0.009766 0.001964 0.019220 -0.023135 0.028568 0.026061 0.003263 0.009049 
1746 -0.896562 0.348039 -1.127880 -0.333052 -1.359899 2.023646 2.045525 0.729267 1.248604 -0.138441 1.408992 -1.829656 1.156935 -0.610250 -1.777236 0.366176 
2303 -0.933261 0.421135 0.968031 0.048140 -2.935942 2.430562 1.320202 -2.107597 0.797244 -0.112334 0.965918 0.147703 1.304678 1.390079 -0.207671 -0.670400 
37302 -0.003563 0.013995 -0.001371 -0.021541 0.026592 0.025519 -0.012812 0.002954 -0.024246 -0.010015 0.002665 -0.007403 -0.030102 0.013839 0.022596 -0.000854 
2385 0.025627 -0.030850 -0.022352 0.027486 -0.012333 -0.006387 0.001608 -0.026877 0.028870 -0.009450 -0.006109 -0.002810 0.025211 0.003905 -0.005465 0.026444 
38377 -0.006706 0.030749 -0.003294 0.003270 0.027843 0.021277 0.009192 0.010674 -0.010788 0.003810 -0.006094 0.022290 0.003376 0.022292 -0.009111 0.027375 
36997 -0.226924 0.746115 -1.257400 -0.147008 0.566970 1.150122 1.490630 0.435208 -1.812821 -1.754071 2.432174 0.892520 -1.873352 0.760289 -0.280717 -1.115434 
38499 -0.005943 -0.026715 0.029940 -0.014888 -0.029499 0.005317 0.003851 -0.024573 0.006577 0.005916 0.020304 0.009015 -0.021740 0.019027 -0.005663 0.012635 
38018 0.027153 -0.020780 -0.018385 -0.008830 -0.002018 0.024192 -0.009073 0.027627 0.001099 -0.005239 -0.015814 -0.029361 -0.025021 -0.002625 0.001432 -0.003036 
38920 -0.001274 0.029101 -0.026670 -0.013515 -0.020435 -0.022363 -0.028833 0.022210 0.027847 -0.003697 0.019358 0.015271 0.019550 0.004043 -0.029558 0.017426 
37833 -0.028725 -0.002072 0.005083 -0.028941 -0.022251 -0.009347 0.007071 0.021676 0.024323 0.010539 0.000818 0.017911 -0.013027 -0.023469 0.026365 0.011521 
728 0.007301 0.010699 0.014376 0.007390 -0.007465 0.000739 -0.026361 0.026025 -0.009476 -0.025029 -0.008932 -0.021441 0.002247 -0.022660 -0.018297 -0.020751 
1654 -1.130066 -0.391259 1.288132 -0.118297 -1.716996 2.112756 1.206984 -2.354574 0.468416 -0.384871 1.337138 -0.263618 2.686251 0.311886 -0.006731 -1.019984 
38491 0.261535 -0.096689 0.611750 -0.994165 -0.048893 2.437922 1.780603 -1.864629 -0.912131 -2.523846 0.428328 1.633677 0.043646 2.167133 1.102509 -0.341418 
3016 -0.044994 -1.112270 0.753021 1.022903 -1.824554 1.483118 0.903482 -2.206328 2.170823 -1.253498 -0.429135 -0.292814 0.830348 -1.342656 1.451945 0.752996 
3071 -0.026329 0.001239 0.014437 -0.017207 0.030193 0.011786 0.021551 0.029748 -0.009903 0.022151 -0.022543 0.026227 -0.020641 0.013778 -0.015306 0.023988 
37406 1.493172 0.560829 -1.626368 -0.335852 1.231368 2.008428 2.065306 0.494657 -2.142274 -1.565107 1.088923 0.174592 -0.833592 0.667783 0.298891 -1.111095 
2599 -0.006035 0.010180 -0.026548 -0.000209 -0.007618 -0.000268 0.004492 0.029656 0.026993 0.028163 -0.007864 -0.014392 -0.026226 0.014419 -0.023577 -0.018096 
