7951 16
40097 0.016121 0.018909 0.018557 0.009984 0.009655 -0.023767 -0.025599 0.031060 0.023758 0.019313 -0.003775 0.025098 -0.003094 0.004592 -0.000933 -0.018645 
39545 0.885280 -1.494662 1.105868 -1.365061 0.770949 1.829858 -2.219317 0.193946 1.746787 -0.156738 1.910562 0.440576 1.503593 -1.029101 -1.130119 -1.236910 
39488 -0.523252 0.754079 1.509803 -0.907765 -0.664270 1.581797 1.343084 1.640715 0.960564 0.676489 1.244045 0.944696 0.191190 0.538761 -0.762410 1.442172 
39878 -0.719876 -1.583932 2.429453 -1.774011 0.747929 -0.124749 0.396437 0.310641 0.937868 2.972659 1.346961 0.592542 1.757765 -0.165419 -0.969105 -0.419788 
39758 -0.721446 -2.606326 1.993837 -0.777329 -1.191960 1.420531 -2.006793 2.198770 1.816800 -0.326199 0.387631 1.745341 0.226247 0.138912 -0.194365 -0.693455 
39765 -0.739221 -0.460352 3.278561 -0.403433 -0.047510 -0.833081 -0.089154 2.242245 -0.068258 1.152394 0.522582 1.642384 2.102277 0.771311 0.675399 2.280770 
39672 0.590217 -1.469527 1.583432 0.624310 -0.519935 1.125766 -1.241172 3.509524 1.480843 0.863407 1.596542 1.317945 0.130086 0.633827 0.535094 1.266737 
39577 0.943475 -0.893361 0.647883 -0.531650 -0.040357 0.278535 -0.103556 3.102844 -0.026764 1.619398 0.710265 0.327376 2.600509 0.061321 0.107762 0.191000 
39396 -0.914026 -0.285609 0.878110 -2.667511 -0.780930 1.814436 -1.137361 0.358847 0.239591 -0.939681 1.127011 0.689056 -0.355537 -0.537733 0.511990 0.506258 
39397 -0.382741 -1.283248 0.512200 -2.526387 -0.666059 2.576962 0.295015 0.783123 1.086387 -1.147641 0.788306 0.638423 -0.118463 -0.715277 1.476259 1.562849 
39451 -1.443071 -1.345786 2.182443 -0.797478 0.666777 0.751226 0.194901 2.180641 -0.519766 0.631583 1.545053 1.548193 0.806046 -2.277698 -0.702901 0.425899 
40538 -0.017281 0.010959 0.003588 0.011189 -0.007389 0.001243 -0.010538 -0.007041 -0.027710 -0.020375 0.021784 0.006284 -0.014767 -0.009950 0.015593 -0.022079 
40371 -0.014458 0.029590 0.026552 -0.024745 0.005444 -0.014062 0.000952 0.018792 0.030289 0.012416 0.025705 0.019666 -0.001446 0.027968 0.015852 0.029634 
40250 -0.010658 0.029666 0.027056 -0.008922 -0.027622 0.030204 0.005606 -0.012992 -0.004486 -0.004598 -0.024084 -0.008945 -0.002773 -0.030793 -0.021975 -0.007522 
41008 -0.005882 0.011188 0.005098 -0.003840 0.018414 0.009040 0.003424 0.022607 -0.007034 -0.008916 -0.002584 -0.017047 -0.018749 0.001266 0.027113 -0.008544 
40467 -0.000130 -0.025846 0.023180 -0.009501 0.018551 -0.015054 -0.005594 0.000588 0.022644 -0.000539 0.027704 -0.004642 0.013126 -0.000855 -0.024385 0.026567 
39703 -0.586000 0.456201 1.915519 -2.989892 1.012511 0.808829 -1.284050 0.959153 1.412090 1.089669 1.104351 2.480749 1.183833 0.814374 -0.890995 -0.428695 
39692 -2.180668 -2.048780 1.509266 -0.686022 0.054089 0.474799 0.443790 0.575010 3.183243 0.809155 1.828227 -0.549327 0.452637 0.310449 -1.387963 0.719893 
40387 0.022987 0.001727 0.005159 -0.028438 -0.006428 0.020087 -0.011164 0.026330 -0.007462 -0.024236 -0.016195 0.030622 0.020863 -0.024796 0.030104 -0.026305 
40640 -0.029854 0.015475 -0.004103 -0.014567 -0.002384 -0.015725 0.014975 0.023843 0.026123 -0.027577 -0.013250 0.000058 -0.005856 0.023864 0.013762 0.028337 
39431 2.111287 0.745658 1.656447 -1.155262 -2.254671 0.441734 -0.418478 1.503903 0.434641 0.486992 2.451624 -0.236443 1.594584 -1.234640 1.095012 -0.712090 
39724 0.163572 -0.900587 0.558980 -1.112268 -2.296072 0.858065 0.109209 1.028816 1.753822 0.732359 1.939778 -0.293355 1.690201 1.205296 -0.413103 -1.379245 
40159 0.004982 0.007892 0.020845 0.025090 -0.015644 -0.015740 -0.010126 -0.016822 0.007736 -0.023931 -0.014181 -0.031085 0.013599 0.027267 -0.013781 -0.028441 
39893 1.324325 0.189982 0.023884 -2.038791 -0.053857 0.871632 -1.254501 1.841563 1.547611 0.944307 3.193705 -1.681435 1.356513 -1.071384 -1.809118 -0.159750 
39813 0.644443 -1.087273 0.326579 -2.621773 0.736272 1.783223 -2.393118 3.385838 0.721459 0.716870 0.660719 0.447911 1.056391 -1.737784 -0.180594 1.422612 
39909 -0.450974 -2.364471 2.808964 0.636513 1.348621 0.624134 0.996225 3.077929 -0.343972 -0.715895 2.313993 -0.209815 1.436243 -0.818122 0.711470 -0.571514 
39980 0.002602 0.029681 -0.010344 -0.030757 -0.009235 0.026557 0.006536 0.018151 -0.023941 -0.008000 0.003458 -0.014667 0.021961 -0.030046 0.020460 -0.014953 
41205 0.020073 0.019992 -0.011793 0.022176 0.002621 0.029807 -0.022013 -0.007773 0.017456 0.027720 0.014215 -0.006167 0.003056 -0.004823 0.011930 0.016252 
40650 0.006263 -2.385171 1.351302 -0.447828 0.277214 1.748749 1.605278 0.394351 1.476552 0.211756 1.789382 2.630896 1.925314 -0.012836 -0.220479 -0.532418 
39461 1.743952 0.014785 0.562891 -0.585270 -0.298444 0.084468 -0.951505 0.114936 1.258517 -1.289448 0.737355 2.078333 1.546680 0.054424 0.380811 0.820352 
40940 0.015846 0.004596 -0.025908 -0.008479 0.012798 0.021979 -0.023676 0.006249 0.022507 0.023555 -0.025778 0.017377 -0.016552 -0.009233 0.007826 0.014161 
40431 -0.025276 -0.016812 0.007799 0.001485 0.028561 0.013511 -0.017069 -0.000144 0.005310 -0.014943 0.020136 -0.017093 0.030949 0.004272 -0.028048 0.002397 
39904 1.256199 -0.834720 0.517197 -2.147055 -1.038789 -0.684136 -1.667506 0.766327 -0.347524 1.059445 2.247082 0.949285 2.606489 -2.953508 -0.719771 0.976607 
40057 0.020409 0.009707 0.007830 -0.010814 -0.015110 -0.012216 -0.024363 0.001718 0.005096 0.008647 0.013330 -0.024508 0.019505 -0.008759 -0.026552 0.024766 
40169 -0.017784 -0.004865 -0.025846 0.029424 -0.012043 -0.029473 0.024237 0.009973 0.022079 0.008235 0.023111 0.002545 0.023060 0.027205 0.010817 -0.003600 
40281 0.007500 0.024508 -0.019484 -0.003581 0.007626 0.012839 0.003500 0.023110 0.008789 0.020518 -0.020819 -0.012393 0.011967 0.028991 0.010099 0.004167 
40755 -0.028740 -0.027173 0.026918 0.015172 -0.018604 -0.010278 -0.024073 -0.021369 0.027725 -0.017003 0.006540 -0.006824 -0.013775 -0.003404 -0.028704 -0.014434 
40998 -0.001503 0.027591 -0.011641 0.023183 -0.028233 0.026175 0.004019 0.001534 0.016388 0.020671 -0.019812 0.019254 0.008335 -0.007478 0.019407 0.003098 
42536 0.026711 0.001300 -0.010160 0.020452 -0.021259 -0.002801 0.025274 0.029321 -0.025223 0.008540 0.025126 0.003339 0.015797 0.016768 0.029432 -0.005736 
42120 -0.006599 0.018954 -0.031141 0.006978 0.002316 0.027793 -0.022806 -0.000510 0.027893 0.009105 0.016352 0.007932 0.008610 0.006835 0.001371 0.021562 
40780 0.023567 0.018054 -0.012083 -0.017238 -0.020008 -0.007043 -0.015223 -0.025458 -0.011765 0.022365 0.016367 -0.029468 -0.013226 0.025222 -0.002275 0.022492 
39990 -0.007790 -0.001401 -0.015486 0.010304 -0.025730 0.017692 -0.014475 0.016976 -0.019196 -0.014180 0.025171 0.016141 0.012791 0.009429 0.018492 -0.002944 
39631 0.977155 -1.260426 0.639495 -2.891953 2.048627 -0.949344 -2.109786 1.015283 0.828807 0.310333 1.917423 -0.770581 0.962932 -0.850777 1.331854 2.240686 
40003 -0.005074 0.029025 -0.027174 -0.029338 0.012630 -0.004128 0.029013 -0.008506 0.000122 0.013316 0.006647 -0.018619 0.020878 0.000304 0.008268 -0.007918 
42015 0.330364 -1.019969 0.409253 -1.305297 0.409987 2.103426 0.841562 2.565934 1.187504 -1.107032 0.934473 1.351757 2.336451 -1.822632 -0.277309 -0.779806 
39697 -0.388017 0.482343 2.237823 -1.585236 -0.235272 0.515138 -1.608817 1.687213 0.287876 -1.252282 1.805379 0.757469 -0.041589 0.261715 1.735074 -0.766460 
41282 -0.024925 -0.001996 0.005587 -0.013118 0.007183 -0.027581 0.011724 -0.010108 -0.010452 -0.006474 0.013529 -0.010699 -0.014355 -0.019731 -0.011461 -0.025634 
39954 0.012077 -0.007779 -0.007582 0.012471 -0.023930 -0.020425 -0.028543 -0.000876 -0.012024 -0.029347 0.012568 -0.029544 -0.013729 0.009398 0.030790 -0.021773 
39429 -2.229822 -1.339126 2.773836 -0.657424 -0.901754 -0.322188 0.515585 0.809152 1.577219 1.280620 1.328047 0.156146 -0.357088 -0.400266 0.921948 1.031515 
39489 -0.264582 0.686126 2.298371 -0.928251 -0.390304 0.898922 1.476259 1.569788 1.375879 0.148495 1.334696 2.119253 -0.815171 0.739213 0.054278 1.093979 
40475 0.037318 -0.424400 1.025003 -0.609737 -0.793853 -0.403601 -0.145599 0.163847 1.897645 -0.111622 -0.801324 -0.360458 2.252690 0.069764 -0.090167 0.836882 
40240 -0.303820 0.084441 2.127019 -0.500769 -0.501190 -0.032570 1.076525 0.653298 -0.209142 -1.302378 0.720808 -1.558863 1.844071 -0.991616 0.656606 1.771094 
39629 0.403333 0.069978 2.349062 -4.293879 0.961612 1.028452 -0.285931 -0.954553 0.868368 -0.799671 0.880759 -0.043895 -0.052507 -0.293156 -0.294302 1.089503 
39753 0.781158 0.335530 0.595420 -0.345551 -0.636618 -0.780515 0.477769 0.025497 2.000142 -2.107571 0.677414 0.425116 1.390389 -0.895131 0.306824 0.513904 
39887 1.750192 -0.470224 2.070389 -0.137053 -0.679158 -1.235860 -1.866104 0.579617 0.262012 -1.323984 0.672473 1.103476 1.256736 0.208246 -0.837075 1.186328 
39723 -0.108175 -0.364132 1.063978 -1.157787 -2.371421 1.162541 -0.235952 0.672133 1.842696 0.232369 1.975238 -0.215695 2.258355 1.509447 -0.889009 -1.223776 
40350 0.014046 -0.019788 -0.011839 0.009374 0.005627 -0.025353 -0.011072 -0.010566 -0.013474 0.023585 0.024424 -0.026294 0.020222 -0.016526 0.009687 0.013947 
40558 -0.001686 -0.023618 0.000383 -0.009959 0.015530 0.015006 0.005301 -0.015006 -0.005280 0.002666 -0.013647 -0.027560 -0.000637 -0.016694 -0.016420 0.004136 
40790 -0.913765 1.485337 1.627520 -0.092899 0.059745 -0.633238 0.055838 0.006044 1.890471 -0.858732 1.586128 1.467493 2.114741 -0.845292 -0.523153 0.340452 
40198 -0.030220 -0.024442 0.019945 -0.018352 0.022640 0.024436 0.017538 -0.009238 -0.017212 -0.001088 -0.000921 -0.031070 -0.023800 0.005431 0.004606 0.030412 
41823 0.019478 -0.021436 0.027285 -0.007411 0.019848 -0.006494 0.013403 0.000970 0.025162 0.016078 -0.012625 0.029187 -0.026104 0.027724 -0.010759 0.003999 
40493 0.007652 0.025516 0.012163 -0.007213 -0.028843 0.022147 0.002432 0.016061 -0.025238 -0.016561 -0.015539 -0.015048 0.019444 0.015838 -0.001711 0.013719 
41141 -0.003197 -0.008588 -0.025419 -0.017756 0.001568 -0.014642 -0.015375 -0.026465 0.019089 0.025996 -0.009665 0.023725 -0.012157 -0.030229 -0.030748 -0.002929 
40389 -0.013069 0.001254 -0.022963 0.023458 -0.013920 0.008140 0.022482 -0.001609 -0.029358 0.018748 0.004999 0.020505 0.004093 0.014525 0.027128 0.016557 
42284 -0.021965 -0.007459 0.019533 -0.008571 -0.012806 0.027991 -0.008997 0.028131 0.016922 0.024196 0.028452 -0.024707 0.005695 0.025100 -0.015581 0.009675 
41381 -0.029884 0.027774 -0.022932 0.011159 0.004910 -0.017587 0.015188 0.000253 -0.029572 -0.020162 -0.001806 0.013089 -0.007351 0.001494 0.028624 -0.023574 
40116 0.025673 -0.018048 -0.025358 0.020146 -0.023273 -0.003594 -0.029963 -0.022742 0.018661 0.010676 -0.023275 0.008893 0.027454 0.006209 -0.027758 -0.020690 
39434 -0.147639 -1.961704 0.412340 -1.511702 0.827287 0.384885 -0.917408 0.896980 -0.370083 1.428260 3.396210 0.824421 1.001868 0.522596 1.046630 -0.331960 
42424 0.014717 0.022143 0.027407 0.005895 -0.029835 0.015601 -0.015772 0.008416 0.024307 -0.014562 0.022654 -0.000476 -0.009380 -0.024400 -0.004778 0.030976 
41865 0.010704 -0.016843 0.020098 -0.017344 -0.008213 0.020804 -0.018930 0.000070 -0.018280 -0.008138 0.027552 -0.005649 -0.018520 0.002776 0.012083 0.017259 
41081 0.007668 -0.011884 -0.009672 0.011174 0.030010 0.023078 -0.028925 -0.003394 -0.028641 0.010982 -0.021261 0.009686 0.020191 -0.004228 -0.009142 -0.022826 
40725 0.005608 -0.025479 0.000597 0.028951 0.022335 0.022422 0.016745 -0.001975 -0.006775 -0.019704 0.001215 -0.016971 -0.018246 0.017089 -0.005953 -0.026778 
39427 0.734385 -2.264479 2.071109 -2.135217 -0.509628 -0.997712 2.571902 1.334444 -0.135080 -0.015359 0.856620 1.439487 1.102356 1.620606 -0.315519 1.519646 
39550 -0.174603 -1.124625 2.272254 -2.432536 -0.569224 0.183398 -1.115595 0.230849 3.195337 0.169936 1.002732 1.334186 0.087206 2.626777 0.183103 -0.381950 
41200 0.005287 0.009906 0.021639 0.017827 -0.026081 0.002875 -0.012262 -0.030921 0.002182 0.026912 -0.003622 0.026105 0.028553 0.000960 0.025099 -0.009337 
41845 0.007133 -0.015409 0.004564 -0.007365 -0.029850 -0.009500 0.006063 -0.009971 0.027954 -0.015492 -0.008490 0.018979 -0.005978 0.010558 0.000944 0.006242 
41621 0.009956 0.003222 0.027529 0.019200 -0.017017 -0.024804 0.017553 0.015862 0.023453 0.017299 -0.004568 -0.030139 0.007343 -0.014024 0.001204 -0.004546 
39950 0.013756 0.003299 0.028032 -0.027476 0.012417 0.019462 0.022207 -0.015922 -0.011322 0.000285 0.008142 0.003751 0.006016 -0.010285 0.025877 0.020799 
40136 0.018532 -0.015180 0.006075 -0.022395 -0.004047 -0.001702 0.020025 0.019677 -0.013870 -0.004033 0.029642 -0.004352 -0.009960 0.021773 0.012465 0.019776 
41582 0.024284 0.010287 0.024157 -0.028056 -0.003910 -0.025796 0.011007 -0.002341 0.015808 0.004344 -0.002569 0.008054 0.021915 0.019652 0.023466 -0.007613 
40004 0.031013 0.017200 0.019777 0.018041 0.012829 0.009681 -0.004847 -0.019477 0.015213 0.025416 -0.025991 -0.021533 -0.023357 -0.016648 -0.003618 0.001130 
40209 -0.023781 0.005557 -0.007063 -0.009105 -0.016331 -0.020272 -0.027536 0.030770 -0.015656 -0.003316 0.021875 -0.030612 -0.020779 -0.024629 -0.006289 -0.016494 
40022 -0.015099 -0.024640 0.006136 0.015508 -0.028889 0.009345 0.005438 0.023400 -0.014297 -0.019353 0.016031 -0.019183 0.029652 -0.004289 0.015455 0.002015 
40801 -0.005440 -0.010892 -0.003126 0.029378 -0.024845 -0.026467 -0.030924 0.020913 0.019287 -0.022695 0.018976 0.012753 0.002934 -0.018128 -0.000887 -0.005843 
41957 0.005196 -0.015698 0.027651 -0.029994 -0.004200 -0.002709 -0.011621 0.023309 0.022598 -0.013341 0.030710 0.002698 0.024067 -0.003648 0.007185 0.022431 
39771 0.122831 0.610043 1.176770 -3.747131 -0.336761 -0.162161 -0.597974 1.699484 0.991505 1.170785 0.385838 1.818222 0.782112 -1.916865 -0.417145 2.566424 
40297 0.029396 -0.018476 0.021822 0.006536 0.024395 -0.026483 0.006475 -0.019752 0.000900 -0.019048 0.018045 -0.018390 0.022388 -0.014726 -0.028429 -0.000121 
39785 -1.835654 -1.033079 1.245047 0.250840 0.723846 -1.959422 -0.722466 3.710064 1.554900 -0.417805 1.783604 0.043616 1.877023 -0.835529 0.730291 0.468068 
39790 -2.319202 -1.004346 -0.179631 -1.695829 -0.139663 2.365790 -0.084721 2.124582 2.395160 0.570112 1.372872 1.067389 2.964224 -0.370290 0.314224 1.089301 
42744 0.010521 -0.005551 -0.030378 0.012013 -0.026951 0.009635 -0.017649 -0.016471 0.022552 -0.026143 -0.028784 0.010037 -0.027493 -0.006440 -0.023745 0.018296 
40896 0.027016 0.003314 -0.009367 0.013188 0.030804 0.015815 0.023138 0.015222 -0.030777 -0.003118 -0.026815 -0.001971 0.030750 -0.009538 0.005812 0.013368 
40529 -0.018013 -0.006375 -0.010817 0.003621 -0.019840 0.019065 -0.005411 -0.010703 0.010620 -0.029897 -0.016058 0.006528 0.011845 0.015685 -0.002718 -0.017928 
42649 0.000435 0.027881 0.027773 -0.016688 0.008617 0.019385 0.021704 0.030755 0.021744 0.018519 0.003489 -0.026965 -0.021709 0.006728 0.013166 -0.013091 
41805 0.019859 -0.018918 -0.018599 0.014760 -0.008823 0.016776 -0.020517 0.014596 0.002594 0.017131 -0.030676 0.022550 -0.007412 0.026092 -0.009035 0.027879 
40278 -0.022240 -0.021771 -0.024931 -0.027034 -0.009663 0.011237 -0.007074 0.003320 0.015671 0.028438 0.006449 0.030072 -0.007763 0.011275 -0.006823 -0.020019 
40260 -0.000862 0.019320 0.008776 -0.017070 0.006100 0.002769 -0.000467 -0.003074 -0.001526 -0.010060 -0.010138 -0.004397 -0.022762 0.024779 0.019804 0.030717 
41742 0.021492 -0.020642 0.020021 -0.017848 -0.024036 -0.008630 -0.000696 -0.004584 0.013504 0.026637 -0.017935 -0.018359 0.010090 0.004104 0.008345 -0.007415 
41550 -0.017677 -0.016660 0.008806 -0.029368 0.024929 -0.022958 -0.007761 -0.001212 -0.001740 0.013530 -0.016943 -0.011813 0.028294 0.011748 0.021299 -0.009414 
40171 0.006630 -0.031232 -0.024870 0.010869 0.027996 0.022285 -0.021662 0.007043 0.015244 0.013118 -0.007162 0.015241 -0.030651 -0.014787 -0.003832 0.024720 
39596 -1.016690 -3.196708 0.552059 -1.249937 -0.444781 -1.599606 1.507453 1.427161 1.088000 0.959568 2.004538 0.104691 2.117050 -1.007209 -1.005372 -0.526282 
41236 -0.004326 0.008960 0.027895 -0.003383 0.021435 -0.021020 -0.007471 -0.024299 0.020889 -0.012120 -0.023733 0.005872 -0.004986 0.017104 0.019148 0.013886 
40572 0.022911 0.001224 -0.010664 0.004628 0.011806 0.015433 0.020620 -0.001395 0.009552 0.025554 0.012415 -0.030551 0.017124 0.013030 0.004759 -0.031081 
40121 -0.011375 -0.025067 -0.009184 0.001897 0.018780 -0.013543 -0.020624 0.026391 0.030441 0.013423 -0.005148 0.016034 0.024586 -0.025224 0.014784 0.022584 
39910 2.511271 0.383835 1.865319 -0.296446 0.040646 -0.839014 1.682693 2.052631 0.052020 0.213523 2.443023 0.863294 2.221810 0.567413 -0.370768 2.937863 
41444 -0.014519 -0.008313 -0.011106 0.026708 0.020031 -0.017785 0.001379 -0.028388 -0.018600 0.027247 -0.013906 -0.016772 -0.004436 -0.016770 -0.016924 -0.011687 
40139 0.016624 -0.027768 -0.014509 -0.008250 0.014309 0.006949 0.002127 0.014047 -0.026031 -0.009297 -0.005102 0.028836 0.021580 0.029937 0.003843 0.025376 
40652 -0.013756 -0.003278 0.022127 0.008550 0.025188 0.028754 -0.003962 -0.001136 -0.001236 0.029353 0.012491 -0.030047 -0.029552 -0.020036 -0.013475 -0.026427 
41539 0.019341 0.002658 -0.026197 0.014607 -0.009830 -0.014871 -0.016886 -0.011436 -0.006714 0.018199 -0.023626 -0.005923 0.029667 0.020812 -0.006380 0.020402 
40449 -0.009087 -0.009961 0.028017 0.009923 -0.028248 0.001075 0.025854 -0.016852 0.020035 0.019740 0.011545 -0.023791 0.011738 0.027480 0.025129 -0.021636 
40162 0.025963 0.021365 -0.002729 -0.005504 -0.030064 0.014091 -0.000742 -0.017386 0.016510 -0.028523 -0.006994 -0.021152 -0.020840 -0.000031 0.018553 -0.027541 
39408 -0.907071 -0.847918 2.052879 -1.946940 -0.334047 1.216184 1.484564 1.700201 -0.742983 -1.881377 2.484190 0.124143 0.054440 -1.246255 -2.104261 1.044036 
3103 -1.240919 1.428145 0.315090 -1.270021 0.088221 0.759156 -1.769440 0.064615 -0.016457 -1.466579 0.088386 -0.759176 -0.524898 0.709656 2.947594 0.707284 
39526 -0.872663 -2.605682 1.381270 -0.434404 0.880988 1.385694 1.240906 1.080766 1.443667 0.508870 1.405920 2.388756 1.639365 0.557940 0.614431 -0.160465 
1522 0.615195 1.440970 -0.659481 0.191157 0.893848 -0.845715 -1.451495 -1.028622 0.438281 -1.675394 -0.250512 1.723213 -0.808492 1.910236 0.181449 2.746884 
39558 1.006184 -0.937415 0.529423 -0.153371 -0.262923 0.374978 -0.318660 2.766141 0.743411 1.776043 1.088050 1.356539 3.226094 -0.131042 -0.288358 0.017551 
39643 2.325629 -0.007521 0.857186 -1.740229 -0.693005 1.055429 -0.045556 -0.067408 1.048756 -0.677947 0.875925 2.439749 1.488421 -0.487978 -0.869409 0.818294 
39644 2.300745 -0.063017 0.809648 -1.590179 -0.700330 1.072589 0.000833 -0.028888 1.176332 -0.789226 0.856460 2.424596 1.385491 -0.473506 -0.808878 0.750695 
1211 -0.010531 0.126962 -0.220274 0.257376 -0.198704 0.021928 -0.548127 -0.851700 1.822650 -0.399544 -2.593336 -2.167689 0.763760 0.526044 0.186753 1.254752 
40417 -0.354224 0.366042 1.715398 -0.578592 -1.241475 1.580123 1.044520 1.828129 1.174751 0.652309 1.036568 0.678294 0.307687 0.218347 -1.749035 2.011512 
615 -0.006201 -0.488487 -0.538452 -1.787437 -0.315377 -1.299645 -1.328486 -2.029632 0.477251 -0.509073 -1.167582 -1.187968 -1.657224 1.401529 2.054797 0.275705 
40046 0.802923 -1.611194 2.479916 -0.776572 0.748478 1.360792 0.672064 0.090346 1.643121 -2.972270 1.429659 0.228065 -0.404568 -0.012874 -1.909343 2.056847 
39532 0.731857 -0.540915 0.980569 -1.362646 0.311643 2.059845 -0.092772 -0.134671 2.393113 1.738589 1.615609 -1.112867 1.103981 -1.737721 -0.183252 2.180914 
39916 0.177248 -1.194859 0.747568 0.834930 -1.050340 0.049258 0.129004 0.793903 2.157865 -1.167737 0.344467 0.791788 1.818781 -1.001201 0.983927 1.335458 
39486 -0.550035 -2.094907 2.246769 -0.733949 -0.225288 0.717491 -1.612246 0.965936 1.607457 -0.863639 0.091683 -1.677814 0.708358 -1.705585 -1.715275 0.828953 
39421 -0.499842 0.111076 2.054738 -2.957276 -1.417678 1.977101 -0.231867 -0.627939 1.184980 -1.285142 1.473482 -0.404777 -0.516554 -0.192467 -0.031585 0.857224 
39416 -1.172364 -1.118110 0.255969 0.121230 0.230035 -0.251616 -1.219765 0.765732 0.522599 0.049905 3.336374 0.744988 0.938476 0.665692 -0.432602 1.103399 
39669 -1.514226 0.418691 1.037211 -0.584717 -1.623588 -0.987020 0.433695 1.966349 1.249260 1.842333 2.658226 1.140034 2.162102 -1.540598 1.168126 0.603285 
41452 0.011345 -0.025113 -0.021986 0.004903 0.026119 -0.002603 -0.023417 -0.004539 0.026306 0.023631 -0.025274 -0.029300 0.012882 -0.027467 0.012480 -0.017623 
41122 0.002449 0.028674 0.020510 -0.027125 0.027233 0.017249 0.007605 0.025201 0.010086 0.029078 -0.001822 -0.012012 0.014484 -0.016892 -0.030230 -0.024505 
2590 -0.005470 0.001407 -0.021955 -0.007396 -0.017551 -0.028329 -0.030710 -0.002677 0.026093 -0.015279 0.030420 0.025784 0.001438 0.022002 0.013975 0.004746 
40365 -0.012413 0.018085 -0.024382 0.001592 0.016766 -0.014337 -0.013361 -0.025672 0.011826 0.015559 0.008951 0.021588 -0.026257 0.026717 0.020094 0.007630 
40675 -1.332283 -1.401446 2.322699 -2.607898 1.646391 0.167306 -0.371513 1.479921 -0.190487 -0.810971 0.489458 -0.035392 1.696041 1.359934 -2.174760 0.676987 
39498 -1.310314 -1.298853 1.676443 -2.937629 1.211298 0.092967 0.320956 1.332288 0.009958 -0.702114 0.410957 0.328622 1.674026 1.055515 -2.486547 0.872975 
39994 -1.021001 -1.084041 0.304660 0.726981 0.021173 1.420293 -0.686751 1.208714 1.057451 -0.659908 3.960552 0.507428 0.972389 0.300949 -0.649283 1.252062 
2153 -0.101898 2.456361 0.429224 0.984369 1.200932 -0.020354 -2.035861 -1.602085 0.764949 -0.419058 0.459380 -1.182458 -0.139516 -0.106965 -0.064969 2.018487 
40157 0.030022 0.010653 0.001574 0.010396 -0.000126 0.011680 -0.029154 -0.004905 -0.013611 -0.014821 -0.029058 -0.004275 -0.009457 -0.024903 -0.020601 0.001542 
958 -1.855129 0.425159 1.041861 1.361542 0.616627 0.949032 -1.293721 -0.886868 0.754899 1.569439 -1.046734 -1.314643 -1.976252 1.596331 1.832570 0.847068 
40150 0.028831 -0.009702 0.017229 0.013722 -0.028172 0.001578 -0.020823 0.012582 0.001801 0.024394 -0.020239 0.003934 -0.005276 -0.022309 -0.003481 -0.022964 
40483 -1.095453 -1.838522 1.302885 -2.030954 1.937865 -1.100433 1.942451 1.624007 1.936385 0.221200 0.114025 0.533497 0.913364 -1.272611 1.025421 1.567654 
40957 -2.440542 -1.004851 2.939498 -0.627976 -1.148135 -0.223746 0.116916 1.868138 1.783660 1.135588 1.027167 -0.029625 -0.033061 0.744263 0.103487 -0.008174 
40230 -1.226522 -1.891936 0.873441 -0.946535 -0.200063 1.449804 -0.346423 3.771266 0.495211 1.213174 1.759208 -1.409607 2.092294 0.557349 -0.692046 -0.279133 
40857 1.642752 -0.267981 2.196416 1.153253 -0.183198 0.242067 -1.354652 -0.399121 2.709666 -0.307032 1.640340 1.898533 0.894808 -0.467207 -0.124254 0.653536 
40461 -0.450333 -2.742867 2.000196 -3.494607 -0.930626 -0.887283 -0.327131 0.477365 0.548461 0.420500 0.786540 -0.748323 -0.345316 0.435390 1.591342 -0.300481 
39965 -0.704873 0.473294 0.653352 -1.483740 -0.074876 -0.722707 -1.937402 -0.576124 1.025200 0.539607 2.613722 0.769449 0.885576 0.518002 -1.676762 1.838239 
41298 -0.007072 -0.009168 0.020754 -0.000514 -0.009632 -0.001061 0.011755 -0.022407 0.008377 0.030299 0.006235 -0.008838 -0.014568 0.003860 -0.018267 0.029450 
40229 -0.268031 -1.477940 0.734705 -0.344402 -0.239155 0.940647 -0.087726 3.870460 0.654276 1.460643 0.837074 -0.631014 2.564895 0.208069 -0.576851 0.072625 
40637 0.009315 0.011493 0.007113 -0.003047 0.011150 -0.001397 0.022039 0.020471 -0.021133 -0.014470 -0.014242 -0.006488 -0.024059 0.016219 0.000807 0.030335 
41154 0.018974 0.025241 -0.002150 0.010823 0.015194 0.025290 -0.014322 0.017983 0.012451 -0.017812 -0.011297 0.025449 0.011723 0.002379 -0.015535 0.022477 
40823 0.029610 0.020434 0.028627 0.013951 -0.026661 -0.013452 0.004980 0.020379 0.015762 -0.008458 0.000437 0.015393 -0.029644 0.016860 -0.007463 -0.011748 
39797 0.353091 -0.448330 0.748947 -1.712697 -2.116683 -1.580151 0.030718 0.724175 0.160494 0.079292 3.426141 -1.875226 0.423343 0.739201 0.212557 1.140893 
1435 0.313125 0.360083 -0.369526 0.743966 -0.845712 0.163201 0.131768 -1.113051 1.154615 -1.203761 -1.292460 -0.306241 1.318432 0.052991 1.232140 1.281841 
41217 0.004875 0.019687 -0.013807 0.021382 0.009884 -0.022256 0.021872 -0.005637 -0.030945 -0.029225 0.025873 -0.016726 0.008366 -0.019776 -0.024263 -0.022628 
39814 -0.634443 -1.425462 0.386505 -0.779169 -1.241520 -0.530529 0.897154 2.847108 0.566999 -0.882960 1.218902 2.862191 1.697587 0.630150 -0.989522 0.238808 
39445 -0.150420 0.101959 2.461085 -1.862321 -0.385360 0.743788 -1.493443 1.584807 -0.146873 -1.297150 1.547746 1.367143 -0.113184 -0.218386 1.666562 -0.789865 
40047 1.556704 -2.171671 2.307491 0.642692 0.999322 1.696020 1.234412 0.670424 2.476103 -2.262089 2.345740 0.817734 -0.046850 0.264563 -1.557686 1.715078 
40822 0.006401 0.029757 -0.009840 -0.014934 0.020199 0.008323 0.011190 -0.013633 0.003784 -0.025014 0.016169 0.019223 0.020634 -0.026307 -0.017366 0.010392 
39918 0.071592 -1.126948 1.154853 0.615695 -1.507931 0.079618 0.543533 0.438232 2.128789 -1.099114 0.287483 1.075752 1.639427 -1.017115 0.801833 1.354796 
39654 0.487980 -2.068314 0.155914 -0.709504 -1.125217 1.722282 -0.110401 0.706250 2.996490 -0.344051 2.400595 -0.259644 -0.276579 0.228070 0.260848 -0.823856 
39563 -0.214806 0.613412 1.643565 -0.108177 1.672443 -0.549858 -0.723421 -0.213729 1.312666 -1.091290 1.542562 -0.195252 1.503936 -1.280680 -0.680984 1.110433 
39775 -0.540320 -3.311224 2.191279 -0.725539 1.519292 -1.370453 -0.812416 0.298833 2.256883 -1.019272 1.416602 0.040740 0.427061 -0.362595 0.176805 -0.890969 
41394 -0.016594 0.015491 0.020998 0.026097 0.016003 -0.019372 0.015905 -0.007514 0.006668 -0.030980 0.014292 -0.005664 0.018879 0.024611 -0.006304 0.020905 
39802 1.606156 -0.469376 0.594600 -1.639003 -0.336452 1.207995 1.120256 0.277189 2.159125 1.802075 1.217207 -0.109309 1.612574 -1.277104 0.605926 2.705922 
1147 1.186661 1.382728 -2.151798 1.549826 0.144453 0.340365 -1.262301 0.452713 -0.769500 0.801759 -1.537448 -0.590278 0.416027 2.568226 0.485267 1.005289 
39414 0.475149 -0.703106 0.380504 -1.018143 0.458141 1.375250 1.181810 3.104100 1.726011 -0.714472 0.959058 1.708960 2.075905 -1.178278 0.402314 -1.267374 
41872 0.020088 -0.017407 0.028872 -0.021937 -0.001026 0.030738 0.009130 -0.027228 0.014053 -0.007237 0.008493 0.018567 0.003803 -0.024888 0.004499 -0.020293 
41113 -0.015175 -0.025144 -0.009687 -0.013927 -0.010654 0.004691 -0.025278 -0.004325 0.002716 0.030437 -0.017859 -0.017856 0.025913 -0.028962 -0.009890 -0.002761 
41522 0.013039 0.011065 -0.008207 -0.016658 -0.003681 -0.024285 -0.004023 0.023461 0.023605 0.018306 0.027079 0.028729 -0.029125 -0.004716 0.000135 -0.011596 
2116 0.372656 2.928293 0.620215 1.440031 0.179426 2.148011 -1.874337 -0.760282 0.574749 -0.113478 0.623752 -1.817407 -0.400136 -0.031694 0.370381 1.747889 
39737 0.074377 -0.358232 1.115098 -0.190797 -1.462371 0.065021 0.732956 0.868548 0.959071 -1.267591 -0.102653 0.205162 2.862673 -1.638174 0.483305 1.339567 
343 -0.707149 2.325907 -0.481882 -0.573366 0.475007 -0.294714 -0.300485 -0.867404 1.848647 0.778160 -2.622579 -0.290569 0.606637 -0.093415 2.561467 0.845042 
2220 -0.854075 1.678329 -0.526440 1.879938 0.374631 2.018725 -0.349882 -2.001621 -0.578569 1.510730 -2.266055 -1.171337 0.702364 1.331141 -0.784132 0.960764 
39510 1.737704 -1.954364 2.890298 -2.549230 0.798117 -1.091963 -0.851614 0.476981 -0.117045 -0.872951 0.471664 0.534371 0.330396 -1.931333 -1.406856 0.017136 
39511 1.731264 -1.966641 2.891968 -2.535024 0.808429 -1.057965 -0.856928 0.503077 -0.077491 -0.851873 0.482701 0.543968 0.333917 -1.919076 -1.389352 0.030170 
41157 -0.012123 -0.005002 -0.001753 -0.024058 0.009975 0.003348 0.015860 -0.020316 0.009674 -0.023641 0.025232 -0.008456 -0.012051 0.020476 0.003904 0.000779 
39656 -0.913738 -1.813982 2.668385 -0.202573 0.275067 1.378586 -2.331500 1.601395 0.314340 0.223628 1.564550 -0.351771 3.018406 0.539305 0.984712 -0.230787 
42397 -0.001595 0.001987 -0.005629 -0.024638 -0.006351 0.020591 0.004660 -0.006736 -0.025696 -0.019582 0.014521 -0.004153 0.003849 -0.012086 0.001493 -0.027633 
40415 -0.026115 -0.022351 0.021242 -0.009791 -0.020863 0.024817 0.020056 0.007379 0.004959 -0.029759 0.022348 -0.002490 -0.010174 -0.017137 0.005659 0.012361 
40608 0.012840 -0.002744 0.025652 -0.005687 -0.018772 0.026114 0.028616 0.026376 0.005341 -0.027242 -0.023535 0.019681 0.023655 0.006133 -0.028261 0.025987 
40465 -0.009727 -0.001691 0.007601 -0.012324 -0.000080 0.024482 0.030340 -0.012244 -0.024551 -0.012029 0.001871 -0.000140 -0.019665 -0.004777 0.024733 0.013246 
39549 -0.536862 -1.420805 -0.181920 -2.153697 -2.553967 0.909428 0.879320 1.557630 1.771443 -1.185900 1.725645 0.885973 1.021682 -1.733688 -2.177230 0.262424 
39599 0.501132 -0.934404 3.009593 -0.483275 0.063155 -1.446282 1.748185 1.534618 0.296119 -0.149007 1.323823 2.813141 1.718924 -0.928455 1.681126 0.001997 
39430 -0.185365 -0.129738 0.080628 -0.640350 -1.609233 -0.461703 -0.785176 3.369403 1.269410 -0.282971 1.843860 1.132556 0.709567 -2.238249 -0.358402 2.308769 
258 -0.593458 2.042751 -0.622339 0.896777 -1.786048 2.188983 -1.186515 -1.799347 -0.851189 0.301754 -2.446198 0.507404 -1.781771 0.115083 1.667282 0.127075 
39513 0.017082 -0.024747 0.017931 -0.019145 0.029903 -0.027627 -0.001078 -0.007102 -0.003113 0.004466 0.010736 0.020871 -0.018490 -0.009522 0.030912 -0.008468 
40746 0.000374 -0.010022 -0.009886 -0.027736 0.023205 0.015662 0.022131 -0.016425 -0.027145 -0.029149 0.026377 -0.000903 -0.024700 0.024489 -0.019609 0.008088 
315 -0.015358 -0.013852 0.002337 0.015431 -0.029392 -0.006478 -0.023996 -0.020865 -0.018951 0.012431 -0.011694 -0.002170 0.016941 0.024322 0.016783 -0.001723 
41230 -0.030113 0.026263 -0.007902 -0.014644 -0.002888 0.030951 -0.014460 -0.020423 0.021469 0.004207 0.021524 0.017072 -0.018566 -0.010026 0.015089 0.024598 
39681 -0.783476 -0.924512 2.678492 -3.444917 -0.915017 -1.782580 0.428909 0.753725 0.681838 -0.874523 0.873458 -0.423369 -0.416892 0.859509 -0.502055 -0.657738 
40201 -2.749228 -2.232929 1.966244 -0.467093 -0.760070 0.543307 0.687434 0.222209 2.228052 -0.028477 2.048282 -0.391556 0.897198 -0.021323 -1.233013 0.272650 
39885 0.729227 0.881080 1.956124 -0.056028 0.035186 0.311917 -1.447388 0.773473 2.203981 0.477469 1.497555 1.431792 0.013447 -1.947727 0.503600 1.715731 
39686 0.082128 0.099727 2.781895 -1.168985 2.563776 1.085859 1.231325 1.350684 1.027806 0.839245 1.043772 0.711859 0.711517 -1.630014 0.882468 -0.171357 
622 -0.444871 0.734574 -0.376353 -0.302187 -1.177983 -0.988417 -1.039309 -0.630156 1.754874 -0.182671 -1.091791 -1.468976 1.333573 1.534231 0.755603 1.078468 
40202 -3.011910 -2.288309 2.394955 -0.408326 -1.038884 0.431177 0.911950 0.256938 1.748669 -0.639668 2.090336 -0.275361 1.098828 0.063876 -0.937738 0.215671 
41248 2.577116 -1.013761 1.143595 -1.576513 -1.149445 1.882594 0.469621 0.893690 0.346062 -0.339542 2.422064 1.439769 -1.010597 -0.783510 -0.755573 0.650691 
39912 0.012001 -0.008283 -0.023405 -0.016963 -0.005695 -0.025079 0.003241 -0.028602 0.004990 0.020442 -0.021322 -0.028216 -0.017467 -0.015275 0.005445 -0.026549 
41097 -0.349334 -0.025981 3.107460 -3.920515 -0.131321 0.210728 1.620387 0.201270 -0.480128 0.345163 0.222228 0.117608 2.493854 -0.772488 0.088501 3.725689 
501 -0.466292 1.571318 -0.493796 -0.567034 2.395614 2.392411 -0.610474 -1.217498 -1.799530 0.141544 -0.073349 0.005017 0.639871 2.775640 -0.034214 1.508315 
40302 0.289049 -0.717806 2.019493 -0.685042 1.100213 -0.425880 -0.752117 -2.024124 1.807267 -0.327226 1.943035 -0.923004 2.038821 -1.341989 0.912096 1.596037 
79 -0.969014 0.060151 -0.316064 0.266313 1.389554 1.428822 -0.421907 -2.601966 -0.589918 1.111032 -2.388034 0.373907 -0.349827 2.441305 2.149187 -1.071999 
3469 -0.008064 -0.015714 0.002550 -0.008159 -0.022587 0.000937 -0.012552 -0.007834 -0.020447 -0.009938 0.003168 0.008420 -0.000668 -0.004395 0.027250 0.029862 
39535 0.717978 -1.910363 1.059150 -2.000160 0.108364 0.091494 0.396771 0.512075 2.631940 -0.676100 -0.900180 -1.384603 1.074421 -0.442596 -0.729412 0.139119 
1537 -0.009254 0.026431 0.018206 -0.004832 0.011868 -0.009164 -0.004221 0.009652 -0.005035 0.029277 0.011988 0.016629 0.003513 -0.001801 -0.018129 0.005357 
40914 -0.008385 0.019671 0.023592 -0.019282 -0.008503 -0.018609 0.020941 0.025720 -0.011490 -0.025823 -0.001669 -0.011004 -0.016369 -0.020524 -0.004198 -0.015197 
585 -0.449308 2.257708 0.457235 0.882440 -0.594305 1.775641 0.261109 0.582467 0.528468 0.042230 -0.503803 0.520287 -0.694612 2.457314 1.009063 1.144275 
40021 -0.003716 0.012988 0.029482 -0.017909 0.000561 0.016212 -0.011744 0.010003 0.009781 0.027064 -0.002615 -0.004748 0.024921 0.026992 -0.028093 -0.010406 
1023 1.122259 2.351499 -1.717445 -0.581779 0.278001 0.234049 0.052454 -1.229795 -1.263657 0.568470 -1.971144 -0.611207 -2.445494 3.135035 0.239537 -0.311950 
947 1.163457 0.498198 -0.064400 -0.072825 -0.548613 0.252396 -2.242718 -1.349787 0.583061 -1.237543 -1.318704 0.693841 0.787695 1.188719 0.168853 0.830698 
544 0.010612 0.020053 0.026110 -0.002666 0.013668 0.015220 -0.018290 -0.008201 0.002136 0.014110 -0.000616 -0.029056 -0.023006 -0.001832 -0.005831 -0.013473 
39780 -0.977065 -1.484353 -0.264103 -3.259214 1.976925 -0.096024 1.151994 0.149494 2.343074 -0.344839 1.482570 0.774700 1.057182 -0.159259 0.028537 1.669133 
3320 -0.195447 1.137357 -1.404819 -0.961567 -1.642040 -0.100728 -1.210980 -1.223016 1.198844 -0.117479 -0.501841 -2.124650 1.750701 2.594638 0.873746 0.216776 
2474 -1.787144 2.345936 -0.102380 0.088564 0.003461 -0.012746 -0.419262 -2.506210 1.285008 -1.397636 -0.701663 0.050554 0.185878 -0.282758 1.094705 0.457145 
1543 2.507421 1.228252 -1.165908 -0.301715 -0.569553 2.199650 -0.407779 -1.564122 0.896084 -0.544590 -1.072847 1.101634 -0.563527 0.943351 0.210880 1.067317 
100 -0.398938 1.603996 1.018516 0.550928 1.202703 -0.087896 -0.353186 -1.398757 0.411507 -1.896865 -0.530517 -0.730165 0.125293 0.369356 0.021536 2.180568 
39951 1.839229 -1.005046 1.882070 -1.282366 -0.806905 -0.198631 -2.466220 0.157056 1.715216 -1.208668 -0.206265 1.334009 2.022625 0.234246 -0.065300 0.635717 
163 -0.290865 -0.022915 -0.168633 -2.211110 -0.504711 -1.128242 -0.701362 -1.903574 -0.340330 -0.776109 -1.953145 -1.190899 -1.028492 2.070408 1.449152 0.248145 
242 0.465591 0.283582 -0.669443 -1.218416 -0.542660 -0.932926 -1.362695 -0.953163 -1.204935 -1.041350 -0.648666 -2.551072 0.594329 1.727533 0.482810 1.278316 
2964 0.888515 0.912518 0.519753 0.154474 0.359269 0.298858 -0.756789 -0.986856 0.062748 -2.931366 -0.046673 0.042883 -0.815322 2.555267 -0.119062 3.065096 
3215 0.253387 -0.956745 0.047186 0.537228 -0.673277 1.219091 -0.974479 -3.386460 -0.911585 0.980464 -0.246514 -1.426733 -1.418185 3.190373 -0.926919 2.111689 
41349 0.206431 -1.771534 1.123415 -2.188702 -0.207180 2.667184 -0.034001 1.687439 1.742786 -1.132908 -0.102832 0.494604 -0.322936 -0.605906 1.527732 2.531152 
39943 0.030815 0.003390 -0.008863 0.029012 -0.002262 -0.002419 0.027792 -0.016562 -0.003052 -0.020131 -0.014105 -0.030581 0.029423 -0.005799 0.030485 -0.023787 
2996 -0.729670 0.634660 0.237209 0.282065 -0.711615 0.094586 -1.506966 -2.426121 -1.195181 1.121869 0.675049 -1.316654 -1.979666 2.734799 -0.647460 2.173606 
39952 1.480483 -0.639340 1.642577 -1.154880 -1.066594 -0.002568 -2.006284 0.019865 1.721939 -0.881376 -0.575802 0.572432 1.923329 -0.018219 -0.077038 0.804733 
42074 -0.247879 0.081597 1.678820 -3.618894 0.011603 1.787434 -0.253392 -0.621459 0.566407 -0.979699 1.335826 -0.086307 -0.178950 -0.359601 -0.009630 0.800164 
1426 -0.014534 0.029086 0.010729 0.008321 0.023678 -0.018716 -0.029764 -0.008933 -0.015198 -0.000295 -0.008184 0.020993 -0.005184 0.003295 -0.009493 0.024858 
3483 -0.678990 1.322292 -0.976838 0.115266 -1.833351 2.136628 -1.242121 -2.211162 0.055226 -0.719237 -0.086765 -0.586000 1.114189 3.286546 0.503369 -0.994994 
41503 -0.696798 -1.488028 0.473882 -2.795052 -0.721251 2.120656 1.332097 0.793081 1.212117 -0.558157 1.183976 1.647266 0.536192 -0.758531 2.694724 1.662774 
41014 -0.007042 -0.021466 -0.022917 -0.026240 -0.016926 0.000800 0.011541 0.001184 0.001572 0.022883 -0.005209 -0.021869 -0.013073 0.026229 0.029371 0.018861 
2557 1.565396 0.782689 -2.053947 2.497554 -0.296440 -0.700593 0.140274 -1.627439 -0.658300 -1.631155 -0.811177 -1.459963 -1.803447 1.268819 1.259873 1.018779 
40073 1.827339 -1.233307 1.651024 -0.767361 0.597102 0.130019 0.483436 1.639665 1.774297 1.448367 0.442790 -1.162542 -0.019208 0.995160 -0.226348 0.668812 
39798 -0.804721 0.003299 1.887739 -2.818203 1.638642 -1.287411 -0.209523 2.700839 2.104311 -3.119080 1.206297 0.669095 -1.194846 -0.779508 0.083680 1.201620 
41335 -0.025047 -0.015302 -0.007231 0.027287 -0.026142 0.027472 0.012579 0.020532 0.016769 0.023189 -0.003195 -0.021075 -0.020336 0.015792 -0.014513 0.016725 
41728 0.004143 0.002353 -0.028212 0.013814 -0.002567 -0.004434 0.026999 -0.009299 0.007385 0.023753 -0.011969 -0.016482 -0.027523 0.005858 0.019926 -0.018477 
3008 -0.028191 0.001452 -0.009153 -0.010402 -0.024891 0.023231 -0.027918 0.028253 0.030228 -0.025487 -0.011953 0.008618 0.013142 0.024245 0.016279 -0.017547 
1719 0.002953 -0.018003 -0.012556 0.017140 -0.030613 -0.014535 -0.027170 0.008187 0.022797 0.000468 -0.003149 -0.008273 -0.023342 0.008452 -0.025454 0.019517 
2918 -0.210134 0.734191 -2.697301 0.386487 -0.871933 1.496378 1.318868 -0.880706 -0.387450 -1.988622 -1.913998 0.418121 -1.100126 2.074987 1.302362 0.301245 
1190 -1.943236 2.802052 -3.533662 -1.044797 -0.151137 0.966905 -0.937460 -0.727160 0.861371 0.709612 0.256522 -0.222372 -0.584404 1.034701 1.402086 1.012432 
1860 -0.352082 0.742306 0.251530 -2.279469 -0.485393 2.496304 -1.115426 -1.588603 0.073078 -0.380934 -0.325846 -0.625201 -1.077692 0.470810 0.968574 0.170136 
40454 0.012291 0.031131 -0.000776 0.019887 -0.012486 -0.007394 -0.030039 -0.023246 0.002838 -0.018758 -0.005041 0.004239 -0.003262 -0.021516 -0.010744 0.029099 
39592 -1.392021 -2.491015 1.823638 -0.323397 -2.025307 -1.025061 -1.037928 2.035299 -0.116725 -1.480073 1.736874 0.728069 1.411433 -1.460216 0.503736 -0.436221 
2138 0.022820 -0.024381 -0.004652 0.019307 -0.028812 0.009849 0.021261 -0.009665 0.029968 -0.014699 -0.015753 0.008542 0.012638 0.008422 -0.013155 0.000688 
40753 -0.001701 0.013782 0.022219 -0.028346 0.019176 0.014075 -0.025843 0.004449 -0.001877 -0.024877 -0.007925 0.010205 -0.001385 0.003371 -0.008989 -0.021819 
40964 -0.025246 -0.029111 0.026628 -0.024241 0.021267 0.015372 -0.017282 0.023446 -0.001495 -0.022359 0.008692 -0.030124 -0.030056 0.026641 0.019590 -0.008193 
41664 0.014687 -0.028058 0.008577 -0.030879 -0.022541 0.013740 -0.015558 -0.015174 0.031113 -0.007146 -0.028402 0.012555 -0.010876 0.015731 0.010084 -0.020934 
42414 -0.006905 0.016940 0.030565 0.014241 0.012753 0.009177 -0.020670 0.013589 -0.029053 0.020762 0.005793 0.013242 -0.006344 -0.029359 0.024992 0.002458 
42010 -0.027519 -0.019116 0.030092 -0.013881 0.002148 0.001685 0.029882 -0.015265 0.005508 -0.001134 -0.013723 -0.028064 -0.016460 0.016372 0.001814 -0.000518 
42557 0.015343 -0.011228 0.007158 0.009755 0.008144 -0.008737 0.011099 0.023263 0.009796 -0.010335 -0.024450 0.013638 0.021275 0.027923 0.003050 -0.029860 
40394 -0.003319 -0.021894 0.024263 0.022649 0.030743 -0.022088 -0.014521 0.004174 -0.016190 -0.006841 -0.026388 0.013349 -0.018139 0.005294 0.028700 -0.023070 
41556 -0.021004 0.011386 0.018908 0.024800 0.007442 0.024131 0.015524 -0.010032 -0.009949 0.009349 -0.019537 -0.028934 -0.009701 0.010985 0.016264 0.019853 
40565 0.024788 0.026111 -0.008909 0.016210 0.000744 0.004920 -0.023767 -0.019355 0.028519 -0.024266 -0.003897 0.011792 -0.015911 -0.017503 0.028242 -0.026092 
40939 0.009056 0.022281 0.003313 -0.003123 0.010647 -0.017220 -0.007395 -0.023795 -0.025787 0.017314 0.020533 0.010526 0.025730 -0.017671 0.002134 0.026597 
39906 0.369075 -2.039108 0.169606 -1.696690 -0.911563 -0.019710 1.813942 -0.041508 3.203151 0.686469 2.231610 1.848521 0.883761 1.165293 -1.514307 1.635652 
40688 -0.019478 0.021457 0.022875 -0.011516 0.017757 -0.007791 0.004843 -0.018027 0.024780 0.013560 -0.029242 0.007016 0.002567 0.004455 0.023161 -0.009627 
42038 0.030220 0.024463 0.030214 -0.000575 0.014965 0.023780 0.000708 -0.007819 0.004654 0.030726 0.021555 0.004773 0.000263 0.026748 0.007795 0.026460 
41545 0.018394 0.008914 0.015093 -0.000377 0.028774 -0.010079 -0.010263 0.007272 0.016754 -0.001912 0.018641 0.023038 -0.016689 0.014861 0.016844 -0.026320 
40820 0.007545 -0.025189 -0.022490 -0.010921 -0.003315 0.015632 -0.028070 0.027246 -0.001419 -0.021855 0.024515 -0.000690 0.014210 -0.031205 -0.012194 0.019532 
40986 -0.002327 -0.015347 -0.020033 0.030293 -0.018803 -0.024087 0.009787 -0.010398 0.012634 -0.029103 -0.023321 -0.003909 0.030460 0.013549 -0.016817 -0.023482 
41538 -0.011223 -0.024060 0.022463 -0.001735 -0.017689 -0.004235 -0.021692 0.019341 -0.003586 -0.023656 0.000132 0.013379 -0.030437 0.024123 0.002974 -0.030364 
41630 -0.019142 0.011172 -0.020002 0.017995 0.000027 0.012687 0.002493 -0.008536 0.012421 -0.005513 -0.030127 -0.011325 0.019016 0.000518 -0.015322 -0.001113 
42145 -0.026085 0.027850 -0.022429 0.026982 -0.028156 0.026679 0.019842 0.030969 -0.001846 0.025325 0.010904 -0.015521 -0.008678 0.005233 -0.009203 0.001771 
43326 0.030449 0.025973 0.015184 0.025228 0.022762 -0.024758 0.030355 0.012856 0.016113 0.006358 -0.001776 0.000791 0.011478 -0.024232 0.021330 -0.021712 
41350 0.025459 0.005542 0.030336 0.012731 0.027782 -0.016625 -0.028467 -0.000373 0.003799 0.000087 -0.005667 -0.024890 0.016987 -0.025376 0.013777 -0.009063 
42209 0.021446 0.029056 0.023027 -0.010509 -0.013096 -0.011422 0.030874 -0.008719 0.023712 0.006511 -0.000769 -0.030063 0.007847 0.001800 0.030638 -0.022780 
40406 0.018410 -0.028485 -0.006742 0.018010 0.025127 -0.009149 0.020880 -0.012183 0.013351 0.025630 0.012918 -0.014728 -0.015942 -0.005204 0.009413 -0.000365 
40528 0.016350 0.020419 0.003527 -0.026713 0.017452 -0.009805 0.004049 -0.010764 -0.027283 -0.005055 -0.027105 0.021115 0.008121 0.016112 0.012602 -0.004317 
41430 0.015266 -0.011731 -0.008665 -0.019679 0.026379 -0.013391 -0.019617 -0.004462 0.026810 -0.023046 0.004160 0.014966 0.017536 0.003249 -0.022295 0.027864 
41214 0.015160 0.000064 0.019182 -0.023387 -0.010593 -0.019906 0.012381 0.006722 -0.011871 -0.028340 -0.018286 0.029325 0.012302 0.018706 0.029722 -0.028823 
40377 0.016029 -0.006696 0.024569 0.024663 -0.030964 -0.029351 -0.024958 0.022790 -0.018326 -0.020940 0.030558 0.001691 -0.007580 -0.000016 -0.018847 0.013124 
40147 0.017876 0.030490 0.007494 -0.000529 0.027767 0.020774 -0.006632 -0.018760 0.007446 -0.000844 0.025690 -0.005435 0.020390 0.009582 0.019499 0.028703 
39448 1.948721 -0.745819 3.248998 -2.302792 -1.130795 0.492331 2.023249 -0.123583 1.033645 -1.253344 1.250940 -0.357019 0.276230 -2.205224 0.995237 -0.468707 
42443 0.024498 -0.013303 0.030962 -0.020640 0.007534 -0.012765 0.009512 -0.024711 0.030670 0.014934 -0.020178 -0.020663 -0.030117 -0.011262 -0.018068 -0.019240 
41151 0.029274 0.030719 0.009005 -0.015559 -0.008930 0.028571 0.007330 0.010888 0.028122 0.010615 0.001322 -0.028766 0.016407 0.020797 0.031019 -0.020263 
39478 -0.891877 -3.129428 2.005776 -0.638909 0.586795 2.739063 1.395319 0.601530 0.590394 0.274072 2.487585 -0.881406 1.933019 0.326345 -0.448848 1.830728 
41368 -0.020744 0.000598 0.022707 0.024877 0.007946 -0.022546 -0.017542 -0.028266 -0.005295 -0.022435 0.008188 0.016553 0.003010 -0.017625 0.014936 0.023591 
41366 -0.013039 -0.011045 -0.004133 -0.002269 -0.021214 0.010001 0.022268 0.021981 0.026337 0.011333 -0.006445 0.007474 0.005589 -0.025605 0.012266 0.005967 
39959 -0.004356 0.021258 0.009066 0.022344 0.028728 -0.022882 -0.007257 0.014611 0.027695 -0.004704 -0.012289 0.018903 -0.006481 -0.005265 -0.028490 0.024476 
41451 0.005302 -0.027493 -0.000196 -0.026286 -0.029728 0.003806 0.018881 0.012124 -0.001221 -0.008046 -0.009344 -0.011661 0.029301 -0.019105 0.017668 0.016618 
41645 0.015938 0.030200 0.030581 -0.023158 -0.009083 0.027564 -0.024317 0.014520 0.002090 0.001307 0.002390 -0.021716 -0.012066 -0.004624 0.025740 -0.017608 
40876 0.027550 0.006839 -0.023603 -0.030772 0.028164 -0.014108 -0.011850 0.021798 -0.024872 0.023356 0.022913 -0.011264 -0.005581 -0.024323 -0.004274 -0.015700 
41608 -0.022362 0.027423 0.024752 0.013371 0.019512 0.003791 -0.006220 -0.028541 -0.019608 -0.004399 -0.010275 0.019696 -0.013744 -0.015702 -0.009874 0.022340 
42782 -0.008797 0.029452 -0.011854 -0.015727 0.027462 0.018760 -0.007425 -0.011497 0.017883 -0.019460 0.027826 0.008664 0.025944 0.021239 0.008940 -0.028487 
40762 0.005745 0.012927 -0.008421 0.006932 -0.010487 0.030799 -0.015467 0.010430 0.025101 -0.021825 0.012217 0.018140 -0.011517 0.024001 -0.010332 0.019319 
40118 0.021263 -0.022153 -0.027449 0.018849 0.030666 -0.022592 -0.030344 -0.025260 0.002045 -0.011495 0.005396 -0.014377 -0.001125 -0.007417 -0.005190 -0.021743 
40875 -0.024742 -0.013288 -0.006437 0.020024 0.025921 -0.016412 0.010443 0.006433 0.011215 0.011531 0.007364 -0.026385 -0.005383 -0.010514 0.024366 -0.026671 
41094 -0.007271 -0.022977 -0.007887 0.010457 -0.024723 -0.013162 -0.018106 -0.019492 -0.009888 -0.015248 0.018122 -0.017886 -0.024288 0.014709 0.015837 0.004533 
39865 0.276848 -1.659555 1.842485 -0.901257 -1.752082 -0.775518 -1.121216 1.877068 0.438728 0.086822 1.641732 2.031613 3.119886 0.262701 2.264128 -1.330673 
40413 0.030602 0.026980 -0.015669 0.021596 -0.013706 -0.015450 0.029287 0.005807 -0.017914 -0.030721 0.003504 -0.001864 0.018955 0.025115 0.009520 -0.012160 
39479 -1.691575 -0.971289 2.912158 -2.264404 -1.261710 -0.943096 0.151415 -0.288640 -0.423913 -0.620787 1.588233 2.538154 1.954955 0.502741 0.785857 1.511708 
39433 0.881935 0.914044 0.768153 -2.268051 0.458187 -2.910857 -0.368667 2.838004 1.353110 -0.023395 1.428200 0.852295 1.772699 -0.585436 1.359101 0.970587 
40191 -0.030266 0.025256 0.022951 -0.011012 -0.028919 0.021644 -0.013391 -0.013373 -0.007004 -0.021214 0.016245 0.019727 -0.026043 0.003127 0.026899 0.015046 
40659 -0.006935 0.029239 0.011736 -0.022532 0.020046 0.007316 -0.020456 -0.010001 -0.022247 0.028178 0.017237 0.026273 -0.007839 0.010772 -0.022646 0.013047 
41928 0.017372 0.014667 -0.021940 0.017705 0.023113 -0.009942 0.028143 -0.001746 -0.005264 0.027766 0.027018 -0.009173 -0.004284 -0.015763 0.014723 -0.015319 
42018 -0.019844 -0.018460 -0.015577 -0.015300 -0.019718 -0.030129 0.007406 0.011392 -0.018555 -0.022450 -0.016912 -0.024112 -0.015377 -0.013978 0.014006 -0.007552 
41598 0.006416 -0.007642 0.030825 0.003453 0.016552 0.009254 -0.020166 0.029412 0.000381 0.002528 0.010447 -0.018542 0.021381 0.016128 -0.024797 -0.026153 
40807 -0.028847 -0.015378 -0.007734 0.011464 0.006924 -0.016793 0.007925 -0.010184 -0.010956 -0.022298 -0.015905 0.007535 -0.019009 0.012053 0.023314 -0.008620 
42080 -0.000633 0.020831 -0.006254 0.008733 0.013897 0.016730 0.029181 0.017602 0.009933 0.028071 0.029032 -0.008380 -0.011547 -0.026200 -0.029161 -0.017455 
39839 1.683699 -1.312917 0.303566 -2.493299 0.076002 0.456814 0.420591 0.989346 0.430060 1.690781 2.008090 1.802690 3.048430 1.711353 0.418861 1.185193 
40256 -0.003777 -0.024915 -0.008177 -0.028956 0.015148 0.012488 -0.011316 0.025323 0.023392 -0.020604 0.020273 0.021314 0.021931 -0.017747 0.001631 0.010774 
41037 0.027367 0.018130 -0.011580 -0.001414 0.009426 -0.025277 -0.010569 0.005258 0.015961 0.005351 0.029078 0.004422 -0.014553 0.028960 0.022398 -0.014663 
39836 0.438559 1.249585 1.987502 0.559653 0.323598 0.701056 0.337744 2.627180 2.092792 1.070833 2.761078 -1.180126 3.084302 -0.887781 -0.177743 -0.222424 
39835 -0.256701 -0.146234 2.469246 -1.783486 0.088281 1.567273 -0.606844 1.458276 -1.466906 -0.301279 3.351121 -0.280864 2.112573 -0.135566 -1.273927 -1.217502 
41741 0.001656 -0.026563 0.030947 0.016759 0.029369 -0.031152 0.013159 -0.025641 -0.000473 -0.028111 -0.016775 0.014295 -0.024395 0.026504 -0.018816 0.000825 
40187 -0.025795 0.004764 0.000200 0.001332 0.027554 -0.018136 -0.013437 -0.026175 -0.003998 -0.013875 0.027185 0.016934 0.005527 -0.001008 -0.025393 -0.005080 
42084 0.010231 0.017535 0.009493 -0.024837 -0.020161 -0.008050 0.015631 -0.021827 0.024704 0.013057 0.017435 -0.022418 0.020802 -0.000199 -0.007555 0.025147 
39978 -0.015266 0.011752 -0.003675 0.000752 0.011227 -0.000894 -0.024637 -0.012595 0.023132 -0.009816 0.016474 0.021237 0.021427 0.028930 -0.027803 0.029008 
42351 0.022713 -0.012586 0.023195 0.015599 -0.003284 0.003333 -0.009241 0.001519 -0.008713 -0.019994 0.024302 0.022901 0.007404 0.023879 -0.023638 0.006501 
42340 -0.000832 0.007022 0.027605 0.019704 -0.001194 0.004630 -0.000681 0.020516 -0.008331 -0.017476 -0.021582 -0.017428 -0.021267 -0.015351 0.004942 0.020127 
40177 -0.023399 0.008075 0.009554 0.013066 0.017498 0.002997 0.001043 -0.018104 0.024277 -0.002263 0.003824 0.025250 -0.002087 -0.026261 -0.004564 0.007386 
41743 0.017509 -0.009427 -0.030958 -0.004313 -0.009708 -0.001565 -0.004068 0.010659 0.026611 0.025645 -0.024481 0.025937 0.002445 -0.008851 0.010344 0.030778 
41226 -0.003105 0.017016 0.031069 0.030065 -0.020313 -0.009057 -0.016016 -0.018195 -0.001328 0.003749 0.018503 -0.015368 -0.007671 -0.025620 -0.012835 0.027802 
40618 -0.022743 0.024905 0.008135 -0.008800 -0.014317 -0.019479 0.027700 0.020333 0.002960 -0.005452 0.007776 0.026334 0.030064 -0.014070 -0.011599 -0.001540 
41751 0.021095 0.014239 0.025240 0.004094 0.008282 0.029670 0.002081 0.001245 -0.023026 -0.001958 0.005838 0.026044 -0.009350 0.025802 0.014051 0.005250 
42680 0.003410 -0.014981 0.019884 0.006246 -0.015018 0.013389 -0.030375 -0.012961 -0.016785 0.014232 0.012690 -0.016238 -0.000912 -0.031007 0.001616 -0.014327 
40586 -0.013298 -0.000257 -0.007933 -0.002345 -0.021717 -0.005822 -0.007166 -0.022285 0.021683 -0.019383 0.028330 0.024487 -0.007122 0.003005 0.013594 0.002229 
40805 -0.029030 -0.004086 0.004290 -0.021678 -0.011814 -0.027963 0.009207 -0.026725 0.029877 0.022197 -0.009741 0.023221 -0.027981 0.002837 -0.012514 -0.007583 
41332 0.018715 -0.026471 -0.005949 0.010747 0.014690 0.009467 0.018744 -0.026282 0.007797 0.013972 0.023478 -0.020038 -0.000988 0.030990 -0.014208 0.018739 
40991 0.004936 -0.004910 0.023851 -0.030070 -0.004704 -0.018533 0.021444 -0.020957 0.017944 0.018443 0.002985 0.019711 0.011356 0.024962 0.008512 0.018693 
40897 -0.007866 -0.001904 0.031191 -0.019130 -0.007496 0.013038 0.017309 -0.010749 -0.002182 -0.026891 -0.008718 0.017468 0.009052 -0.015244 -0.006853 -0.007720 
39922 -0.019691 -0.017453 0.016069 -0.018931 0.006313 -0.020822 0.006338 0.004342 0.009918 0.002971 -0.011633 -0.026767 -0.007900 -0.027131 0.002195 0.002000 
41391 -0.030540 0.010943 -0.021513 -0.029475 -0.025776 0.004889 -0.011469 0.024316 -0.008255 -0.016973 -0.005758 0.012006 0.022999 -0.010697 -0.026842 -0.014647 
40585 0.022087 0.020785 -0.019056 0.011739 0.021236 0.027671 0.026388 -0.013328 0.005798 -0.024220 0.008905 0.008786 -0.023251 -0.028443 0.031034 0.004838 
40674 0.013191 0.012073 0.023439 -0.020289 0.022350 -0.014977 -0.005091 0.016412 -0.010422 -0.018773 -0.030142 0.026074 -0.021648 -0.017869 -0.011675 -0.002044 
41765 0.005272 -0.015195 -0.019026 -0.000560 -0.022434 0.001945 0.019094 -0.011466 0.005585 -0.000630 0.002100 0.001370 0.027805 0.021026 -0.029970 0.027207 
40701 -0.001671 0.001483 -0.021452 0.008428 0.011883 0.015937 -0.026056 0.028039 -0.008682 0.030208 -0.019369 -0.002826 0.000111 0.025741 -0.023851 0.030091 
40512 -0.007637 -0.000394 0.016161 0.006673 0.000301 0.026999 -0.015543 0.009927 0.009277 0.011241 0.030451 0.013486 0.020267 -0.003724 0.006681 0.006608 
42056 -0.012627 -0.020825 -0.031187 -0.005824 0.005322 -0.027368 -0.011866 -0.003303 -0.003036 0.004970 0.026560 -0.012195 0.025776 -0.004869 -0.000872 0.019258 
40972 -0.016640 0.002688 0.024004 -0.029063 0.026943 -0.022164 -0.015024 -0.011649 0.016876 0.011394 -0.031042 -0.017367 0.016636 0.022307 0.015989 0.005540 
40584 -0.019676 0.007648 -0.005766 -0.000545 0.002666 -0.019891 -0.025019 -0.015113 0.006516 0.030513 -0.017355 -0.002032 -0.007153 0.015304 -0.005236 0.027955 
39507 1.255635 -2.981215 1.478238 -0.696157 -0.482239 2.657545 -1.000706 2.182169 1.471341 1.310225 1.645058 1.286721 0.152586 -2.621235 -0.073374 0.352089 
41893 -0.022820 0.024402 -0.007689 0.024266 0.003918 -0.024133 -0.003016 -0.007392 0.019974 -0.018163 -0.026114 0.027661 0.026325 0.023757 0.025557 -0.006316 
40173 -0.022926 -0.026303 0.020159 0.020558 0.029446 -0.030648 0.028982 0.003793 -0.018707 -0.023458 0.013941 -0.020480 0.021091 -0.023286 0.015074 -0.000503 
41511 -0.022057 0.029437 0.025545 0.006108 0.009075 0.022407 -0.008356 0.019860 -0.025162 -0.016057 0.000284 0.014386 0.001209 0.020492 0.029005 -0.021056 
41158 -0.020210 0.004123 0.008471 -0.019084 0.005306 0.010032 0.009970 -0.021689 0.000610 0.004039 -0.004583 0.007260 0.029179 0.030089 0.004850 -0.005477 
42667 -0.017387 0.022754 -0.031065 0.007482 0.018139 -0.005273 0.021460 0.004144 -0.003891 -0.025670 -0.000662 0.020642 -0.020000 0.005507 0.005110 -0.016265 
39810 -1.905666 -0.188033 1.542892 -1.810086 -0.983815 1.346415 1.100933 2.370957 1.677540 0.574006 3.221440 -1.820275 0.814892 0.460233 2.310206 0.438477 
43474 -0.008812 0.004352 0.009981 0.028386 0.031109 0.017829 0.023932 0.007958 0.021286 0.015498 -0.028952 -0.016070 0.025196 -0.021195 0.016371 0.008058 
39499 0.097289 -1.413645 2.904832 -0.174425 -2.981553 0.381594 1.027980 -0.297761 2.502193 -0.610874 3.374146 0.407550 -0.702861 -0.181895 -0.821865 0.627029 
42496 0.003670 -0.025769 0.023684 0.006322 -0.014515 0.029212 -0.000940 -0.031196 -0.012131 -0.017552 -0.022085 0.029248 0.011799 0.002883 0.000288 -0.010589 
41769 0.011375 0.025088 -0.003157 -0.020823 0.018826 -0.000741 -0.023630 0.019052 0.019501 0.016215 0.025782 0.020169 0.014378 -0.005097 -0.002382 -0.028213 
42111 0.020058 -0.005109 0.010042 0.003789 0.006268 0.028876 0.009344 0.011682 0.020859 0.000178 0.019938 -0.030902 0.002308 0.015243 0.019361 -0.009704 
39710 2.495794 -0.607412 0.245749 0.266160 0.071500 1.615163 -0.351741 3.105067 2.651134 -1.142980 2.145476 -0.805311 1.558040 0.024737 -1.410753 1.410104 
40707 -0.022148 0.003833 -0.030943 0.020787 0.030956 0.016822 -0.007715 0.011590 -0.004745 0.006190 -0.027884 -0.009021 -0.003277 0.015883 0.011091 0.010713 
42498 -0.010536 -0.019528 -0.022627 0.013173 0.005703 -0.024850 0.004751 0.018868 0.030792 0.028239 -0.007360 0.001431 0.003208 -0.003816 -0.018923 0.012620 
40091 0.002052 0.001056 0.025728 -0.005183 -0.002949 -0.006951 0.010382 0.031030 -0.026443 0.000484 0.021952 -0.030108 -0.004955 0.004806 -0.024523 -0.011840 
41254 0.015617 0.003085 -0.010878 0.028218 0.005001 0.008018 0.009176 -0.014426 0.011047 -0.014577 -0.002447 0.021359 -0.027767 -0.020753 -0.005709 -0.000167 
41072 0.030159 -0.013440 -0.007444 -0.011622 0.029552 0.020057 0.001135 0.007501 0.018265 -0.016942 -0.018057 0.030835 -0.002728 -0.017991 -0.024981 -0.014861 
39490 -0.181095 -0.439124 -0.120029 -2.781672 0.810691 -0.385787 -0.475291 1.213538 2.205736 0.783621 1.883099 1.558567 0.664250 -2.474325 -2.345221 1.117670 
43060 -0.000328 0.022845 -0.005461 0.001470 0.003460 -0.027154 0.027044 0.003503 0.004379 0.016414 -0.022909 -0.013690 0.003407 0.009994 0.009718 0.001649 
43035 0.017143 0.013156 -0.006910 -0.008098 0.015316 -0.023904 -0.001505 -0.022422 -0.016724 -0.010365 -0.012152 -0.005191 -0.015499 -0.027284 0.001188 -0.029647 
40005 -0.026909 -0.015088 -0.030821 -0.028407 -0.018726 -0.023583 0.025610 0.019036 -0.005600 -0.024449 0.007395 0.023816 0.013447 0.026259 0.017073 -0.024810 
42808 -0.007484 0.000613 -0.014692 0.003041 0.026333 -0.026193 -0.016611 0.002877 -0.024750 -0.025838 -0.026770 0.010831 0.027744 -0.016877 -0.005129 0.016160 
40433 0.012917 -0.002240 -0.021025 0.023747 0.025494 0.030768 -0.003168 -0.008399 -0.011673 -0.014531 0.010355 0.018353 0.027393 0.030807 -0.002916 0.030763 
41422 -0.028206 -0.023648 0.012682 -0.028789 -0.021244 0.022300 0.003439 -0.014792 -0.028870 0.009471 -0.006231 -0.016116 0.012394 -0.018189 0.023710 0.018998 
41490 -0.005852 -0.001111 0.023928 -0.029567 0.011120 0.010901 0.003210 -0.016303 -0.013840 -0.016332 -0.014029 -0.030078 -0.017254 0.023635 0.012251 -0.019134 
41779 0.017479 0.002872 0.012712 0.021413 -0.002415 -0.003427 -0.003855 -0.012931 -0.029083 -0.029439 -0.013037 -0.023532 0.000950 -0.031220 0.025206 -0.021132 
40290 -0.020714 -0.011701 -0.020964 -0.000850 0.000652 -0.020684 -0.017756 -0.004676 -0.012100 -0.029851 -0.003256 0.003522 0.004505 0.004745 0.000074 0.013001 
41266 0.004570 0.017673 -0.014601 0.028646 0.020321 0.021628 0.024008 0.008462 -0.025391 -0.017568 0.015314 -0.011416 -0.006588 0.006530 -0.000643 0.020768 
41821 0.030830 0.028491 -0.030699 -0.015101 -0.005909 -0.001489 -0.003565 0.026483 -0.006454 0.007411 -0.019827 -0.005847 0.030170 -0.025865 0.023054 0.002168 
41156 -0.004433 0.020755 -0.006758 -0.007091 -0.015537 -0.027535 0.024527 -0.013114 -0.017792 -0.017415 0.016321 0.020230 -0.010220 -0.029939 0.008665 0.019700 
41277 0.023781 -0.005536 -0.005278 -0.009822 -0.008564 0.005988 -0.016718 0.014672 0.003098 -0.029546 -0.001242 0.004315 -0.002758 -0.005692 0.018690 0.010865 
40798 -0.009529 0.012118 -0.026258 -0.023295 0.015011 -0.025918 -0.002298 -0.015159 -0.006287 -0.028981 -0.010015 0.008908 -0.009945 -0.015626 -0.009371 -0.024337 
40082 0.020638 0.011218 -0.007200 0.014989 -0.007313 0.001746 0.005285 0.022393 0.016556 -0.015721 -0.010000 -0.028491 0.030720 0.002761 -0.013018 -0.023406 
41068 -0.010719 -0.008237 -0.010603 -0.019969 -0.013035 0.026481 0.006033 0.002328 0.009125 0.010234 -0.001196 0.017118 -0.005764 -0.013032 0.007750 0.013658 
39762 -0.602380 -1.383773 3.543768 -1.855868 -1.048814 1.369447 2.035484 -0.943515 0.465381 -1.099086 1.237625 0.646537 2.178544 0.291581 -1.883791 0.467254 
41434 -0.008003 0.022189 -0.022291 0.002889 0.025326 0.004661 -0.012980 -0.023154 0.028442 -0.024770 -0.019720 -0.017642 0.002323 -0.022157 -0.002474 0.008683 
40551 0.026070 0.009570 -0.030577 -0.001796 0.006908 0.020606 0.029760 -0.028571 -0.007309 -0.023229 0.015451 0.026990 -0.015606 -0.015489 0.029036 0.029145 
40661 -0.001381 -0.021604 0.001177 -0.017222 0.005093 -0.028878 0.003164 -0.029105 -0.010834 -0.008992 -0.003088 0.029630 0.014317 0.019500 0.022459 0.023240 
41993 -0.027855 -0.008832 0.010469 0.019109 0.019878 -0.018792 -0.030268 -0.024756 0.017868 0.017940 -0.012838 -0.009723 0.029591 0.020308 -0.022203 -0.009032 
2831 -0.805352 1.562133 -1.172831 -0.367998 -1.355680 -0.095128 0.919424 -0.211002 0.928088 -0.849562 -1.297100 -1.783382 -2.270877 0.410123 2.650451 1.514411 
39593 -1.378976 -2.474242 1.848536 -0.361730 -1.993026 -1.008370 -1.041628 2.029003 -0.085743 -1.480183 1.760320 0.725806 1.425830 -1.446948 0.485716 -0.416428 
552 0.023582 -0.019345 0.028582 0.001149 -0.023655 -0.006112 0.015921 0.017587 -0.015167 -0.012593 0.010645 -0.004733 -0.012478 0.005157 -0.009706 -0.014052 
3331 1.581144 -0.629465 1.120229 0.728413 0.798305 0.562913 -0.244433 -4.143961 0.850595 -0.342185 -0.189895 0.385871 -1.424735 0.833789 1.884839 3.088614 
1270 -0.020576 0.026706 -0.029982 -0.022868 0.030331 -0.012307 0.012533 0.007730 0.019775 0.030528 0.007746 -0.023868 0.011234 0.011657 -0.004305 -0.003402 
40498 0.021309 -0.009351 -0.030455 0.011510 0.019726 -0.019799 0.000586 -0.021125 -0.008163 0.008632 -0.011770 -0.002673 0.001118 -0.005113 -0.027483 -0.006377 
2683 -1.036856 1.069688 -0.551023 -1.019356 1.072573 -1.377173 -1.776793 -2.617322 0.768153 1.009063 0.027635 1.327609 0.057574 2.562787 0.922038 3.000272 
39837 -0.743492 -1.382179 2.102537 -2.515980 -0.565696 1.584090 1.748922 0.315470 1.039193 -0.581802 0.835847 0.285555 2.523336 1.662454 1.974257 -0.662757 
40622 0.058733 -0.857277 0.732057 -1.564592 0.555265 1.234942 -0.272402 -0.228093 1.573583 1.755784 0.949969 -0.827982 2.927979 -1.813658 0.651770 2.233755 
42470 0.395447 -1.793791 0.606453 -3.538802 -0.244759 -2.106491 -0.274625 0.118547 0.090857 -1.422716 1.539348 -0.297754 2.176447 0.699991 0.715406 -1.077657 
282 1.341713 0.962382 -0.923292 1.615431 1.142346 0.346274 1.193321 -0.616321 1.727683 0.800422 0.090749 -1.761713 -1.652815 2.044757 1.464780 2.271770 
1629 -0.526548 1.099846 0.177964 -0.406705 -0.905446 -0.432201 -1.014960 -1.794894 0.400232 0.332666 1.818722 -1.164451 -1.114856 2.203887 0.017044 2.255312 
232 1.056129 1.320785 -1.788744 -0.381284 -0.664779 1.105142 0.359681 -1.031602 1.794413 0.558896 -0.286960 -0.700908 1.006747 0.005715 1.621451 3.615356 
40304 -0.215466 -1.221896 -0.786222 -0.216417 -0.097397 2.236718 -0.053905 1.328942 1.154207 -1.456151 4.164395 0.824912 1.555093 -0.089813 -1.167171 2.112782 
2733 -0.716891 -0.240382 -1.021151 0.433497 -0.098308 0.824897 -1.612647 -0.832892 -0.904012 0.571385 1.677328 -0.101670 0.189476 2.659464 2.649999 1.317545 
2136 -0.006126 -0.015424 -0.020536 0.014470 0.014263 -0.005853 0.005133 0.021386 -0.015091 -0.012090 0.026468 0.024701 -0.030712 0.009810 0.021009 0.013673 
3245 2.189591 0.192594 -1.145667 1.069827 1.639427 2.065385 0.546040 -1.997090 -0.867968 -0.179209 0.929514 -1.016179 1.038746 1.680383 1.887903 1.607547 
1413 -1.500736 2.019629 -1.199668 -0.726208 0.611111 -0.686694 -2.332631 -1.590960 -1.833850 1.537830 -0.695446 -1.295978 -1.363084 1.206968 1.806568 0.585212 
39556 -0.955136 0.120048 2.002063 -3.291306 0.163793 -0.480411 -1.316265 2.515101 0.242868 1.952236 1.629306 -0.343325 -0.274588 -0.400774 -0.480870 -0.085058 
188 -1.389883 2.263235 0.507991 0.764603 1.692712 1.344903 -1.217752 -0.280583 -1.312394 -1.350233 -2.411771 -1.149942 1.008269 0.237082 1.147659 2.279305 
1139 0.016777 -0.026761 0.017138 -0.011882 -0.022160 0.016257 0.001059 0.006997 0.002441 0.016124 0.000177 0.026181 0.029057 0.016784 -0.007967 -0.027572 
1911 -1.068485 4.185849 -0.655696 0.302696 0.388486 0.666699 -0.755349 -3.400357 1.373873 -0.910276 -1.399123 0.688689 -1.072121 -0.104616 0.678526 0.083841 
1660 0.477123 2.403430 0.587284 0.196146 2.278102 1.547677 0.722689 -1.437884 0.310695 0.070403 -1.315312 -0.682045 -0.989910 -0.282505 2.320357 0.339171 
487 0.004738 -0.018720 -0.004789 -0.019099 -0.019794 -0.030633 -0.008417 -0.018043 -0.000320 -0.027104 0.014872 0.010663 0.001637 -0.026689 -0.019884 -0.006225 
2480 0.002678 0.030185 0.005480 -0.001323 -0.027470 0.031211 -0.025248 -0.016623 0.021545 0.004710 -0.025152 -0.015994 0.025700 -0.005372 -0.016695 -0.010177 
40841 0.800820 -0.315439 1.314601 -1.656866 -0.321134 3.094592 -2.010535 0.648496 0.518221 -2.572865 3.927628 -0.125038 0.768074 -2.519396 1.064321 0.590113 
42677 0.002243 -0.850375 2.349290 -1.196041 0.205803 -0.355781 -1.755341 1.708790 0.770426 -1.285243 1.189324 0.498856 0.351129 -0.337491 3.607553 1.094570 
42492 0.002357 0.003070 0.026522 -0.012446 -0.013386 0.011664 0.008245 0.016931 0.030502 -0.011174 -0.029989 0.027081 0.009998 -0.021501 0.014357 0.007264 
1611 0.004204 -0.022244 0.009447 0.024861 -0.017155 -0.000710 0.026571 -0.024619 -0.006226 0.008922 0.027643 0.019956 -0.024532 -0.011903 -0.009798 0.022843 
3260 -0.360645 1.517454 0.362022 1.439614 -0.844496 -0.316251 -1.387340 -0.304071 -0.477871 -0.600845 -1.589217 -2.495582 -2.921368 2.513354 0.364511 1.086103 
2883 -2.080888 -0.350215 -3.000145 0.467989 0.003415 0.465871 0.016815 -1.257354 1.647481 -1.382839 0.028107 -2.538468 -2.023838 2.575854 1.608611 0.069779 
41766 0.015602 -0.022016 0.010958 0.009831 0.008648 0.007087 -0.021967 0.005029 0.014450 0.020381 0.003275 -0.003375 -0.028515 -0.000688 0.001722 -0.026122 
2555 0.021355 0.003451 0.029039 0.004170 0.008785 -0.017007 -0.030985 -0.016990 -0.018372 0.028758 -0.028936 0.009030 0.003361 -0.002809 0.012724 0.008988 
40154 0.028084 0.010364 0.024660 -0.012233 0.025524 0.018470 0.015661 0.028375 -0.018967 -0.012670 0.010141 -0.020556 0.020588 0.023391 -0.014360 0.017732 
41260 -0.026711 -0.001279 -0.002180 0.023122 -0.003635 -0.011483 -0.007029 0.016122 0.012665 0.021098 -0.004492 -0.029635 0.023167 0.015410 -0.017031 0.000108 
40681 1.043413 -0.382125 2.862754 -0.029031 0.606415 0.552281 -0.152435 -1.525487 2.136636 0.811124 1.387005 2.130867 1.084163 -0.170208 0.285859 1.498517 
2824 -1.201835 -0.949488 -0.721111 0.466574 0.092490 1.640609 -2.326028 0.036931 0.087835 -0.202408 -1.824026 -1.424245 0.210035 2.470711 2.533334 -0.431157 
42353 0.002266 -0.022534 -0.029966 0.002233 0.008495 0.006080 0.008886 0.008660 -0.011581 0.011073 0.004343 0.003675 0.005512 -0.026109 -0.003557 -0.023467 
42874 0.013878 0.016604 -0.021650 -0.005382 -0.016758 0.026908 0.021353 0.015939 0.023956 -0.029378 0.024866 0.014127 0.011997 0.016692 0.028929 -0.021560 
587 0.026466 -0.025311 0.026705 -0.023738 -0.025410 -0.017694 0.026983 0.028100 0.029221 0.005366 -0.008322 -0.017413 0.003834 0.025313 0.023329 0.016480 
452 1.490158 -1.198160 -0.247232 -0.490063 -0.654412 0.284662 0.599132 -3.737710 1.716987 -1.535857 -1.223759 -0.465872 -2.557598 1.503743 1.078099 3.035060 
40216 -0.007927 0.022693 -0.006468 -0.030177 0.007092 0.009315 0.017736 0.004571 0.011429 -0.012059 0.014170 -0.018970 0.006062 0.002517 0.022871 0.013459 
42651 0.007591 -0.012387 -0.025496 -0.018260 -0.014256 0.018424 0.002859 -0.031119 -0.011627 -0.001729 0.007349 0.011014 0.016453 -0.028901 0.028013 -0.027602 
2085 0.024086 -0.003522 -0.004484 -0.017085 -0.019001 0.024604 -0.018854 0.000573 -0.002457 0.021297 0.009317 -0.000995 0.012196 0.030501 -0.004930 0.029969 
39520 0.175595 -2.043714 -0.089673 -1.986393 0.893261 -0.710790 -1.385585 3.599259 1.698599 -1.434137 0.527631 0.082693 0.475508 0.315752 0.177826 -0.057266 
40494 1.523238 0.088923 0.395840 -0.786765 0.813640 -0.003650 0.292124 -0.275456 1.721317 -1.373701 1.265168 1.101284 2.432654 0.452743 0.864281 -0.065537 
1578 0.016930 -0.025754 -0.013716 -0.015513 0.003872 0.025565 -0.000010 -0.000052 0.030914 -0.020955 0.005457 0.023526 -0.025967 0.003631 -0.019777 -0.018020 
39613 -1.601259 -1.732928 0.814933 -2.655950 -0.736042 1.761708 -1.197952 -0.149693 0.330766 -1.904611 1.497342 0.967484 0.706374 -0.239475 -0.154112 0.658921 
1129 0.916652 -0.306814 0.314184 3.482389 -0.739793 1.602968 -0.718490 -1.182339 0.662319 -1.053330 -0.684564 -0.897000 0.964652 4.000785 0.494742 2.602179 
41365 1.076272 1.046239 2.197470 -0.657318 -0.542071 0.941440 -0.076602 1.483307 -0.327270 -0.678185 1.435935 -0.978942 1.324023 -2.367671 0.223765 2.145023 
40446 -0.020607 -0.023496 0.013689 0.002858 -0.024876 -0.014169 0.012747 -0.015861 0.026581 -0.024556 0.019190 -0.010837 0.009739 -0.010713 0.010557 0.007188 
42756 -1.477009 1.101896 1.869370 -1.507521 -0.551456 0.142634 0.890086 -0.522105 1.626639 -0.653247 1.570994 1.309728 2.301562 -1.111472 -0.509143 -0.969288 
40332 0.028984 -0.008695 -0.013624 0.010091 -0.002140 0.010886 -0.021891 0.005532 0.030273 -0.012685 -0.014959 0.001279 0.002201 0.027038 -0.015291 -0.013412 
257 1.161419 1.384960 -0.599278 0.325290 -1.354991 0.477900 0.146379 -0.229392 -0.808093 -2.352165 0.735048 -0.336272 -1.415528 2.236136 3.301123 2.151244 
2308 1.177140 -0.343129 -0.091579 -1.218255 1.894281 0.385498 -0.932194 -1.953873 0.382101 -2.136061 0.175714 -1.196167 0.321864 3.333054 1.338492 -0.342408 
41249 2.506639 -1.304878 1.646942 -2.003797 -1.134439 1.775063 0.418508 1.252611 0.236804 -0.542511 2.985811 0.924816 -1.669080 0.508486 -0.224301 0.507052 
942 -1.606635 2.167991 -1.324991 0.094230 0.828786 2.090228 -0.704967 -1.066380 -1.186287 1.150571 -0.942681 0.142810 -0.938759 -0.086166 0.507128 3.003320 
43143 -1.464285 -2.508602 1.431223 0.041645 -1.037462 1.534225 -1.903368 2.291451 2.300235 -1.064638 0.907019 1.410808 1.202863 0.045082 -0.503443 -0.655751 
3383 0.013695 0.027896 -0.009626 0.023976 0.027004 0.015738 0.022635 -0.000602 0.002289 0.015117 0.031031 0.029813 0.003025 0.007476 -0.006899 -0.020522 
2795 -0.016685 -0.010114 0.027010 -0.021724 -0.024616 -0.024957 0.016546 -0.015784 0.027084 -0.008733 -0.013876 -0.029071 0.014393 0.020003 -0.024218 -0.009826 
1653 1.446563 0.731012 0.162956 -0.362301 1.434736 0.621876 -0.183572 -1.801725 1.042123 -1.390971 0.285391 -0.622266 1.459269 1.208995 2.089081 -0.024849 
361 -0.878447 0.974710 -0.318370 -1.590281 -0.358904 1.865595 -1.409253 0.053283 0.296673 -1.522236 0.138374 -0.520351 -1.105996 0.630405 1.716852 0.335319 
790 -1.295963 2.700073 0.259918 -0.524266 -0.989330 0.952866 -1.111607 -0.955934 1.308753 -0.098057 -3.650799 -1.133387 0.165351 1.419780 2.975038 -1.259258 
2083 -0.518033 -1.118340 -0.203085 0.954565 1.510740 -0.779634 -1.412293 -2.344491 0.513300 -1.558744 -0.238896 -0.509834 -1.604827 1.788662 3.073579 0.294148 
42900 -0.028938 0.021518 -0.001722 0.026143 0.028805 -0.022378 0.008566 -0.018455 0.009460 -0.000051 0.018427 -0.015872 -0.023495 0.007445 0.005400 0.023149 
1727 0.009041 -0.002820 0.025148 -0.021510 0.014294 -0.018151 0.023962 -0.004340 -0.022385 -0.010228 0.026255 -0.014209 0.024982 0.002395 0.009565 0.000642 
401 1.327227 1.091399 -1.912660 1.410460 -0.037581 0.285356 -0.959587 0.416772 -0.409522 1.091923 -1.798354 -0.639595 0.614132 2.523313 0.716894 0.974002 
41977 0.025429 0.017840 0.011507 -0.024043 -0.027424 -0.018487 -0.028254 -0.023963 0.010605 0.007503 0.005777 -0.011859 0.015491 0.014754 0.028639 0.001527 
1632 0.003838 0.000339 -0.029005 0.021077 0.007870 -0.023049 0.029135 0.004800 0.012939 -0.027089 -0.022528 -0.011172 0.020023 -0.030335 -0.018953 0.024919 
2915 -0.570575 1.782258 -0.223013 1.483917 2.185990 -0.313462 -0.529409 -1.937435 0.455162 -1.456788 0.956857 -1.279081 -0.053777 -0.302063 1.398539 2.192728 
114 1.327287 2.659690 -1.678917 0.295367 -0.778858 0.217208 -1.061900 -1.263952 1.396658 0.434161 0.441887 -1.317543 -0.873775 0.771219 2.301670 -0.414182 
1763 0.007423 0.024005 0.027193 0.029485 0.025860 0.008185 -0.027216 -0.004615 0.025803 0.007808 0.007792 -0.011065 0.008228 0.004317 -0.015245 -0.000609 
1527 -0.896350 0.529980 -1.493244 0.989300 0.061037 0.156792 -1.593361 -1.082811 -0.545068 0.044865 1.976491 -0.259341 0.188664 2.145337 1.323300 1.356918 
538 -0.026970 0.009509 -0.005980 0.023046 -0.004139 -0.027307 0.026037 -0.028144 0.008011 -0.009618 0.030283 -0.012622 0.010456 -0.018479 -0.015703 -0.003631 
39953 1.842693 -0.983221 1.806997 -1.242585 -0.730151 -0.112068 -2.280827 0.203168 1.610843 -1.329341 -0.306904 1.329560 2.016673 0.165760 -0.094475 0.868362 
363 0.862580 1.363815 -2.195839 0.984021 0.561535 -0.135934 -1.215298 0.560477 -1.140077 1.037528 -2.042549 -1.263333 0.728985 1.874658 2.012941 0.931876 
2442 -0.111826 0.090254 -0.323634 -0.702772 -0.388997 0.557611 -0.590828 -1.014552 0.291572 -1.011066 -2.545641 -3.125884 0.245828 0.173373 -0.026532 1.853390 
40928 0.892238 -0.569741 2.116991 -1.585486 1.857667 -1.097094 0.508511 -1.634828 1.670269 0.278819 2.418799 0.421084 3.013589 -0.562221 1.584527 1.220134 
381 1.322527 0.292058 -0.015859 0.167500 1.250393 0.386840 0.767560 -0.564945 1.831552 0.389006 -1.620075 -1.914568 -0.800001 1.955821 0.355268 0.855691 
40071 1.869202 -1.228009 1.615794 -0.779901 0.561791 0.160041 0.465673 1.699686 1.738258 1.529461 0.449544 -1.133736 0.027960 1.137218 -0.250031 0.732451 
2115 -0.693557 0.481740 -1.133203 -1.258387 -1.532413 -1.005914 -1.054556 -1.639034 0.551274 -0.678518 -0.269830 -2.521184 0.767142 1.324279 1.424404 0.367348 
41504 -0.000481 0.021838 0.025393 0.005101 -0.022572 0.026038 0.028112 0.010552 -0.024094 -0.009007 -0.028189 -0.011035 -0.004070 0.023147 0.021528 -0.007903 
40103 1.069970 -1.093631 0.618344 -0.640541 0.112015 -0.632476 -0.710967 3.114542 0.611231 1.666931 0.893897 1.526828 3.110318 -0.072475 -0.515221 -0.335865 
3208 -1.548529 0.030223 -1.504186 -1.351706 2.202919 0.051109 0.755251 -0.584448 1.100091 0.839760 -1.726841 -0.685606 -0.145664 1.507285 1.853509 2.490143 
1774 -1.274486 -0.240321 -1.536889 -1.629871 2.657320 0.669298 0.614819 -1.119033 1.346476 0.084887 -0.931351 -0.414865 -0.053102 1.577030 1.376888 2.158980 
39795 1.141800 -0.854533 2.180497 -0.192127 1.276775 0.195086 0.462884 1.368690 1.595763 -0.346410 1.091892 1.079769 2.361174 1.076066 -2.598562 -0.882557 
101 -0.344857 1.007083 0.138320 -0.139915 1.391227 0.849362 0.735913 -2.769552 -0.694608 -1.460988 0.853845 -0.241240 -1.876660 3.141463 1.443764 -0.088027 
40286 1.747090 -1.210040 2.580930 -0.826387 -0.044092 -0.484121 1.534836 -0.555762 0.930534 -1.092697 1.893430 0.758457 -0.729530 -0.428039 0.968187 2.932026 
543 0.027092 0.003818 0.006456 -0.019877 0.012569 0.020469 -0.008646 -0.019553 0.014709 0.009593 0.007074 -0.003299 -0.028011 0.015136 0.031157 0.018144 
2481 0.026009 -0.028333 -0.005735 -0.012843 0.021496 0.016883 0.030188 -0.013251 0.006302 -0.008397 -0.024160 -0.009448 -0.018597 0.002273 -0.003740 -0.012176 
2142 0.025902 -0.016538 0.022112 -0.016551 -0.015476 0.010367 -0.000315 -0.002067 0.030121 -0.013692 0.015894 0.004910 -0.023830 0.017730 -0.014223 -0.006362 
512 1.560137 -0.466361 0.424033 0.697749 0.415147 0.042014 0.473425 -3.636118 0.714099 -1.764874 -0.007626 -0.334435 -2.022588 1.366636 0.898651 3.023144 
2588 -0.330536 0.213249 -1.605348 1.015522 0.860012 -0.773942 -1.413951 -3.429518 -0.789628 1.008191 -2.089040 -0.333598 -0.882515 -0.355794 0.938657 2.601692 
41147 -0.031059 -0.029981 -0.029112 -0.029628 -0.026783 -0.026757 -0.007837 -0.001716 -0.017563 -0.015904 0.001291 -0.016467 -0.002422 -0.015977 -0.024187 -0.022124 
39995 -0.827081 -0.847396 0.041654 0.148588 0.189271 -0.257320 -1.027698 0.589150 0.921099 0.366440 3.578424 0.548075 0.679354 0.410361 -0.474240 0.799947 
354 -0.022484 0.014117 0.011934 -0.008723 -0.013813 -0.003655 -0.005365 0.002099 0.007614 0.025264 -0.026999 0.009320 -0.019726 0.019820 -0.012926 0.002198 
1088 -0.767880 1.338381 -1.576724 1.139234 0.300286 -0.037954 -1.537147 -0.715602 -0.499889 -0.458750 1.999771 -0.585688 0.471707 3.047179 1.015136 1.544841 
39689 0.650786 -1.067527 -0.866040 -1.254036 -1.021117 -0.022656 -0.610854 2.578259 1.055847 -0.819016 2.621156 0.480891 1.906350 -1.919684 0.882102 -1.233632 
375 -0.002296 -0.027646 -0.001204 0.004567 -0.026096 -0.022225 0.009573 0.013192 0.005829 0.025981 0.027735 -0.016940 -0.030544 -0.026582 0.030821 0.028428 
2411 -0.312624 2.003959 1.539453 0.156961 1.304842 -0.458969 -2.104734 -2.291086 1.041593 0.105372 0.472925 -1.432607 0.065397 1.325884 -0.035950 1.269499 
39417 -0.798862 -0.650276 0.123946 -0.593358 0.005599 -0.515190 -1.956241 0.824614 0.466147 0.346871 3.615705 0.812416 1.121249 0.821384 -0.571013 0.611419 
1281 0.470878 0.582002 0.327034 -0.583604 -0.478474 0.339715 -2.659570 -0.974747 -0.167784 -1.096684 -1.216536 0.883629 -0.178754 1.458535 -0.171403 3.232100 
40353 -0.024208 -0.009763 -0.020674 -0.023936 0.023281 0.016166 -0.024546 0.013009 0.017120 -0.024495 -0.005407 0.026822 0.020786 -0.025300 0.014280 0.006761 
40352 -0.011620 0.010821 0.027681 0.020207 0.014629 -0.028436 -0.018915 0.025170 0.022385 0.010249 0.023905 -0.004718 0.012623 -0.016679 0.008680 -0.017699 
2928 -0.982150 -0.906434 -2.625675 0.265349 0.018267 1.159485 0.030644 -1.122196 2.252460 -1.037472 0.515815 -1.938646 -1.802524 2.270081 1.945412 0.387503 
2269 -0.900560 1.241308 -0.687141 1.137393 -0.844575 -0.410614 -1.331529 -1.351388 -0.090542 -0.115754 1.937939 -0.092505 -0.357579 1.903705 0.664788 2.400218 
3373 -1.419075 2.048590 -1.413674 1.908767 -1.584979 -2.035884 -1.313426 -0.271631 1.826543 0.837523 -1.032666 -2.169463 0.039982 2.486426 1.693399 3.516740 
39401 -1.703039 0.195854 1.607194 -0.966863 0.001953 -0.457700 -0.335768 0.084346 2.215123 -0.403191 0.687111 1.260583 2.097101 -1.304167 0.309526 -0.971753 
1366 0.561613 1.004789 0.638928 -0.018891 -1.661635 -0.002960 -0.204113 -1.645333 1.585754 0.194529 -2.157143 -1.172962 1.149039 0.780948 0.995409 1.090039 
63 1.759703 0.067992 -0.726573 -0.660906 1.458525 1.929865 -0.016034 -2.319953 -0.794021 -2.012210 0.608979 -1.059194 1.461375 0.913522 1.954428 1.093032 
2973 0.027938 0.961067 -1.638452 -0.288630 -1.347161 0.971164 -0.498333 -1.430462 0.917384 0.037947 -0.027352 -1.869103 1.740005 3.031927 0.459034 -0.305002 
40973 0.803103 -1.607697 -0.128158 -1.311850 -1.423491 1.581334 0.032730 1.156195 2.388859 0.902008 2.366841 -0.179061 0.537225 1.084616 -0.006651 -1.210845 
40100 -1.636997 -3.162358 1.894512 -1.913175 0.994221 -1.410256 -1.616366 0.208819 1.139854 -1.180993 1.393494 -0.317110 0.001896 -0.122394 0.888159 -0.074715 
2994 -0.019524 0.008655 0.025881 -0.004176 0.028698 -0.010583 -0.026087 -0.022162 -0.027512 -0.006566 -0.012075 -0.004687 0.000324 0.002151 -0.017046 -0.024993 
301 0.885922 0.107024 0.285885 -1.397264 1.626495 0.985515 -0.083365 -1.692365 0.167863 -1.921679 -0.888286 -0.396367 1.614522 2.858571 2.452409 0.231805 
40093 1.430187 -1.595020 2.771832 -0.220115 1.179302 2.853017 0.827601 1.140873 1.330311 -1.961444 1.760606 -0.283832 0.107287 0.082211 -1.407312 2.975865 
414 -0.009102 0.027438 -0.012648 -0.008464 -0.024601 0.000144 -0.005289 0.002603 0.023438 -0.007802 0.017267 0.013974 0.010990 -0.014955 -0.029940 0.014909 
2835 0.691008 0.892870 -2.198142 0.791223 -1.816721 0.005837 0.087523 -1.500932 1.575386 -1.494450 -2.391067 -0.388045 0.641866 -0.169887 1.215007 3.006047 
41033 1.145259 -2.928072 -0.103082 -1.229239 -1.474730 1.978826 -0.560460 0.393832 2.513443 0.443527 2.345016 0.155313 0.578440 0.978343 0.826638 -0.136060 
2649 1.354594 0.658032 -1.030406 0.607116 2.140578 -0.032315 -1.322893 -3.023986 -0.923478 -0.243878 -2.931066 -0.654273 0.173472 1.995167 -0.448681 0.392717 
1464 -0.023201 0.021884 -0.024305 0.002095 -0.029911 0.015098 0.030905 -0.021018 -0.019958 -0.019216 -0.008062 -0.028201 0.007633 0.025390 0.023832 -0.030196 
1883 0.006966 0.020984 -0.005247 -0.022120 0.010265 -0.019738 -0.024012 0.016534 0.002884 -0.005956 -0.008047 -0.003100 -0.014202 -0.018723 0.020185 -0.029265 
863 -0.024391 0.001529 -0.008650 0.005422 0.004543 0.004996 -0.023264 -0.003531 -0.004547 0.020000 0.000757 -0.019992 0.011814 0.027984 -0.021547 0.007798 
438 1.366521 0.496074 0.491835 0.436575 0.825514 2.693910 -0.535836 -1.542320 0.719501 -2.816354 0.887285 -1.305217 -1.824282 1.822652 -0.008460 2.763110 
738 -0.021675 -0.030545 -0.020338 0.028279 -0.019596 -0.016824 0.020224 -0.029014 0.014771 -0.015004 -0.017767 0.007749 0.019901 0.018859 0.030729 0.002824 
2429 0.012398 0.019336 -0.028624 0.023595 0.024487 -0.000878 0.000463 0.028069 -0.020981 -0.013463 0.017405 -0.010119 0.001972 0.025527 -0.000261 0.023286 
562 -0.618546 1.194817 -2.695249 -1.358848 0.185915 1.187225 0.128938 -1.699628 0.796904 2.243613 -2.341795 -1.549003 -1.459183 1.435996 0.747874 0.242018 
644 0.020973 0.000934 0.012423 -0.018001 -0.025043 0.022223 0.002935 -0.030616 0.004196 0.027705 -0.010885 0.015668 -0.015331 -0.001176 0.011000 -0.014892 
2252 -0.004524 -0.004849 -0.000746 0.007588 0.006344 0.029380 0.025167 -0.021384 0.002625 0.004832 -0.011847 -0.003177 -0.014706 0.027953 -0.009249 -0.011031 
39741 -1.490937 -0.425238 1.429485 -1.568119 -0.436671 0.553184 -2.076458 2.135463 -0.255035 0.408294 1.509371 1.130197 2.213159 -1.520481 -2.292032 0.469292 
2846 1.387063 -0.384125 -0.785473 1.406684 1.074733 1.999985 -0.333022 -1.834370 1.180317 -2.777570 0.374814 -1.375239 -1.836340 1.664401 -0.024948 2.379480 
496 -0.012657 -0.008527 0.012484 0.019902 0.012615 -0.029229 -0.011652 -0.026893 0.003769 0.012385 -0.024496 0.000836 0.024281 -0.027238 0.013990 0.029847 
3179 0.028252 -0.026029 -0.028028 0.002522 -0.014591 0.028708 -0.016764 0.001870 0.006104 -0.022206 0.009699 0.001523 0.028812 -0.009828 0.028898 -0.009261 
3049 0.007637 0.000415 -0.028502 -0.025599 -0.025196 0.021216 -0.028711 -0.026984 -0.021835 0.018397 -0.009817 0.022717 0.018696 -0.026597 0.005720 -0.012237 
2010 -0.012001 0.008304 0.011065 -0.001964 -0.019199 0.010795 0.015005 0.011544 -0.017548 0.009196 -0.020544 0.001920 -0.006069 -0.015046 0.006956 0.020921 
1568 0.379930 -1.152248 -1.933252 0.147688 -0.410934 1.326628 -1.258382 -1.228531 2.933147 0.732476 0.516513 -0.895658 -0.683286 2.340381 1.914627 0.894456 
3165 0.014153 0.030917 0.022814 0.013082 -0.019901 -0.018838 0.019430 -0.021750 0.025208 0.028880 -0.015631 0.021848 0.025455 0.030517 0.020170 0.008134 
616 -0.002556 -0.016858 -0.005003 0.004491 -0.026600 0.024451 -0.019861 -0.031074 0.001175 -0.004735 0.000010 0.000073 0.019245 0.002028 -0.030352 0.024690 
40655 0.992590 -1.979063 0.221878 -0.382258 -0.677713 1.307135 -0.711868 1.239349 3.500321 -0.957729 2.617368 -0.378842 -0.696787 0.495150 0.700051 -0.009673 
39546 0.043683 -0.950576 2.771878 0.695451 -1.528513 1.247475 0.026962 1.754160 0.413286 0.832296 3.210774 0.209863 0.420315 -0.294300 2.109142 0.225153 
3328 -1.174386 0.304485 1.215167 1.766479 -0.300913 0.404541 -0.633981 -0.880307 0.593995 1.106557 -1.209308 -1.056710 -1.893579 1.146440 2.210491 2.495939 
40821 0.002876 -0.018506 -0.028379 -0.012294 -0.012379 -0.019189 0.004614 -0.019538 -0.022690 -0.012242 0.025461 -0.006946 -0.027081 -0.016221 0.011702 0.014741 
40547 0.358775 0.847007 0.417271 -1.000462 -1.130549 -0.290182 0.500673 1.411356 0.939154 -2.902131 1.461770 1.148263 2.375072 -1.153851 1.366467 0.957233 
2147 -1.163843 0.339229 1.133885 1.644305 -0.389265 0.456451 -0.613669 -0.778981 0.514965 1.297450 -1.361400 -1.112565 -1.836680 1.066558 2.133882 2.476112 
1734 -0.029671 0.004184 -0.016127 0.018575 0.016354 -0.004556 0.013693 -0.022117 -0.014709 -0.009572 -0.019415 -0.015628 0.003117 -0.029420 -0.012911 0.027299 
42694 -0.393080 -0.419774 2.105876 -1.967599 2.014330 0.703497 0.294625 1.380301 1.589491 0.516452 -0.223883 0.532600 1.127247 -1.673376 1.600173 0.030694 
498 0.207523 1.543838 1.961161 -1.330474 0.007007 1.499857 -0.914867 -0.514434 -0.402616 1.264663 -0.486185 -2.431166 1.632108 1.848347 3.655264 2.653798 
1628 1.003374 -0.906252 -0.579921 -0.395791 -1.862806 0.378758 -2.300164 -2.232728 0.433630 0.885836 -2.449545 -0.800127 -2.223907 1.198865 3.648446 0.340147 
40000 -0.368581 -0.403081 1.144806 -1.262604 0.045291 -0.429640 -0.809718 0.473233 2.259144 0.382569 -0.531545 -0.205602 1.905078 -1.882470 0.650273 -0.549275 
2897 1.138165 1.835709 0.771438 0.088157 -1.553176 -0.579261 0.092992 -2.885818 1.435791 0.757145 -2.369243 -1.145790 -0.093344 1.337765 -0.047606 1.062634 
42175 -0.005898 -0.013913 0.026934 -0.022227 0.022060 0.008109 -0.027719 -0.020438 -0.003632 0.026042 0.003138 0.020719 -0.019497 0.021331 -0.027956 0.028001 
2192 -0.008934 -0.008954 -0.002836 0.006291 -0.002216 0.010383 0.024786 -0.023902 -0.013992 -0.017339 0.016825 -0.026446 0.019215 0.014327 0.013319 -0.012084 
2197 -0.508927 1.298525 -0.233287 -0.429238 0.110791 -1.071532 -1.173338 -1.731013 0.659757 -0.197935 1.025941 0.564805 -0.035204 2.077561 0.271854 3.113835 
1207 -0.012077 0.007800 -0.004759 0.031102 -0.000965 0.006141 -0.015711 -0.016181 -0.000534 -0.003514 0.008066 0.003247 -0.009808 0.022780 -0.018389 0.016145 
3210 0.504521 0.911326 -1.556440 0.179846 0.692274 -0.575342 -2.457276 -0.484971 2.069360 -0.869005 0.555267 0.165206 -2.202524 1.966423 0.089045 3.553090 
2746 1.829117 0.598575 0.446370 0.893461 2.072616 -0.472049 -0.459542 -0.708389 0.683785 0.829334 -2.017846 -0.052776 -2.015249 3.055741 1.678314 0.747177 
3199 0.352025 0.950745 -0.614235 2.207579 2.346553 2.549951 -1.322678 -0.416185 0.909864 -0.728151 -1.419868 -0.250841 0.665578 1.661307 1.272956 0.033507 
39680 0.130697 -1.725752 1.045267 -3.197839 -1.041458 -1.945300 -0.767118 0.409528 0.571378 -0.262231 1.400964 -0.984965 0.292472 0.660302 0.093562 -0.986602 
1186 0.423038 0.609891 -1.205497 -0.498784 0.174135 1.022076 -0.783979 -1.361709 1.055917 1.411927 0.173080 -1.470122 1.297293 -0.553830 2.016758 3.011094 
39677 0.093327 -1.682874 1.083216 -3.194481 -0.928180 -1.876272 -0.799884 0.398584 0.600412 -0.277213 1.358886 -1.007195 0.382368 0.667093 0.063883 -1.070984 
2253 -1.491671 1.543437 -0.557591 2.169797 0.213016 1.390723 -0.849322 -2.101998 -1.484387 1.266154 -1.259076 -0.909290 1.351313 2.027975 -0.044890 0.857685 
966 -1.738051 0.768494 -0.711141 2.183432 -0.391686 0.464938 0.615282 -3.284853 1.726477 0.798543 -0.343791 -0.599850 -1.912971 1.478214 0.907485 1.040721 
997 1.486750 2.973166 1.791161 1.199472 0.489845 -0.973513 -0.617024 -1.679854 0.508526 0.490493 -1.168481 -0.747498 -0.654444 2.245709 1.612113 0.284710 
43347 0.030800 -0.021710 0.012972 0.010625 0.001385 -0.003350 -0.003351 0.002892 0.000351 0.014827 -0.008383 0.007184 0.028675 0.014266 -0.024584 0.012757 
40644 -0.190616 0.690731 4.476449 -0.913241 0.424821 -0.276150 -1.018018 0.171391 1.490040 0.778988 1.991643 -1.708482 0.991503 0.781449 -0.155048 -0.824665 
2656 -0.817152 1.430810 -0.211655 -0.875895 1.373346 -0.207006 0.630010 -0.824574 1.174710 0.760503 -2.217812 -0.572869 -0.327696 -0.002015 3.154524 1.057526 
12 0.498003 1.209965 -1.512578 2.255668 2.583786 1.869416 -0.359326 -0.715387 1.242259 -0.445284 -1.514060 0.249011 0.258585 1.525661 1.153254 0.474384 
41863 -0.344821 0.643708 1.279540 -0.770391 -1.534652 -0.357542 1.040908 1.308883 0.353214 -1.591845 1.276720 -0.427118 3.115242 -1.193908 1.403878 1.644152 
3188 0.026360 -0.013516 -0.007948 -0.027446 0.000118 -0.024209 -0.003519 -0.023215 -0.009460 0.000072 -0.030767 -0.003055 -0.001400 -0.021729 0.012846 0.022294 
2276 1.301221 0.651686 -0.891011 0.393319 2.353034 0.202928 -2.195142 -3.521331 -0.853137 0.591482 -2.335106 0.176809 -0.030079 2.632067 -0.070142 0.126228 
2334 -0.006081 -0.002622 -0.023542 0.007131 0.003323 -0.003060 -0.026438 0.025521 -0.025299 0.008037 0.009302 -0.026095 -0.028469 0.012115 -0.001284 0.029038 
2447 -0.015464 -0.161736 -0.535691 -1.288015 -1.092909 -1.244852 -0.285349 -1.727550 -0.477685 -1.116478 -0.364713 -2.065844 -0.224759 1.763146 1.922780 0.153505 
40959 -1.954952 -0.787843 2.578032 -0.017891 -0.452621 -0.192532 0.718423 1.511274 2.387633 1.811863 1.643178 -0.271256 0.271510 0.218473 0.894318 0.039614 
2519 -0.016167 0.030810 -0.027891 -0.021571 -0.023609 0.006690 0.012915 0.010247 -0.026108 -0.009801 -0.020926 -0.000598 -0.022686 0.025283 -0.026873 -0.002349 
1693 0.958662 3.394219 0.853985 1.485389 1.009287 1.010479 -1.716392 -2.919282 0.929828 1.378584 -0.798030 -1.485635 0.183255 2.302371 0.186786 -0.929971 
39804 1.557751 -0.222430 0.245115 -1.485054 -0.139844 1.244605 1.045002 0.691983 2.169566 1.794927 1.192576 -0.398840 2.036832 -1.231653 0.532935 2.416837 
40367 -0.017464 0.022250 0.015612 -0.021953 -0.026127 -0.009927 -0.009256 -0.023582 0.013123 0.024119 0.027948 0.021970 -0.023739 -0.019166 -0.020235 -0.021041 
39548 0.004890 -0.017713 0.026857 -0.022731 0.006237 -0.021325 -0.009485 -0.025092 0.028152 -0.001683 0.020151 0.008008 0.009113 0.022658 0.030806 0.003327 
40447 -0.625145 -2.342587 0.035089 -0.780485 -0.553633 0.074446 0.638286 2.287516 0.371743 -1.493177 1.310449 2.786282 2.125653 -0.144516 -1.492867 0.685934 
739 -1.247015 -0.170688 -0.385820 -0.016650 1.738357 2.072957 -0.126688 -2.376967 -0.499283 0.431110 -2.456301 0.801073 0.106447 1.484980 1.872359 -0.102393 
1983 0.015312 0.001071 -0.011671 -0.027019 0.015438 -0.010598 0.011312 -0.000327 0.016602 -0.002919 -0.013006 0.026670 0.019779 0.005553 0.017912 -0.019271 
1166 -0.020927 0.011889 -0.027769 -0.008265 -0.010792 0.028785 -0.016260 0.017694 -0.026962 0.022059 0.014353 -0.030261 -0.005962 -0.026841 -0.020891 0.024629 
1475 -0.286685 0.161135 -2.454553 1.424377 -0.321691 0.196516 -2.298581 0.195052 1.084298 0.242612 -1.521883 -1.575356 -1.977153 0.316121 1.782216 1.449218 
3082 -0.027977 -0.022138 -0.002348 -0.002986 -0.013447 -0.026238 -0.029413 0.005883 -0.017410 -0.014897 -0.029562 -0.020099 0.023609 -0.006669 -0.025255 -0.029174 
67 0.646536 1.115973 -1.838696 -0.639916 -0.609994 0.869736 -2.554627 -3.469459 -0.569659 -0.613493 -0.726897 -0.255615 -1.697712 1.526401 0.532462 -1.086151 
1470 -0.031120 -0.005383 -0.004271 0.021825 -0.012196 -0.030480 -0.007410 0.013604 -0.003952 -0.001073 0.024179 0.009595 -0.005413 0.001784 0.005537 -0.000945 
41111 1.091421 -1.867299 2.255305 0.525252 -1.165265 0.711064 0.699885 0.741132 3.028319 -1.517029 0.186392 1.105683 1.085783 -1.533334 1.612663 0.373852 
805 -0.030357 -0.000348 0.028963 0.003667 -0.007038 0.016059 -0.012751 -0.021644 0.013412 0.001033 -0.011923 -0.003680 -0.030529 -0.001481 0.008986 -0.015685 
2185 0.002739 0.005588 -0.019361 0.009725 0.020443 -0.027566 -0.025675 0.030557 0.007935 -0.010121 0.014460 0.020444 0.028690 -0.023133 0.016081 0.031144 
3242 -0.208005 0.469838 -2.643401 0.612513 0.142114 2.391831 0.847147 -1.017046 -0.659796 -2.250745 -1.434810 -0.144445 -0.341685 1.453997 1.430549 -0.222493 
1159 1.021662 2.873752 -2.359096 1.074412 0.413164 1.229460 0.347302 -0.120093 0.393309 -1.207835 -1.585294 -0.434819 -1.783561 -0.352043 1.030310 2.510375 
1667 -0.017113 -0.025434 0.013399 0.025945 0.014996 0.011481 0.019537 0.028955 -0.002640 -0.029912 0.021341 0.028363 -0.006542 0.019332 -0.003649 0.013429 
239 2.413716 0.072961 -2.187965 -0.307445 1.725924 0.006780 -1.255599 -2.912003 1.000966 1.008906 -0.543627 -1.400625 -1.636165 0.184234 1.987889 1.377575 
698 -0.004631 0.006946 0.027102 0.003881 -0.030628 0.022864 -0.005335 -0.010200 0.026443 -0.000463 0.028208 0.011182 -0.019939 -0.019090 -0.019732 -0.005218 
2341 -0.028175 0.026553 -0.030989 0.007985 -0.028538 0.024161 0.003225 0.008798 0.026825 0.002055 -0.017675 -0.029147 0.013889 0.004180 0.008848 0.008409 
2776 1.204212 2.052907 0.949455 0.553939 -0.298207 2.395740 0.157543 -2.512238 -2.180306 0.220727 -1.245237 -0.524590 0.541943 2.651018 1.632682 -0.050347 
135 -1.109169 1.554102 -2.893071 -0.358981 1.953585 1.082343 -0.880953 -2.019634 -0.791151 -1.411567 -0.350880 -2.608983 -2.487415 0.763372 0.673669 -0.119035 
951 -0.030449 -0.025952 -0.027525 0.018346 0.014843 0.010474 -0.012110 -0.029914 -0.028671 0.023280 0.022409 -0.027087 0.027485 -0.006089 -0.008928 0.016084 
3353 0.609041 0.491725 -0.096580 0.766090 0.498775 0.618422 0.427375 -1.174439 -1.947675 -1.146436 -2.258703 1.313370 -0.740357 1.834262 3.620904 1.306422 
2845 -0.006248 -0.028729 0.029146 -0.007625 -0.019062 -0.013299 0.005987 -0.010474 0.012131 0.017573 0.009745 0.014325 0.025806 -0.017167 0.017958 -0.006469 
39553 0.317482 0.116223 1.900442 -1.233990 -1.975925 -1.627621 0.419757 2.810502 1.873694 -0.825499 0.838100 -0.111109 -0.729851 -0.664257 1.261462 0.346510 
3222 0.021858 0.019275 -0.004026 -0.014064 0.013439 0.013709 -0.003260 0.028497 -0.005661 0.000148 -0.030264 0.012769 0.028034 0.022536 0.017500 -0.009490 
43076 -1.625801 -0.848695 2.905929 0.577571 -0.030502 -0.310203 0.628121 1.631675 3.038064 1.589237 2.380410 -0.133846 0.732073 0.346975 1.098198 -0.478156 
1572 -0.008629 -0.006940 -0.002043 -0.000972 -0.012653 0.028998 0.022650 0.024499 -0.019547 -0.028996 0.027384 0.030744 -0.028332 -0.011979 -0.010302 0.007020 
2511 -0.022408 0.014621 0.027758 0.020711 0.030453 0.000998 0.025351 0.029824 -0.009399 -0.024526 0.006891 0.007993 -0.015987 -0.018006 0.012419 0.006974 
39877 -0.346287 -0.513558 0.513662 -3.392644 1.560576 -0.428383 -0.206268 2.005336 -0.318279 -1.449843 2.165348 0.424668 0.902668 -2.687605 -0.672373 -0.293839 
2912 0.015465 0.002078 0.019976 -0.030650 -0.021030 -0.001290 0.010244 -0.007377 -0.017426 0.022502 -0.007727 0.024014 0.027256 -0.007600 0.006102 -0.009719 
2132 0.004616 0.030475 -0.017607 0.021306 0.009380 0.024421 -0.007563 0.012597 0.026901 0.002559 -0.001852 0.000287 -0.004345 0.008834 -0.022936 -0.026366 
2159 -0.005257 -0.022183 -0.015150 0.000020 -0.006107 -0.015298 0.030294 -0.025046 -0.021545 -0.004689 0.012812 -0.002933 0.011906 -0.008912 -0.027559 -0.006881 
2893 1.278554 0.647571 0.863350 0.857005 2.452408 -1.647287 -1.788540 -0.883547 0.255758 0.849994 -1.990396 -0.242310 -1.679384 3.107405 2.606276 1.365267 
40231 -0.022072 0.004336 -0.015120 -0.012279 0.012722 0.021476 0.023001 -0.023185 -0.021759 0.018901 0.006006 -0.010348 0.000462 -0.021943 -0.026064 0.015489 
1705 -0.029015 0.021014 -0.017546 -0.003291 -0.015461 -0.027032 -0.022150 0.016320 0.026474 -0.012761 -0.015463 -0.014544 -0.027233 -0.017228 -0.019945 0.018373 
2901 -1.568899 0.996550 -1.691556 -1.062828 1.746080 0.636803 -1.023265 -0.068285 -1.012559 -0.821935 -3.164966 -0.594183 -2.530988 1.199660 1.302006 0.929404 
1279 0.022530 -0.001294 -0.027281 -0.017543 -0.022022 -0.007836 -0.007959 -0.015021 -0.030380 0.024501 0.030466 -0.023913 -0.001568 0.014663 0.003035 0.007539 
42544 0.018517 0.022220 0.027910 0.021718 -0.000401 -0.002633 -0.011118 -0.023368 -0.010468 0.030925 -0.027136 -0.029086 -0.010708 -0.020661 0.019896 -0.006179 
2150 0.015480 0.027179 -0.001860 -0.012263 -0.024677 -0.000360 -0.021112 -0.026832 -0.020828 -0.012456 -0.013449 -0.013751 0.028004 -0.027665 -0.001329 0.016236 
716 0.013420 0.013583 0.008410 0.005513 0.030148 -0.001016 0.024557 -0.025413 0.001038 0.019359 0.009027 0.022092 -0.010433 -0.006349 0.001860 0.012284 
584 0.012337 -0.018567 -0.003782 0.012547 -0.023426 -0.004601 0.000891 -0.019111 -0.007370 0.001369 -0.022207 0.015943 -0.001019 -0.019212 0.029463 -0.018035 
39501 1.603994 -1.206251 2.508549 -2.217821 -2.458080 -0.366009 -2.081456 0.292099 1.221436 0.547194 2.528587 1.146271 -0.655571 0.221647 -0.382165 -1.104778 
1101 0.013100 -0.013532 0.029451 -0.005610 -0.018269 -0.020562 -0.004450 0.008142 0.009995 0.003474 0.004190 0.002667 -0.026134 -0.022477 -0.029589 0.029725 
1174 -0.980862 0.161635 -0.847799 -1.598421 -2.144125 1.423820 -2.178211 -0.425941 -1.451979 1.552387 -2.029094 -0.639324 -0.535036 3.155102 1.009413 2.024792 
1321 -0.748201 2.213673 -2.798066 0.889459 -1.929043 2.271580 -1.385736 -1.026375 0.645524 -1.263795 -1.803226 -0.164538 -0.734200 1.206058 -0.676851 1.118210 
3249 0.021568 -0.020139 -0.026655 0.011586 0.020229 -0.003976 0.030020 0.023141 -0.003510 -0.023152 0.015955 -0.019687 0.013828 0.028777 -0.028811 -0.002639 
39776 0.969668 -0.731131 1.933539 -1.843084 -1.043779 1.784310 -0.126784 3.951814 0.708693 -1.252646 0.573210 -0.544392 0.009288 0.663573 -0.654715 -0.981005 
2375 -0.030403 -0.013150 -0.030531 0.011006 0.003902 0.013267 0.018820 -0.025779 0.023621 -0.019094 0.005243 -0.015384 0.029728 -0.003785 -0.031221 -0.031051 
298 -0.157882 1.179515 -2.391795 0.268994 -0.217060 1.932362 0.771640 -1.157817 -0.175483 -1.717476 -1.364123 0.548434 -0.869614 1.980879 1.823395 -0.969446 
39403 1.417393 -2.452585 0.400614 -1.932217 -1.191197 -1.372341 -0.348886 1.237924 1.952525 -0.253942 1.370666 0.904134 -1.134505 -1.836997 0.236954 2.066822 
149 -1.035013 2.334797 0.108414 1.459123 0.162661 2.506278 -1.714001 -1.879158 -0.466094 0.631929 -0.073601 -1.283468 1.095064 0.616376 3.047386 -0.436208 
75 -1.528823 0.676867 0.706570 0.147835 -1.135612 -0.867622 -1.177214 -1.234009 2.045527 -0.883614 -1.285874 -1.781169 1.485396 3.383252 1.728545 0.892105 
41615 0.013008 0.023364 -0.027037 0.009068 0.003613 -0.026147 -0.003809 -0.000129 0.030411 0.025722 -0.023977 -0.020740 -0.030621 -0.027085 0.014997 -0.001006 
42975 -0.196119 -0.135774 1.636951 -1.601487 -0.049317 0.759300 -0.333188 -0.133175 0.162013 0.827467 0.469994 -1.037160 3.056913 -1.270910 0.867479 2.104194 
40502 -0.025291 0.020587 0.029634 -0.016902 -0.030293 0.012580 0.014288 0.019311 0.008713 0.020015 0.025858 0.020673 0.030201 0.024337 -0.020617 -0.023559 
1529 -1.883132 0.223546 -0.641503 2.051576 -0.627732 0.862579 0.321119 -3.539601 1.089859 0.643096 -0.028764 -0.543067 -1.417854 1.649029 1.532302 0.523092 
3413 0.002815 0.006091 -0.003538 -0.023341 0.002209 -0.022912 0.005041 -0.004218 -0.009079 0.002589 -0.014151 0.019116 -0.030071 0.001540 -0.021074 -0.026580 
474 0.018333 -0.028989 -0.022566 -0.011424 -0.019138 -0.013803 -0.009836 0.022592 0.030365 0.012919 -0.020971 -0.013400 -0.019680 -0.029878 -0.015932 -0.005141 
40797 -0.027672 -0.020123 -0.001554 -0.010249 -0.023884 -0.007623 0.030951 -0.008216 -0.022964 -0.026555 -0.019003 -0.025409 -0.023937 0.029525 0.013624 -0.010070 
3221 0.612463 1.169470 -1.702073 -0.196272 2.618067 2.075133 -0.799649 1.027597 0.691736 -0.801160 -0.559853 -2.517645 -0.839803 0.496161 1.552563 2.906083 
42162 0.008247 0.004443 -0.026915 0.022374 0.016430 -0.004052 0.029516 0.007318 0.029556 -0.004918 0.011301 0.012097 -0.013897 -0.016709 0.020979 0.025971 
2280 0.685445 1.246846 -3.286663 -1.003252 1.779524 0.830148 -0.375838 -2.175134 2.482227 -1.072545 0.660508 -0.703091 0.677704 1.445516 1.271412 0.557148 
42161 -0.014427 0.017291 -0.017118 0.012029 -0.001850 -0.012200 0.000738 -0.020118 0.023483 0.005000 0.014261 0.006635 0.000050 -0.012162 0.000990 0.019044 
40796 0.006950 -0.004117 0.016588 0.021993 0.013912 -0.020669 0.007345 -0.026511 0.006287 0.029002 -0.002325 -0.027835 -0.014950 0.001342 0.027617 0.007279 
40010 0.029305 0.018420 0.027834 0.021214 -0.016224 0.030433 0.007116 -0.028022 0.021317 0.003200 -0.010122 0.020703 0.017902 -0.019334 0.016157 -0.030852 
3374 -0.933302 1.072454 -0.386676 -0.803671 -0.181556 1.213846 0.227447 -0.783186 0.831885 1.109315 -0.405585 1.462717 -1.863549 2.740978 1.583385 0.864008 
2338 1.543959 2.236324 1.361688 0.581761 -0.178384 -0.540243 0.169725 -1.976132 1.287739 0.952211 -1.141814 -1.263888 -0.775393 1.760712 0.418711 0.719019 
40620 -0.022774 -0.025296 -0.010695 0.016927 -0.007023 -0.021340 0.027914 -0.003257 0.009766 0.001964 0.019220 -0.023135 0.028568 0.026061 0.003263 0.009049 
39671 1.413755 -2.611128 0.485480 -1.346432 -1.782133 -1.399748 -0.113036 1.211021 1.830575 0.058088 1.526182 0.967478 -0.967835 -1.568022 -0.446202 2.075634 
2485 0.933934 -0.434626 0.001465 0.227109 0.977001 0.625003 0.662700 -1.347944 2.658824 -0.049964 -2.398132 -2.324753 -0.253817 1.955685 0.519476 0.793211 
455 -1.888261 0.193137 -0.651316 2.054939 -0.638743 0.882854 0.347997 -3.558764 1.098561 0.665829 -0.018179 -0.535983 -1.386401 1.650133 1.519301 0.544595 
2360 0.025627 -0.030850 -0.022352 0.027486 -0.012333 -0.006387 0.001608 -0.026877 0.028870 -0.009450 -0.006109 -0.002810 0.025211 0.003905 -0.005465 0.026444 
39502 1.206520 -1.360015 2.249302 -2.294416 -2.936779 -0.250505 -2.439293 0.672124 1.367972 0.116729 2.047295 1.086948 -0.668722 0.189912 -0.646923 -0.699913 
2646 1.753131 0.522463 -2.538263 -1.590852 0.602064 -0.651318 0.442639 -0.333742 0.466318 -0.202167 -1.397283 -1.960465 -0.913025 3.950663 3.368990 -0.406368 
717 0.128606 -0.715485 -0.683328 2.761841 -1.381290 1.351260 -0.749570 -1.389461 1.745386 -1.223436 -0.680889 -0.087226 0.845994 3.011567 1.018952 2.368616 
954 0.987814 1.062586 -1.422198 2.003070 -0.561701 0.232373 -0.190570 -2.290214 -0.824006 -1.492914 -1.203957 -1.573549 -2.076716 0.043394 0.659617 0.393580 
1381 1.386139 0.889759 -1.359784 -0.884975 1.203639 0.857820 0.001905 -1.784045 2.259638 -1.682810 0.378564 -0.219264 1.243337 1.451609 1.171243 0.688876 
1843 1.916141 1.708086 0.577525 0.195627 0.776127 -0.069586 0.527395 -0.855143 1.208365 1.033416 -1.431322 -1.924091 -1.253514 2.148953 -0.108773 1.445168 
591 0.007301 0.010699 0.014376 0.007390 -0.007465 0.000739 -0.026361 0.026025 -0.009476 -0.025029 -0.008932 -0.021441 0.002247 -0.022660 -0.018297 -0.020751 
39955 -0.018196 0.004916 0.001207 -0.029521 0.023922 0.007895 -0.004129 -0.027244 -0.011047 0.014598 -0.009893 0.022214 0.002872 0.006469 0.023954 -0.016891 
3380 1.495668 0.413838 0.771710 1.212900 0.944755 0.945930 -0.036420 -1.837934 0.314456 -2.472312 -0.245721 -0.296455 -1.900959 1.160749 0.140794 3.223550 
2807 -1.557694 3.433942 -0.121025 -1.025205 0.743864 0.953403 0.421019 -0.572781 0.423064 0.270499 -1.978371 -2.431255 -1.257409 1.330020 -0.296628 1.180866 
43463 -0.282621 0.320949 2.165029 -1.162187 0.126643 0.838193 1.345932 1.972177 2.142311 0.106514 1.751271 2.423818 -1.139646 1.215624 1.165607 0.839188 
61 -0.923597 1.444724 -0.338878 -0.265669 -0.275513 1.412946 0.932691 0.236710 1.020414 0.694460 -0.353901 0.783011 -1.032579 2.770243 1.503527 1.103791 
39993 -1.820846 -0.294655 0.532640 0.017985 1.407151 0.485037 0.061149 0.860049 1.527217 -0.624986 3.997963 0.585569 0.840265 0.555310 -0.580902 1.140841 
42630 -0.025673 0.018069 0.013018 0.023427 -0.001621 -0.010690 -0.014292 0.005685 -0.031219 0.018962 -0.018591 0.027310 0.011509 0.025970 -0.022341 0.015061 
2921 2.014367 0.436489 0.762511 0.271444 1.866140 0.586257 0.044886 -0.440870 1.034839 0.982723 -1.373231 -0.767767 -1.019195 2.298456 0.644783 1.465228 
2196 0.036465 1.629990 0.308341 -0.276630 2.669070 2.777986 -1.559878 -1.070041 -0.744508 0.452488 -0.297421 -0.431214 0.255714 2.493261 -0.278179 1.161799 
